{
  "type": "LSTMTimeStep",
  "options": {
    "inputSize": 36,
    "hiddenLayers": [8],
    "outputSize": 36,
    "decayRate": 0.999,
    "smoothEps": 1e-8,
    "regc": 0.000001,
    "clipval": 5
  },
  "hiddenLayers": [
    {
      "inputMatrix": {
        "rows": 8,
        "columns": 36,
        "weights": {
          "0": -0.3092540204524994,
          "1": -0.33158203959465027,
          "2": -0.25664666295051575,
          "3": -0.28299424052238464,
          "4": -0.3726891279220581,
          "5": -0.38748782873153687,
          "6": -0.28064313530921936,
          "7": -0.3443145155906677,
          "8": -0.34227773547172546,
          "9": -0.3084934949874878,
          "10": -0.2761506736278534,
          "11": -0.2970646619796753,
          "12": -0.36022865772247314,
          "13": -0.2814006209373474,
          "14": -0.35233810544013977,
          "15": -0.31759923696517944,
          "16": -0.32713156938552856,
          "17": -0.3233601450920105,
          "18": -0.31102967262268066,
          "19": -0.2843123972415924,
          "20": -0.25293412804603577,
          "21": -0.334899365901947,
          "22": -0.24225127696990967,
          "23": -0.38715919852256775,
          "24": -0.3252466022968292,
          "25": -0.322037011384964,
          "26": -0.2685813009738922,
          "27": -0.35849884152412415,
          "28": -0.33211550116539,
          "29": -0.3352713882923126,
          "30": -0.3792971670627594,
          "31": -0.3536796271800995,
          "32": -0.2546862065792084,
          "33": -0.354267418384552,
          "34": -0.38664186000823975,
          "35": -0.2699825167655945,
          "36": 0.20466096699237823,
          "37": 0.5569819211959839,
          "38": 0.2218080461025238,
          "39": 0.35604560375213623,
          "40": 0.33490172028541565,
          "41": 0.14857125282287598,
          "42": 0.24442993104457855,
          "43": 0.20351673662662506,
          "44": 0.5081110000610352,
          "45": 0.34944385290145874,
          "46": 0.2820347249507904,
          "47": 0.2535156011581421,
          "48": 0.268966406583786,
          "49": 0.3192186951637268,
          "50": 0.36481529474258423,
          "51": 0.46525707840919495,
          "52": 0.728223443031311,
          "53": 0.2636542320251465,
          "54": 0.42646700143814087,
          "55": 0.19245970249176025,
          "56": 0.38826239109039307,
          "57": 0.17085550725460052,
          "58": 0.29727447032928467,
          "59": 0.27662578225135803,
          "60": 0.3524239659309387,
          "61": 0.23033282160758972,
          "62": 0.358908087015152,
          "63": 0.32176104187965393,
          "64": 0.2788248062133789,
          "65": 0.19894257187843323,
          "66": 0.45905423164367676,
          "67": 0.4514245092868805,
          "68": 0.4783947467803955,
          "69": 0.21009735763072968,
          "70": 0.3023691177368164,
          "71": 0.35727593302726746,
          "72": 0.16046026349067688,
          "73": 0.8259061574935913,
          "74": 0.21481554210186005,
          "75": 0.3728521466255188,
          "76": 0.4605341851711273,
          "77": -0.043964192271232605,
          "78": 0.14378061890602112,
          "79": 0.004005425609648228,
          "80": 0.7373541593551636,
          "81": 0.4793531000614166,
          "82": 0.18711569905281067,
          "83": 0.11011654138565063,
          "84": 0.10772241652011871,
          "85": 0.36847418546676636,
          "86": 0.2548487186431885,
          "87": 0.634358823299408,
          "88": 1.5852545499801636,
          "89": 0.2951796352863312,
          "90": 0.6310504078865051,
          "91": 0.0690034031867981,
          "92": 0.38416680693626404,
          "93": 0.08169680833816528,
          "94": 0.04883917421102524,
          "95": 0.3452397584915161,
          "96": 0.3679821491241455,
          "97": 0.08934805542230606,
          "98": 0.2450595498085022,
          "99": 0.193785160779953,
          "100": 0.06403542309999466,
          "101": 0.02367417700588703,
          "102": 0.8194319009780884,
          "103": 0.5756531357765198,
          "104": 0.6734915375709534,
          "105": 0.18925367295742035,
          "106": 0.14302006363868713,
          "107": 0.5479710698127747,
          "108": -0.26315292716026306,
          "109": -0.24789153039455414,
          "110": -0.26628923416137695,
          "111": -0.32326051592826843,
          "112": -0.3225210905075073,
          "113": -0.3720724880695343,
          "114": -0.3125388026237488,
          "115": -0.2870367467403412,
          "116": -0.2835425138473511,
          "117": -0.2883439064025879,
          "118": -0.2533395290374756,
          "119": -0.3304155766963959,
          "120": -0.2799097001552582,
          "121": -0.3627140522003174,
          "122": -0.36549100279808044,
          "123": -0.370532751083374,
          "124": -0.3144351840019226,
          "125": -0.3847341537475586,
          "126": -0.32069557905197144,
          "127": -0.3951133191585541,
          "128": -0.3146069347858429,
          "129": -0.29088497161865234,
          "130": -0.28204914927482605,
          "131": -0.3667253851890564,
          "132": -0.25182464718818665,
          "133": -0.3742072880268097,
          "134": -0.2928558588027954,
          "135": -0.34107330441474915,
          "136": -0.2646792232990265,
          "137": -0.24253717064857483,
          "138": -0.29218077659606934,
          "139": -0.2598596215248108,
          "140": -0.3856082856655121,
          "141": -0.29276156425476074,
          "142": -0.2870323359966278,
          "143": -0.35526537895202637,
          "144": -0.10783004015684128,
          "145": 0.07588619738817215,
          "146": -0.03988417983055115,
          "147": -0.06293600797653198,
          "148": -0.036344658583402634,
          "149": -0.05615861341357231,
          "150": -0.12420420348644257,
          "151": -0.09938325732946396,
          "152": 0.06291405111551285,
          "153": -0.09034647047519684,
          "154": -0.16209037601947784,
          "155": -0.03278263285756111,
          "156": -0.03998379409313202,
          "157": -0.007254958618432283,
          "158": -0.08088922500610352,
          "159": -0.045637667179107666,
          "160": 0.23027104139328003,
          "161": -0.06439525634050369,
          "162": -0.051232073456048965,
          "163": -0.03733985871076584,
          "164": -0.08064370602369308,
          "165": -0.13591167330741882,
          "166": -0.013709585182368755,
          "167": -0.007273491006344557,
          "168": -0.10284440219402313,
          "169": -0.025407742708921432,
          "170": -0.02538725733757019,
          "171": -0.08633807301521301,
          "172": -0.028976909816265106,
          "173": -0.11439421772956848,
          "174": 0.0068247015587985516,
          "175": 0.017547523602843285,
          "176": -0.029238227754831314,
          "177": -0.09635896235704422,
          "178": -0.13057157397270203,
          "179": -0.010000812821090221,
          "180": 0.30459141731262207,
          "181": 0.5474876165390015,
          "182": 0.2569144368171692,
          "183": 0.27054518461227417,
          "184": 0.3521072566509247,
          "185": 0.15130773186683655,
          "186": 0.36271706223487854,
          "187": 0.23704171180725098,
          "188": 0.5828618407249451,
          "189": 0.28906750679016113,
          "190": 0.2943708300590515,
          "191": 0.3109310269355774,
          "192": 0.22175255417823792,
          "193": 0.2512713372707367,
          "194": 0.36077678203582764,
          "195": 0.39321479201316833,
          "196": 0.773388147354126,
          "197": 0.3345690071582794,
          "198": 0.4200284779071808,
          "199": 0.32681798934936523,
          "200": 0.3786613345146179,
          "201": 0.25744307041168213,
          "202": 0.2486163228750229,
          "203": 0.3380879759788513,
          "204": 0.29842740297317505,
          "205": 0.33394330739974976,
          "206": 0.25997793674468994,
          "207": 0.29756590723991394,
          "208": 0.20396870374679565,
          "209": 0.19250722229480743,
          "210": 0.4576110541820526,
          "211": 0.44116654992103577,
          "212": 0.5218626260757446,
          "213": 0.3268863558769226,
          "214": 0.2607837915420532,
          "215": 0.40877240896224976,
          "216": 0.46864405274391174,
          "217": 0.3982829451560974,
          "218": 0.31536903977394104,
          "219": 0.40399259328842163,
          "220": 0.44505181908607483,
          "221": 0.40471550822257996,
          "222": 0.45027831196784973,
          "223": 0.38206833600997925,
          "224": 0.47380706667900085,
          "225": 0.4711092412471771,
          "226": 0.3580968677997589,
          "227": 0.3384515345096588,
          "228": 0.31208914518356323,
          "229": 0.40382373332977295,
          "230": 0.3840402066707611,
          "231": 0.4467809200286865,
          "232": 0.6027722358703613,
          "233": 0.3877032399177551,
          "234": 0.41224047541618347,
          "235": 0.3316513001918793,
          "236": 0.3605758249759674,
          "237": 0.4545060992240906,
          "238": 0.3914300799369812,
          "239": 0.43947213888168335,
          "240": 0.47506222128868103,
          "241": 0.3185160756111145,
          "242": 0.43493857979774475,
          "243": 0.4643544554710388,
          "244": 0.319095253944397,
          "245": 0.42000624537467957,
          "246": 0.5020859241485596,
          "247": 0.37957143783569336,
          "248": 0.4700377881526947,
          "249": 0.3735522925853729,
          "250": 0.38694390654563904,
          "251": 0.5000276565551758,
          "252": -0.24595345556735992,
          "253": -0.24961841106414795,
          "254": -0.32131141424179077,
          "255": -0.27480265498161316,
          "256": -0.35446611046791077,
          "257": -0.3433208465576172,
          "258": -0.37115415930747986,
          "259": -0.28918901085853577,
          "260": -0.28522929549217224,
          "261": -0.280527800321579,
          "262": -0.29531893134117126,
          "263": -0.2650594115257263,
          "264": -0.34839966893196106,
          "265": -0.3761906325817108,
          "266": -0.333109050989151,
          "267": -0.3107568323612213,
          "268": -0.2647033631801605,
          "269": -0.2819638252258301,
          "270": -0.36241307854652405,
          "271": -0.3096773028373718,
          "272": -0.2373199164867401,
          "273": -0.26450011134147644,
          "274": -0.2677469849586487,
          "275": -0.25271448493003845,
          "276": -0.2908972501754761,
          "277": -0.34169167280197144,
          "278": -0.3661172091960907,
          "279": -0.2907853126525879,
          "280": -0.26941990852355957,
          "281": -0.2568730115890503,
          "282": -0.33038392663002014,
          "283": -0.23900115489959717,
          "284": -0.37811535596847534,
          "285": -0.359144389629364,
          "286": -0.25261199474334717,
          "287": -0.35014575719833374
        }
      },
      "inputHidden": {
        "rows": 8,
        "columns": 8,
        "weights": {
          "0": -0.3117332458496094,
          "1": 0.24182488024234772,
          "2": -0.28261369466781616,
          "3": -0.32533320784568787,
          "4": 0.2971585988998413,
          "5": -0.32784730195999146,
          "6": 0.19986601173877716,
          "7": 0.29064884781837463,
          "8": 0.26073968410491943,
          "9": 0.4112939238548279,
          "10": -0.7185840606689453,
          "11": 0.27634257078170776,
          "12": -0.23914672434329987,
          "13": -1.391857385635376,
          "14": 1.4505947828292847,
          "15": -0.24406716227531433,
          "16": 0.2397022545337677,
          "17": 0.6654543876647949,
          "18": -2.5549561977386475,
          "19": 0.13565145432949066,
          "20": 0.2153143286705017,
          "21": -0.7947595715522766,
          "22": 0.9474452137947083,
          "23": -0.20282459259033203,
          "24": -0.24755224585533142,
          "25": 0.29642021656036377,
          "26": -0.25345486402511597,
          "27": -0.31847643852233887,
          "28": 0.2923624515533447,
          "29": -0.3253398537635803,
          "30": 0.30438241362571716,
          "31": 0.3602786064147949,
          "32": 0.21504683792591095,
          "33": 1.1404529809951782,
          "34": -1.0823034048080444,
          "35": 0.19933907687664032,
          "36": 0.23189610242843628,
          "37": -1.3921517133712769,
          "38": 1.2199934720993042,
          "39": -0.32384687662124634,
          "40": 0.2430296689271927,
          "41": 0.6314390301704407,
          "42": -0.8715516328811646,
          "43": 0.2569820284843445,
          "44": -0.20881935954093933,
          "45": -1.1610863208770752,
          "46": 1.0810258388519287,
          "47": -0.25743964314460754,
          "48": 0.2516051232814789,
          "49": 0.47744452953338623,
          "50": -0.6464752554893494,
          "51": 0.2992449104785919,
          "52": -0.1317785382270813,
          "53": -1.3153669834136963,
          "54": 1.1992802619934082,
          "55": -0.3494384288787842,
          "56": -0.29786089062690735,
          "57": 0.380496621131897,
          "58": -0.2429180145263672,
          "59": -0.35422471165657043,
          "60": 0.3780037760734558,
          "61": -0.3303077220916748,
          "62": 0.21045705676078796,
          "63": 0.35748621821403503
        }
      },
      "inputBias": {
        "rows": 8,
        "columns": 1,
        "weights": {
          "0": -0.2490806132555008,
          "1": -0.45860356092453003,
          "2": 0.041832756251096725,
          "3": -0.2050924003124237,
          "4": -1.0574101209640503,
          "5": 0.04593558609485626,
          "6": -0.457277774810791,
          "7": -0.2955135107040405
        }
      },
      "forgetMatrix": {
        "rows": 8,
        "columns": 36,
        "weights": {
          "0": -0.3802163302898407,
          "1": -0.3455207645893097,
          "2": -0.35005801916122437,
          "3": -0.23918360471725464,
          "4": -0.3529452979564667,
          "5": -0.34156790375709534,
          "6": -0.3049464225769043,
          "7": -0.3700137138366699,
          "8": -0.3878261148929596,
          "9": -0.3066178262233734,
          "10": -0.2619682848453522,
          "11": -0.25500762462615967,
          "12": -0.27219507098197937,
          "13": -0.32187819480895996,
          "14": -0.2856787443161011,
          "15": -0.23633287847042084,
          "16": -0.35686448216438293,
          "17": -0.3079598546028137,
          "18": -0.2882433533668518,
          "19": -0.38632792234420776,
          "20": -0.33581990003585815,
          "21": -0.35340416431427,
          "22": -0.3789267838001251,
          "23": -0.32569676637649536,
          "24": -0.3821250796318054,
          "25": -0.2712332606315613,
          "26": -0.35188359022140503,
          "27": -0.3752414286136627,
          "28": -0.3872174024581909,
          "29": -0.2912851870059967,
          "30": -0.354385107755661,
          "31": -0.358081191778183,
          "32": -0.3564988374710083,
          "33": -0.3742883801460266,
          "34": -0.3740680515766144,
          "35": -0.29213789105415344,
          "36": 0.3202778697013855,
          "37": 0.42579635977745056,
          "38": 0.35315513610839844,
          "39": 0.48524731397628784,
          "40": 0.3986724615097046,
          "41": 0.4083229601383209,
          "42": 0.3520355522632599,
          "43": 0.32156136631965637,
          "44": 0.5377745628356934,
          "45": 0.4997781813144684,
          "46": 0.41018441319465637,
          "47": 0.42811450362205505,
          "48": 0.3408995568752289,
          "49": 0.38465678691864014,
          "50": 0.41096100211143494,
          "51": 0.357790470123291,
          "52": 0.5039989948272705,
          "53": 0.341423362493515,
          "54": 0.4850037395954132,
          "55": 0.40030673146247864,
          "56": 0.42177441716194153,
          "57": 0.3720318675041199,
          "58": 0.30758875608444214,
          "59": 0.4309651851654053,
          "60": 0.42162075638771057,
          "61": 0.4362422525882721,
          "62": 0.4597766101360321,
          "63": 0.43261072039604187,
          "64": 0.33204272389411926,
          "65": 0.2651609778404236,
          "66": 0.5145303010940552,
          "67": 0.4288322925567627,
          "68": 0.3936901092529297,
          "69": 0.4646693170070648,
          "70": 0.3509524166584015,
          "71": 0.49892014265060425,
          "72": -0.3380149304866791,
          "73": -0.18266573548316956,
          "74": -0.3461122214794159,
          "75": -0.20283642411231995,
          "76": -0.3561096489429474,
          "77": -0.27327749133110046,
          "78": -0.34091684222221375,
          "79": -0.3113442659378052,
          "80": -0.16834291815757751,
          "81": -0.34458857774734497,
          "82": -0.3156261444091797,
          "83": -0.22390764951705933,
          "84": -0.28802287578582764,
          "85": -0.3368382453918457,
          "86": -0.32450011372566223,
          "87": -0.24687911570072174,
          "88": -0.2593502998352051,
          "89": -0.3114020526409149,
          "90": -0.31857192516326904,
          "91": -0.30229100584983826,
          "92": -0.22722014784812927,
          "93": -0.321851521730423,
          "94": -0.24214573204517365,
          "95": -0.23290036618709564,
          "96": -0.3375883102416992,
          "97": -0.2182309329509735,
          "98": -0.33423638343811035,
          "99": -0.2492716908454895,
          "100": -0.2818698585033417,
          "101": -0.25772330164909363,
          "102": -0.32560133934020996,
          "103": -0.27745020389556885,
          "104": -0.23284029960632324,
          "105": -0.33902493119239807,
          "106": -0.20735464990139008,
          "107": -0.3015808165073395,
          "108": -0.347942054271698,
          "109": -0.31980404257774353,
          "110": -0.2558189034461975,
          "111": -0.3240834176540375,
          "112": -0.36241379380226135,
          "113": -0.3061705529689789,
          "114": -0.3844836354255676,
          "115": -0.2544957101345062,
          "116": -0.26574739813804626,
          "117": -0.3707277774810791,
          "118": -0.36188381910324097,
          "119": -0.25976744294166565,
          "120": -0.23609516024589539,
          "121": -0.3516993522644043,
          "122": -0.29986870288848877,
          "123": -0.3207346200942993,
          "124": -0.2635301351547241,
          "125": -0.2677091062068939,
          "126": -0.25972139835357666,
          "127": -0.29194337129592896,
          "128": -0.25432702898979187,
          "129": -0.3304655849933624,
          "130": -0.23623086512088776,
          "131": -0.3515550494194031,
          "132": -0.23665061593055725,
          "133": -0.2540930509567261,
          "134": -0.36667490005493164,
          "135": -0.3157487213611603,
          "136": -0.338666707277298,
          "137": -0.24884481728076935,
          "138": -0.235724076628685,
          "139": -0.278252512216568,
          "140": -0.37852755188941956,
          "141": -0.31627118587493896,
          "142": -0.30416104197502136,
          "143": -0.296869158744812,
          "144": -0.18293006718158722,
          "145": -0.19090040028095245,
          "146": -0.13225151598453522,
          "147": -0.20880182087421417,
          "148": -0.2511436343193054,
          "149": -0.16524916887283325,
          "150": -0.24225960671901703,
          "151": -0.2821539640426636,
          "152": -0.1599779576063156,
          "153": -0.15144504606723785,
          "154": -0.25216954946517944,
          "155": -0.22196651995182037,
          "156": -0.11622191220521927,
          "157": -0.16614478826522827,
          "158": -0.17072151601314545,
          "159": -0.14908729493618011,
          "160": -0.13877789676189423,
          "161": -0.26299619674682617,
          "162": -0.14338703453540802,
          "163": -0.2016456425189972,
          "164": -0.20612595975399017,
          "165": -0.25397729873657227,
          "166": -0.2705400288105011,
          "167": -0.25268641114234924,
          "168": -0.20080134272575378,
          "169": -0.18223287165164948,
          "170": -0.25512269139289856,
          "171": -0.2593407928943634,
          "172": -0.27084818482398987,
          "173": -0.22242197394371033,
          "174": -0.16013509035110474,
          "175": -0.18562962114810944,
          "176": -0.14927200973033905,
          "177": -0.2182600349187851,
          "178": -0.2551767826080322,
          "179": -0.2700834274291992,
          "180": 0.16050121188163757,
          "181": 0.4573926031589508,
          "182": 0.22555488348007202,
          "183": 0.21903294324874878,
          "184": 0.3039237856864929,
          "185": 0.1036558747291565,
          "186": 0.2714405953884125,
          "187": 0.17268313467502594,
          "188": 0.5218625664710999,
          "189": 0.35501453280448914,
          "190": 0.252343088388443,
          "191": 0.1826968938112259,
          "192": 0.15900182723999023,
          "193": 0.2846527099609375,
          "194": 0.1786024123430252,
          "195": 0.3558143675327301,
          "196": 0.6337407231330872,
          "197": 0.29084011912345886,
          "198": 0.3578086495399475,
          "199": 0.15729326009750366,
          "200": 0.27783799171447754,
          "201": 0.13471226394176483,
          "202": 0.15599007904529572,
          "203": 0.34053054451942444,
          "204": 0.1875038594007492,
          "205": 0.17677992582321167,
          "206": 0.2845529615879059,
          "207": 0.16755038499832153,
          "208": 0.19959400594234467,
          "209": 0.1817673295736313,
          "210": 0.32438352704048157,
          "211": 0.3517860770225525,
          "212": 0.45915937423706055,
          "213": 0.24523693323135376,
          "214": 0.2441760152578354,
          "215": 0.3164300322532654,
          "216": 0.3122830092906952,
          "217": 0.5080567598342896,
          "218": 0.3824675381183624,
          "219": 0.4360949695110321,
          "220": 0.4071826636791229,
          "221": 0.28991180658340454,
          "222": 0.3884386420249939,
          "223": 0.27492383122444153,
          "224": 0.609541654586792,
          "225": 0.4594952464103699,
          "226": 0.3191957175731659,
          "227": 0.407818078994751,
          "228": 0.3456188142299652,
          "229": 0.4341413676738739,
          "230": 0.4201663136482239,
          "231": 0.3709533214569092,
          "232": 0.7283444404602051,
          "233": 0.4377343952655792,
          "234": 0.5225295424461365,
          "235": 0.4147704839706421,
          "236": 0.4309631586074829,
          "237": 0.37929603457450867,
          "238": 0.2961902618408203,
          "239": 0.4783611297607422,
          "240": 0.42192938923835754,
          "241": 0.32476624846458435,
          "242": 0.3316493332386017,
          "243": 0.37938055396080017,
          "244": 0.3050721287727356,
          "245": 0.23862777650356293,
          "246": 0.5716693997383118,
          "247": 0.4767082929611206,
          "248": 0.5177979469299316,
          "249": 0.3708714246749878,
          "250": 0.40178245306015015,
          "251": 0.4273727834224701,
          "252": -0.26243919134140015,
          "253": -0.28655362129211426,
          "254": -0.37429580092430115,
          "255": -0.31575724482536316,
          "256": -0.278707355260849,
          "257": -0.38455891609191895,
          "258": -0.38086453080177307,
          "259": -0.3413243591785431,
          "260": -0.3920254707336426,
          "261": -0.284790962934494,
          "262": -0.2403104454278946,
          "263": -0.24764952063560486,
          "264": -0.2739614248275757,
          "265": -0.2537826895713806,
          "266": -0.3231995701789856,
          "267": -0.31700626015663147,
          "268": -0.2968294024467468,
          "269": -0.31310781836509705,
          "270": -0.330305278301239,
          "271": -0.3794907331466675,
          "272": -0.25713202357292175,
          "273": -0.2948552072048187,
          "274": -0.39152392745018005,
          "275": -0.3175267279148102,
          "276": -0.2658560276031494,
          "277": -0.2746542990207672,
          "278": -0.35031524300575256,
          "279": -0.2985989451408386,
          "280": -0.35389599204063416,
          "281": -0.3825671970844269,
          "282": -0.3120819330215454,
          "283": -0.31496351957321167,
          "284": -0.3153163194656372,
          "285": -0.29622089862823486,
          "286": -0.327279269695282,
          "287": -0.3024190068244934
        }
      },
      "forgetHidden": {
        "rows": 8,
        "columns": 8,
        "weights": {
          "0": -0.23754572868347168,
          "1": 0.2515743374824524,
          "2": -0.27010577917099,
          "3": -0.1634376496076584,
          "4": 0.19547244906425476,
          "5": -0.05102295055985451,
          "6": 0.09479394555091858,
          "7": 0.21050113439559937,
          "8": 0.29969775676727295,
          "9": 0.5349888801574707,
          "10": -0.6998056173324585,
          "11": 0.1803240180015564,
          "12": -0.10945682972669601,
          "13": -0.9628471732139587,
          "14": 0.8791630864143372,
          "15": -0.2304065078496933,
          "16": 0.16315902769565582,
          "17": 0.6871819496154785,
          "18": -0.6110475659370422,
          "19": -0.0053827716037631035,
          "20": 0.5012638568878174,
          "21": -0.6364262104034424,
          "22": 0.7455361485481262,
          "23": -0.16280588507652283,
          "24": -0.3074255585670471,
          "25": 0.19991309940814972,
          "26": -0.2929283082485199,
          "27": -0.22128888964653015,
          "28": 0.16319282352924347,
          "29": -0.12055055052042007,
          "30": 0.16781029105186462,
          "31": 0.35214537382125854,
          "32": 0.1731269657611847,
          "33": 0.4863807260990143,
          "34": -0.5134707689285278,
          "35": 0.09524541348218918,
          "36": 0.5288031697273254,
          "37": -0.5776275992393494,
          "38": 0.578325092792511,
          "39": -0.10294585675001144,
          "40": 0.24616071581840515,
          "41": 0.5372213125228882,
          "42": -0.7825371623039246,
          "43": 0.033627018332481384,
          "44": 0.1286882758140564,
          "45": -0.7718727588653564,
          "46": 0.8274487853050232,
          "47": -0.2855242192745209,
          "48": 0.29578638076782227,
          "49": 0.48661768436431885,
          "50": -0.6147582530975342,
          "51": 0.15139439702033997,
          "52": 0.10185229033231735,
          "53": -0.7905719876289368,
          "54": 0.7022175192832947,
          "55": -0.22515784204006195,
          "56": -0.29747092723846436,
          "57": 0.30074089765548706,
          "58": -0.29315876960754395,
          "59": -0.26350876688957214,
          "60": 0.22794793546199799,
          "61": -0.19503897428512573,
          "62": 0.13870622217655182,
          "63": 0.28489381074905396
        }
      },
      "forgetBias": {
        "rows": 8,
        "columns": 1,
        "weights": {
          "0": 0,
          "1": 0,
          "2": 0,
          "3": 0,
          "4": 0,
          "5": 0,
          "6": 0,
          "7": 0
        }
      },
      "outputMatrix": {
        "rows": 8,
        "columns": 36,
        "weights": {
          "0": -0.3662841022014618,
          "1": -0.3027873933315277,
          "2": -0.24682745337486267,
          "3": -0.31829866766929626,
          "4": -0.33429044485092163,
          "5": -0.31281715631484985,
          "6": -0.3475959300994873,
          "7": -0.2979356050491333,
          "8": -0.3217279314994812,
          "9": -0.2545553147792816,
          "10": -0.3353540301322937,
          "11": -0.29135844111442566,
          "12": -0.3017548620700836,
          "13": -0.2438776046037674,
          "14": -0.27866846323013306,
          "15": -0.35409316420555115,
          "16": -0.3793025314807892,
          "17": -0.24850736558437347,
          "18": -0.2965746521949768,
          "19": -0.35248178243637085,
          "20": -0.24916599690914154,
          "21": -0.3075377941131592,
          "22": -0.33338111639022827,
          "23": -0.3175143003463745,
          "24": -0.2649563252925873,
          "25": -0.3526667654514313,
          "26": -0.2808542251586914,
          "27": -0.2646510899066925,
          "28": -0.2801671326160431,
          "29": -0.33490434288978577,
          "30": -0.2735845148563385,
          "31": -0.34383246302604675,
          "32": -0.3544031083583832,
          "33": -0.3214377760887146,
          "34": -0.36536905169487,
          "35": -0.304298460483551,
          "36": 0.3800087869167328,
          "37": 0.48227447271347046,
          "38": 0.4344332218170166,
          "39": 0.44864746928215027,
          "40": 0.45716434717178345,
          "41": 0.4195200502872467,
          "42": 0.39760249853134155,
          "43": 0.3300291895866394,
          "44": 0.5965218544006348,
          "45": 0.5491437315940857,
          "46": 0.3828811049461365,
          "47": 0.4230189919471741,
          "48": 0.43390315771102905,
          "49": 0.5310916900634766,
          "50": 0.3849049508571625,
          "51": 0.44091954827308655,
          "52": 0.7374411821365356,
          "53": 0.4132584035396576,
          "54": 0.44370561838150024,
          "55": 0.3762095272541046,
          "56": 0.5116690397262573,
          "57": 0.42866283655166626,
          "58": 0.3615623712539673,
          "59": 0.5154055953025818,
          "60": 0.5112193822860718,
          "61": 0.4610757529735565,
          "62": 0.37650948762893677,
          "63": 0.4024757146835327,
          "64": 0.4319683313369751,
          "65": 0.31686726212501526,
          "66": 0.6191955208778381,
          "67": 0.45528876781463623,
          "68": 0.5971238613128662,
          "69": 0.45895421504974365,
          "70": 0.4983293414115906,
          "71": 0.5713898539543152,
          "72": 0.3006347119808197,
          "73": 0.3309823274612427,
          "74": 0.3324283957481384,
          "75": 0.3533835709095001,
          "76": 0.32162532210350037,
          "77": 0.23450610041618347,
          "78": 0.2492295354604721,
          "79": 0.17767393589019775,
          "80": 0.3336353003978729,
          "81": 0.34574657678604126,
          "82": 0.2967393696308136,
          "83": 0.22420278191566467,
          "84": 0.24263885617256165,
          "85": 0.20944789052009583,
          "86": 0.29491910338401794,
          "87": 0.35423895716667175,
          "88": 0.44328710436820984,
          "89": 0.3369542062282562,
          "90": 0.281517893075943,
          "91": 0.19122225046157837,
          "92": 0.2664140462875366,
          "93": 0.3100714087486267,
          "94": 0.32339248061180115,
          "95": 0.20791873335838318,
          "96": 0.231229767203331,
          "97": 0.3186700940132141,
          "98": 0.33167728781700134,
          "99": 0.2770441770553589,
          "100": 0.18797574937343597,
          "101": 0.3318094313144684,
          "102": 0.3212127685546875,
          "103": 0.361832857131958,
          "104": 0.3606584966182709,
          "105": 0.34460049867630005,
          "106": 0.23732176423072815,
          "107": 0.35688287019729614,
          "108": -0.3530263602733612,
          "109": -0.2940472662448883,
          "110": -0.36347514390945435,
          "111": -0.3070651888847351,
          "112": -0.3627336025238037,
          "113": -0.3080858290195465,
          "114": -0.28196007013320923,
          "115": -0.3041984736919403,
          "116": -0.2741685211658478,
          "117": -0.33547547459602356,
          "118": -0.3431222140789032,
          "119": -0.2763882279396057,
          "120": -0.34329935908317566,
          "121": -0.37842857837677,
          "122": -0.3349095284938812,
          "123": -0.2954564690589905,
          "124": -0.3616345226764679,
          "125": -0.3313845694065094,
          "126": -0.3867991864681244,
          "127": -0.3150046169757843,
          "128": -0.28397589921951294,
          "129": -0.355885773897171,
          "130": -0.3576536178588867,
          "131": -0.345506489276886,
          "132": -0.3069725036621094,
          "133": -0.27879002690315247,
          "134": -0.2419564127922058,
          "135": -0.28393474221229553,
          "136": -0.26124122738838196,
          "137": -0.3281451165676117,
          "138": -0.3048124611377716,
          "139": -0.3826005458831787,
          "140": -0.31656214594841003,
          "141": -0.36851051449775696,
          "142": -0.319805383682251,
          "143": -0.33357807993888855,
          "144": -0.14183923602104187,
          "145": -0.11260482668876648,
          "146": -0.12528347969055176,
          "147": -0.17209337651729584,
          "148": -0.15328310430049896,
          "149": -0.244602769613266,
          "150": -0.2675895094871521,
          "151": -0.283477783203125,
          "152": -0.19117149710655212,
          "153": -0.1718539446592331,
          "154": -0.193526953458786,
          "155": -0.2443186193704605,
          "156": -0.23466837406158447,
          "157": -0.1617816835641861,
          "158": -0.23048052191734314,
          "159": -0.09786039590835571,
          "160": -0.08479122817516327,
          "161": -0.1928601711988449,
          "162": -0.24340589344501495,
          "163": -0.1995311826467514,
          "164": -0.2482539564371109,
          "165": -0.1956055760383606,
          "166": -0.23189906775951385,
          "167": -0.11446954309940338,
          "168": -0.20724959671497345,
          "169": -0.16144737601280212,
          "170": -0.17387771606445312,
          "171": -0.23823359608650208,
          "172": -0.12940050661563873,
          "173": -0.28087177872657776,
          "174": -0.13831865787506104,
          "175": -0.10879204422235489,
          "176": -0.15600112080574036,
          "177": -0.17888732254505157,
          "178": -0.1880655586719513,
          "179": -0.1932939738035202,
          "180": 0.3818325996398926,
          "181": 0.42965370416641235,
          "182": 0.3081177771091461,
          "183": 0.35067394375801086,
          "184": 0.43823134899139404,
          "185": 0.3019939661026001,
          "186": 0.39364543557167053,
          "187": 0.3667653501033783,
          "188": 0.46403107047080994,
          "189": 0.35687386989593506,
          "190": 0.3309295177459717,
          "191": 0.3037986159324646,
          "192": 0.32003504037857056,
          "193": 0.2920738160610199,
          "194": 0.32554930448532104,
          "195": 0.45690882205963135,
          "196": 0.4701486825942993,
          "197": 0.29494962096214294,
          "198": 0.3676365315914154,
          "199": 0.22449465095996857,
          "200": 0.35060328245162964,
          "201": 0.3324177861213684,
          "202": 0.35376816987991333,
          "203": 0.4061484634876251,
          "204": 0.3308033049106598,
          "205": 0.24748606979846954,
          "206": 0.34829339385032654,
          "207": 0.40361452102661133,
          "208": 0.3109613358974457,
          "209": 0.33482831716537476,
          "210": 0.4439804255962372,
          "211": 0.42888370156288147,
          "212": 0.48122337460517883,
          "213": 0.2826043665409088,
          "214": 0.47034013271331787,
          "215": 0.48770296573638916,
          "216": 0.07915560901165009,
          "217": 1.1587169170379639,
          "218": 0.12738317251205444,
          "219": 0.3809886574745178,
          "220": 0.6217755079269409,
          "221": -0.22730094194412231,
          "222": 0.23832611739635468,
          "223": -0.22045601904392242,
          "224": 0.9699060916900635,
          "225": 0.5231150388717651,
          "226": 0.07165994495153427,
          "227": 0.012240413576364517,
          "228": -0.04184133559465408,
          "229": 0.32928627729415894,
          "230": 0.12581458687782288,
          "231": 1.0594815015792847,
          "232": 2.4322445392608643,
          "233": 0.18886159360408783,
          "234": 0.9699465036392212,
          "235": -0.0811147391796112,
          "236": 0.6318826675415039,
          "237": -0.03170052543282509,
          "238": -0.007659899536520243,
          "239": 0.31637102365493774,
          "240": 0.2522372901439667,
          "241": -0.10294397920370102,
          "242": 0.2393897920846939,
          "243": 0.12637297809123993,
          "244": 0.06694623082876205,
          "245": -0.2400439977645874,
          "246": 1.0778038501739502,
          "247": 0.5155908465385437,
          "248": 0.808298647403717,
          "249": 0.09149739146232605,
          "250": 0.16080951690673828,
          "251": 0.8555024266242981,
          "252": -0.3780880868434906,
          "253": -0.35504278540611267,
          "254": -0.3610750734806061,
          "255": -0.34507232904434204,
          "256": -0.36086001992225647,
          "257": -0.3258134424686432,
          "258": -0.26567187905311584,
          "259": -0.3324167728424072,
          "260": -0.2975195646286011,
          "261": -0.28383341431617737,
          "262": -0.24868175387382507,
          "263": -0.31934672594070435,
          "264": -0.30681100487709045,
          "265": -0.3912706673145294,
          "266": -0.3391363322734833,
          "267": -0.3343260586261749,
          "268": -0.38081324100494385,
          "269": -0.33925193548202515,
          "270": -0.265360027551651,
          "271": -0.24614548683166504,
          "272": -0.2911861836910248,
          "273": -0.3324434459209442,
          "274": -0.29416900873184204,
          "275": -0.3178761899471283,
          "276": -0.3867712616920471,
          "277": -0.28826260566711426,
          "278": -0.3764372169971466,
          "279": -0.31532132625579834,
          "280": -0.33793142437934875,
          "281": -0.2517354488372803,
          "282": -0.3160107135772705,
          "283": -0.3058764934539795,
          "284": -0.3881146311759949,
          "285": -0.35950160026550293,
          "286": -0.3124271035194397,
          "287": -0.2678583562374115
        }
      },
      "outputHidden": {
        "rows": 8,
        "columns": 8,
        "weights": {
          "0": -0.3674410581588745,
          "1": 0.26357218623161316,
          "2": -0.36456286907196045,
          "3": -0.3057919442653656,
          "4": 0.25714072585105896,
          "5": -0.23021186888217926,
          "6": 0.2857048809528351,
          "7": 0.35051026940345764,
          "8": 0.2960348129272461,
          "9": 0.3382125794887543,
          "10": -0.5436809659004211,
          "11": 0.3047408163547516,
          "12": 0.027477484196424484,
          "13": -0.725956380367279,
          "14": 0.6025919914245605,
          "15": -0.3060223460197449,
          "16": 0.22456446290016174,
          "17": 0.01894374191761017,
          "18": -0.5181468725204468,
          "19": 0.17351068556308746,
          "20": 0.41524243354797363,
          "21": -0.22435058653354645,
          "22": 0.18096834421157837,
          "23": -0.28120124340057373,
          "24": -0.258483350276947,
          "25": 0.3144218325614929,
          "26": -0.24106059968471527,
          "27": -0.28102195262908936,
          "28": 0.30550840497016907,
          "29": -0.2190302610397339,
          "30": 0.2424626499414444,
          "31": 0.26302897930145264,
          "32": 0.2961784899234772,
          "33": 0.4330684244632721,
          "34": -0.42061662673950195,
          "35": 0.14148052036762238,
          "36": 0.49925893545150757,
          "37": -0.5616328716278076,
          "38": 0.49466410279273987,
          "39": -0.33093827962875366,
          "40": 0.3314407765865326,
          "41": -0.08376307040452957,
          "42": -0.5336958765983582,
          "43": 0.32522517442703247,
          "44": 0.19508260488510132,
          "45": -0.17495721578598022,
          "46": 0.15615898370742798,
          "47": -0.26625150442123413,
          "48": 0.2989221215248108,
          "49": 0.7861652374267578,
          "50": -1.563773512840271,
          "51": 0.35657739639282227,
          "52": 0.4065113067626953,
          "53": -1.0060679912567139,
          "54": 1.4298603534698486,
          "55": -0.3591509759426117,
          "56": -0.23720236122608185,
          "57": 0.34440675377845764,
          "58": -0.3358311653137207,
          "59": -0.2986140251159668,
          "60": 0.3305441439151764,
          "61": -0.2586093842983246,
          "62": 0.3506624698638916,
          "63": 0.2617736756801605
        }
      },
      "outputBias": {
        "rows": 8,
        "columns": 1,
        "weights": {
          "0": -0.23561733961105347,
          "1": 0.07444187253713608,
          "2": 0.07629178464412689,
          "3": -0.22028091549873352,
          "4": -0.8046320080757141,
          "5": 0.0784146785736084,
          "6": -3.5614967346191406,
          "7": -0.30297747254371643
        }
      },
      "cellActivationMatrix": {
        "rows": 8,
        "columns": 36,
        "weights": {
          "0": -0.3029998242855072,
          "1": -0.23815688490867615,
          "2": -0.3789184093475342,
          "3": -0.3423274755477905,
          "4": -0.29530036449432373,
          "5": -0.29257896542549133,
          "6": -0.24149392545223236,
          "7": -0.31332698464393616,
          "8": -0.27303674817085266,
          "9": -0.29968389868736267,
          "10": -0.2633640170097351,
          "11": -0.29493239521980286,
          "12": -0.24082334339618683,
          "13": -0.351399689912796,
          "14": -0.24372440576553345,
          "15": -0.3838922679424286,
          "16": -0.3483164608478546,
          "17": -0.3652206063270569,
          "18": -0.2622157037258148,
          "19": -0.243464857339859,
          "20": -0.3479783535003662,
          "21": -0.26832884550094604,
          "22": -0.25549331307411194,
          "23": -0.304523229598999,
          "24": -0.3718109130859375,
          "25": -0.28578290343284607,
          "26": -0.3270973265171051,
          "27": -0.3549822270870209,
          "28": -0.28987738490104675,
          "29": -0.2830840051174164,
          "30": -0.3030947744846344,
          "31": -0.2752668857574463,
          "32": -0.2722231149673462,
          "33": -0.3324914574623108,
          "34": -0.28485044836997986,
          "35": -0.3412245810031891,
          "36": -0.37250518798828125,
          "37": -0.3771887421607971,
          "38": -0.2507321536540985,
          "39": -0.35264429450035095,
          "40": -0.29791778326034546,
          "41": -0.33691707253456116,
          "42": -0.3718900680541992,
          "43": -0.3843681812286377,
          "44": -0.3175784647464752,
          "45": -0.32198384404182434,
          "46": -0.33391982316970825,
          "47": -0.3852144479751587,
          "48": -0.26630356907844543,
          "49": -0.269218772649765,
          "50": -0.37091314792633057,
          "51": -0.25950002670288086,
          "52": -0.3525959551334381,
          "53": -0.3578639328479767,
          "54": -0.3722791373729706,
          "55": -0.3891829550266266,
          "56": -0.2385689616203308,
          "57": -0.32569420337677,
          "58": -0.33951589465141296,
          "59": -0.3120388090610504,
          "60": -0.23656253516674042,
          "61": -0.36033201217651367,
          "62": -0.3703020513057709,
          "63": -0.29956117272377014,
          "64": -0.32861411571502686,
          "65": -0.31370699405670166,
          "66": -0.2958827316761017,
          "67": -0.28689438104629517,
          "68": -0.2475304752588272,
          "69": -0.3715250790119171,
          "70": -0.31337571144104004,
          "71": -0.31049618124961853,
          "72": 0.39246344566345215,
          "73": 0.30308517813682556,
          "74": 0.24094121158123016,
          "75": 0.3588363230228424,
          "76": 0.2791416049003601,
          "77": 0.2639232277870178,
          "78": 0.267749160528183,
          "79": 0.280377060174942,
          "80": 0.30668020248413086,
          "81": 0.3734191954135895,
          "82": 0.34788230061531067,
          "83": 0.3496442139148712,
          "84": 0.312441349029541,
          "85": 0.27418407797813416,
          "86": 0.33664724230766296,
          "87": 0.39434465765953064,
          "88": 0.3815707862377167,
          "89": 0.28392112255096436,
          "90": 0.3025818169116974,
          "91": 0.34615981578826904,
          "92": 0.36433473229408264,
          "93": 0.35661643743515015,
          "94": 0.34076759219169617,
          "95": 0.39268097281455994,
          "96": 0.24591805040836334,
          "97": 0.3003459572792053,
          "98": 0.34482303261756897,
          "99": 0.259560227394104,
          "100": 0.24577078223228455,
          "101": 0.3601522743701935,
          "102": 0.38956156373023987,
          "103": 0.3723113536834717,
          "104": 0.23974576592445374,
          "105": 0.3733637034893036,
          "106": 0.3792403042316437,
          "107": 0.30782467126846313,
          "108": -0.381594181060791,
          "109": -0.38859179615974426,
          "110": -0.3717099726200104,
          "111": -0.25063884258270264,
          "112": -0.38525059819221497,
          "113": -0.34021803736686707,
          "114": -0.25550588965415955,
          "115": -0.322302907705307,
          "116": -0.29569336771965027,
          "117": -0.30636271834373474,
          "118": -0.30973464250564575,
          "119": -0.2555614411830902,
          "120": -0.3424529433250427,
          "121": -0.33292311429977417,
          "122": -0.26887285709381104,
          "123": -0.3319610357284546,
          "124": -0.3512871265411377,
          "125": -0.2528245449066162,
          "126": -0.2411479502916336,
          "127": -0.36787039041519165,
          "128": -0.3524753749370575,
          "129": -0.24290508031845093,
          "130": -0.31052884459495544,
          "131": -0.3467332124710083,
          "132": -0.2410045564174652,
          "133": -0.3855733275413513,
          "134": -0.3317341208457947,
          "135": -0.2503887116909027,
          "136": -0.24071066081523895,
          "137": -0.33201706409454346,
          "138": -0.2800809442996979,
          "139": -0.3295707106590271,
          "140": -0.29258307814598083,
          "141": -0.2732638716697693,
          "142": -0.36556318402290344,
          "143": -0.34156399965286255,
          "144": -0.32259559631347656,
          "145": -0.26288193464279175,
          "146": -0.3501540720462799,
          "147": -0.25797006487846375,
          "148": -0.3569519519805908,
          "149": -0.39218640327453613,
          "150": -0.3319683074951172,
          "151": -0.2759876549243927,
          "152": -0.3882099986076355,
          "153": -0.32122039794921875,
          "154": -0.2461119294166565,
          "155": -0.31379032135009766,
          "156": -0.3815879821777344,
          "157": -0.3116300106048584,
          "158": -0.3833751976490021,
          "159": -0.335077702999115,
          "160": -0.38406288623809814,
          "161": -0.3517044186592102,
          "162": -0.28681454062461853,
          "163": -0.31349480152130127,
          "164": -0.2691405713558197,
          "165": -0.3108266592025757,
          "166": -0.3900362253189087,
          "167": -0.3594086766242981,
          "168": -0.33375653624534607,
          "169": -0.31128594279289246,
          "170": -0.29160311818122864,
          "171": -0.339312881231308,
          "172": -0.25283974409103394,
          "173": -0.3915380537509918,
          "174": -0.37230756878852844,
          "175": -0.27056649327278137,
          "176": -0.2858315706253052,
          "177": -0.24068021774291992,
          "178": -0.2894132137298584,
          "179": -0.31859949231147766,
          "180": 0.28540337085723877,
          "181": 0.3657751679420471,
          "182": 0.299924373626709,
          "183": 0.30873721837997437,
          "184": 0.3084496557712555,
          "185": 0.3368777334690094,
          "186": 0.28545665740966797,
          "187": 0.311641126871109,
          "188": 0.26579105854034424,
          "189": 0.3801742196083069,
          "190": 0.3099032938480377,
          "191": 0.35902729630470276,
          "192": 0.3878157436847687,
          "193": 0.26097163558006287,
          "194": 0.30053195357322693,
          "195": 0.37137719988822937,
          "196": 0.3521309196949005,
          "197": 0.28194287419319153,
          "198": 0.3026846945285797,
          "199": 0.30000755190849304,
          "200": 0.3319888710975647,
          "201": 0.2893904447555542,
          "202": 0.3658137917518616,
          "203": 0.3637688457965851,
          "204": 0.35847732424736023,
          "205": 0.28409600257873535,
          "206": 0.34840208292007446,
          "207": 0.29247477650642395,
          "208": 0.30530720949172974,
          "209": 0.3124888241291046,
          "210": 0.2880503535270691,
          "211": 0.2584933638572693,
          "212": 0.28158849477767944,
          "213": 0.39189785718917847,
          "214": 0.29293787479400635,
          "215": 0.31420984864234924,
          "216": -0.35449063777923584,
          "217": -0.3574850559234619,
          "218": -0.36298802495002747,
          "219": -0.32204562425613403,
          "220": -0.344626247882843,
          "221": -0.26568421721458435,
          "222": -0.2786087393760681,
          "223": -0.29837697744369507,
          "224": -0.3047730326652527,
          "225": -0.35438263416290283,
          "226": -0.3872966766357422,
          "227": -0.27611786127090454,
          "228": -0.23880620300769806,
          "229": -0.2680201530456543,
          "230": -0.3793327808380127,
          "231": -0.38338205218315125,
          "232": -0.3543550372123718,
          "233": -0.30153000354766846,
          "234": -0.3657236099243164,
          "235": -0.3208237886428833,
          "236": -0.2667262554168701,
          "237": -0.3023397624492645,
          "238": -0.2905663251876831,
          "239": -0.3271885812282562,
          "240": -0.2422865480184555,
          "241": -0.2925798296928406,
          "242": -0.3769443929195404,
          "243": -0.2561131715774536,
          "244": -0.3291007876396179,
          "245": -0.39441853761672974,
          "246": -0.3444324731826782,
          "247": -0.29305171966552734,
          "248": -0.258059561252594,
          "249": -0.33270463347435,
          "250": -0.3897615969181061,
          "251": -0.33941227197647095,
          "252": 0.3912385404109955,
          "253": 0.2743312120437622,
          "254": 0.28094109892845154,
          "255": 0.23903730511665344,
          "256": 0.3842507302761078,
          "257": 0.26515549421310425,
          "258": 0.3484860062599182,
          "259": 0.28970617055892944,
          "260": 0.3202046751976013,
          "261": 0.3860359489917755,
          "262": 0.27887964248657227,
          "263": 0.28718334436416626,
          "264": 0.3257139325141907,
          "265": 0.2929908037185669,
          "266": 0.33950555324554443,
          "267": 0.35599058866500854,
          "268": 0.30595526099205017,
          "269": 0.2512321174144745,
          "270": 0.2840055823326111,
          "271": 0.30217286944389343,
          "272": 0.29189592599868774,
          "273": 0.348660409450531,
          "274": 0.2656114399433136,
          "275": 0.24823369085788727,
          "276": 0.27486157417297363,
          "277": 0.33594486117362976,
          "278": 0.37153753638267517,
          "279": 0.2607061266899109,
          "280": 0.29510262608528137,
          "281": 0.26458466053009033,
          "282": 0.23681698739528656,
          "283": 0.2431640774011612,
          "284": 0.39246609807014465,
          "285": 0.35646897554397583,
          "286": 0.29978644847869873,
          "287": 0.2955549359321594
        }
      },
      "cellActivationHidden": {
        "rows": 8,
        "columns": 8,
        "weights": {
          "0": -0.28535196185112,
          "1": 0.3212223947048187,
          "2": -0.334489107131958,
          "3": -0.28971433639526367,
          "4": 0.27985021471977234,
          "5": -0.3488354980945587,
          "6": 0.30130431056022644,
          "7": 0.32092201709747314,
          "8": -0.3852514624595642,
          "9": 0.3266649842262268,
          "10": -0.27337947487831116,
          "11": -0.3202768862247467,
          "12": 0.35579532384872437,
          "13": -0.34488630294799805,
          "14": 0.29505303502082825,
          "15": 0.3171886205673218,
          "16": 0.2861250936985016,
          "17": -0.3359128534793854,
          "18": 0.23489698767662048,
          "19": 0.24926389753818512,
          "20": -0.2960926592350006,
          "21": 0.2576429843902588,
          "22": -0.2470879852771759,
          "23": -0.25991466641426086,
          "24": -0.23782110214233398,
          "25": 0.25808390974998474,
          "26": -0.3900480568408966,
          "27": -0.3530479371547699,
          "28": 0.38526931405067444,
          "29": -0.30082419514656067,
          "30": 0.2757163941860199,
          "31": 0.2966049909591675,
          "32": -0.39188843965530396,
          "33": 0.25635847449302673,
          "34": -0.3570856750011444,
          "35": -0.38447481393814087,
          "36": 0.2422056645154953,
          "37": -0.25101885199546814,
          "38": 0.3299178183078766,
          "39": 0.2561103105545044,
          "40": 0.3925740718841553,
          "41": -0.3433206379413605,
          "42": 0.23743489384651184,
          "43": 0.2793324887752533,
          "44": -0.27605506777763367,
          "45": 0.30887371301651,
          "46": -0.33936065435409546,
          "47": -0.3601979911327362,
          "48": -0.2453295737504959,
          "49": 0.2553955614566803,
          "50": -0.38295572996139526,
          "51": -0.36997488141059875,
          "52": 0.32287293672561646,
          "53": -0.3937208950519562,
          "54": 0.28306862711906433,
          "55": 0.3554556965827942,
          "56": 0.3459654748439789,
          "57": -0.3372969329357147,
          "58": 0.33979469537734985,
          "59": 0.2457714080810547,
          "60": -0.2568195164203644,
          "61": 0.2662854492664337,
          "62": -0.2396140843629837,
          "63": -0.2999115586280823
        }
      },
      "cellActivationBias": {
        "rows": 8,
        "columns": 1,
        "weights": {
          "0": -0.3110848069190979,
          "1": -0.3143485188484192,
          "2": 0.31279656291007996,
          "3": -0.3153281807899475,
          "4": -0.26631665229797363,
          "5": 0.3154146373271942,
          "6": -0.31558454036712646,
          "7": 0.3153088390827179
        }
      }
    }
  ],
  "outputConnector": {
    "rows": 36,
    "columns": 8,
    "weights": {
      "0": 0.370623379945755,
      "1": -0.3659139573574066,
      "2": 0.285434752702713,
      "3": 0.26240208745002747,
      "4": -0.2635143995285034,
      "5": 0.4553089439868927,
      "6": -0.26457908749580383,
      "7": -0.33622416853904724,
      "8": 0.27158039808273315,
      "9": -0.6744223237037659,
      "10": 0.6347559094429016,
      "11": 0.27195072174072266,
      "12": -0.3053865134716034,
      "13": 0.6917385458946228,
      "14": -0.46878379583358765,
      "15": -0.24555258452892303,
      "16": 0.34735992550849915,
      "17": -0.2833607792854309,
      "18": 0.2378111481666565,
      "19": 0.2584708034992218,
      "20": -0.17455844581127167,
      "21": 0.29962024092674255,
      "22": -0.2899665832519531,
      "23": -0.3558189868927002,
      "24": 0.3923259675502777,
      "25": -0.6371597647666931,
      "26": 0.42025700211524963,
      "27": 0.3008281886577606,
      "28": -0.2762751877307892,
      "29": 0.5815402269363403,
      "30": -0.38405317068099976,
      "31": -0.34740322828292847,
      "32": 0.3398517966270447,
      "33": -0.3396124839782715,
      "34": 0.31184375286102295,
      "35": 0.3032644987106323,
      "36": -0.1897546797990799,
      "37": 0.29618561267852783,
      "38": -0.32371968030929565,
      "39": -0.369291752576828,
      "40": 0.30891361832618713,
      "41": -0.09701533615589142,
      "42": 0.024004563689231873,
      "43": 0.258440226316452,
      "44": -0.15552927553653717,
      "45": 0.08081036061048508,
      "46": -0.08013178408145905,
      "47": -0.2801658809185028,
      "48": 0.32661426067352295,
      "49": -0.3196111023426056,
      "50": 0.3001125752925873,
      "51": 0.3593865931034088,
      "52": -0.28474462032318115,
      "53": 0.3932034373283386,
      "54": -0.2766806483268738,
      "55": -0.30563488602638245,
      "56": 0.38287410140037537,
      "57": -0.11370792984962463,
      "58": 0.12457723915576935,
      "59": 0.332014262676239,
      "60": -0.2435758262872696,
      "61": 0.08180148899555206,
      "62": -0.06136713922023773,
      "63": -0.23929759860038757,
      "64": 0.2922884225845337,
      "65": -0.9700475931167603,
      "66": 0.7680681347846985,
      "67": 0.258195161819458,
      "68": -0.2110297530889511,
      "69": 0.9825528264045715,
      "70": -0.3219972848892212,
      "71": -0.32138046622276306,
      "72": 0.35435912013053894,
      "73": -0.5816780924797058,
      "74": 0.4183977544307709,
      "75": 0.36094480752944946,
      "76": -0.2527431845664978,
      "77": 0.493635356426239,
      "78": -0.32674524188041687,
      "79": -0.3871869146823883,
      "80": 0.24729683995246887,
      "81": -0.42998629808425903,
      "82": 0.31646236777305603,
      "83": 0.27660441398620605,
      "84": -0.28441306948661804,
      "85": 0.2834987938404083,
      "86": -0.2994711399078369,
      "87": -0.2724195718765259,
      "88": 0.27771860361099243,
      "89": -0.33552873134613037,
      "90": 0.21661213040351868,
      "91": 0.2528862953186035,
      "92": -0.10466766357421875,
      "93": 0.3321824073791504,
      "94": -0.26710978150367737,
      "95": -0.2885594367980957,
      "96": 0.2647418677806854,
      "97": -0.37478724122047424,
      "98": 0.32803109288215637,
      "99": 0.2692601978778839,
      "100": -0.1484643518924713,
      "101": 0.369712233543396,
      "102": -0.25243324041366577,
      "103": -0.2520180940628052,
      "104": 0.27740541100502014,
      "105": -0.6660079956054688,
      "106": 0.5447181463241577,
      "107": 0.2680070400238037,
      "108": -0.2277085930109024,
      "109": 0.707064151763916,
      "110": -0.46739402413368225,
      "111": -0.3149031400680542,
      "112": 0.2613358199596405,
      "113": -0.47443103790283203,
      "114": 0.3977155387401581,
      "115": 0.2661381959915161,
      "116": -0.1693844497203827,
      "117": 0.5245285630226135,
      "118": -0.35613808035850525,
      "119": -0.3923059403896332,
      "120": 0.34385040402412415,
      "121": -0.22964972257614136,
      "122": 0.23401710391044617,
      "123": 0.30662286281585693,
      "124": -0.21494854986667633,
      "125": 0.19434203207492828,
      "126": -0.4664061963558197,
      "127": -0.256971150636673,
      "128": 0.32511720061302185,
      "129": -0.781482458114624,
      "130": 0.6487780213356018,
      "131": 0.2911139726638794,
      "132": -0.3051798939704895,
      "133": 0.7326698899269104,
      "134": -0.6490613222122192,
      "135": -0.36800405383110046,
      "136": 0.2776215076446533,
      "137": -0.49882224202156067,
      "138": 0.34988734126091003,
      "139": 0.36368292570114136,
      "140": -0.16783860325813293,
      "141": 0.4222549498081207,
      "142": -0.32803088426589966,
      "143": -0.34592363238334656,
      "144": 0.3582773208618164,
      "145": -0.42786702513694763,
      "146": 0.40436699986457825,
      "147": 0.3543904721736908,
      "148": -0.2047852724790573,
      "149": 0.36868175864219666,
      "150": -0.40182313323020935,
      "151": -0.3538456857204437,
      "152": 0.3192225694656372,
      "153": -0.2707996368408203,
      "154": 0.2536141276359558,
      "155": 0.3868873417377472,
      "156": -0.11931435763835907,
      "157": 0.2931291460990906,
      "158": -0.2764601707458496,
      "159": -0.24718503654003143,
      "160": 0.2754579186439514,
      "161": -0.4459490478038788,
      "162": 0.31428074836730957,
      "163": 0.2754161059856415,
      "164": -0.1621849089860916,
      "165": 0.39564892649650574,
      "166": -0.3469475507736206,
      "167": -0.27739638090133667,
      "168": 0.2870882451534271,
      "169": -0.23825305700302124,
      "170": 0.26332277059555054,
      "171": 0.35094836354255676,
      "172": -0.1319112777709961,
      "173": 0.3315580189228058,
      "174": -0.2031530737876892,
      "175": -0.3026904761791229,
      "176": 0.25563085079193115,
      "177": -0.30165791511535645,
      "178": 0.2300402969121933,
      "179": 0.35916900634765625,
      "180": -0.2727035880088806,
      "181": 0.37529563903808594,
      "182": -0.2388266623020172,
      "183": -0.2538760006427765,
      "184": 0.2734602093696594,
      "185": -0.5599514842033386,
      "186": 0.47258079051971436,
      "187": 0.3602151870727539,
      "188": -0.24823398888111115,
      "189": 0.5509734153747559,
      "190": -0.41947048902511597,
      "191": -0.370022177696228,
      "192": 0.38782474398612976,
      "193": -0.5438515543937683,
      "194": 0.3353423774242401,
      "195": 0.31787070631980896,
      "196": -0.24117985367774963,
      "197": 0.5369408130645752,
      "198": -0.39135658740997314,
      "199": -0.3140921890735626,
      "200": 0.2647259831428528,
      "201": -0.4136170744895935,
      "202": 0.24246789515018463,
      "203": 0.36756956577301025,
      "204": -0.21685120463371277,
      "205": 0.4023393988609314,
      "206": -0.22609563171863556,
      "207": -0.27794668078422546,
      "208": 0.23954294621944427,
      "209": -0.5162596702575684,
      "210": 0.3889705240726471,
      "211": 0.3728662431240082,
      "212": -0.22802825272083282,
      "213": 0.4957512617111206,
      "214": -0.36686229705810547,
      "215": -0.31214478611946106,
      "216": 0.3899978995323181,
      "217": -0.44584164023399353,
      "218": 0.36135995388031006,
      "219": 0.24865944683551788,
      "220": -0.15285515785217285,
      "221": 0.5166782736778259,
      "222": -0.33238086104393005,
      "223": -0.2744000256061554,
      "224": 0.34687384963035583,
      "225": -0.383958637714386,
      "226": 0.36634907126426697,
      "227": 0.38821423053741455,
      "228": -0.22373463213443756,
      "229": 0.4058245122432709,
      "230": -0.28456905484199524,
      "231": -0.2864704728126526,
      "232": 0.2470768839120865,
      "233": -0.1793704777956009,
      "234": 0.012186381965875626,
      "235": 0.2861939072608948,
      "236": -0.18558275699615479,
      "237": 0.1517428755760193,
      "238": -0.09182412922382355,
      "239": -0.3430188000202179,
      "240": 0.23874320089817047,
      "241": -0.6012530326843262,
      "242": 0.527031660079956,
      "243": 0.3363643288612366,
      "244": -0.2317821979522705,
      "245": 0.5079875588417053,
      "246": -0.44209057092666626,
      "247": -0.27238672971725464,
      "248": 0.37560901045799255,
      "249": -0.7723029255867004,
      "250": 0.529706597328186,
      "251": 0.2663998305797577,
      "252": -0.15075187385082245,
      "253": 0.7489091753959656,
      "254": -0.5411460399627686,
      "255": -0.2779908776283264,
      "256": 0.30926045775413513,
      "257": -0.6590653657913208,
      "258": 0.44652366638183594,
      "259": 0.2763543725013733,
      "260": -0.2579765319824219,
      "261": 0.6582232117652893,
      "262": -0.22119387984275818,
      "263": -0.3791750967502594,
      "264": 0.38176044821739197,
      "265": -0.5463111400604248,
      "266": 0.3400645852088928,
      "267": 0.24227657914161682,
      "268": -0.2054198980331421,
      "269": 0.42559733986854553,
      "270": -0.3331407606601715,
      "271": -0.3495038151741028,
      "272": 0.36633729934692383,
      "273": -0.35112154483795166,
      "274": 0.2763027548789978,
      "275": 0.36097103357315063,
      "276": -0.17852218449115753,
      "277": 0.4017467200756073,
      "278": -0.2415159046649933,
      "279": -0.3411942422389984,
      "280": 0.348705917596817,
      "281": -0.49233192205429077,
      "282": 0.36298781633377075,
      "283": 0.24248607456684113,
      "284": -0.2687300443649292,
      "285": 0.4305049180984497,
      "286": -0.3665849566459656,
      "287": -0.3506639897823334
    }
  },
  "output": {
    "rows": 36,
    "columns": 1,
    "weights": {
      "0": -0.23061534762382507,
      "1": -1.4531652927398682,
      "2": -0.02720406837761402,
      "3": -0.7115136384963989,
      "4": -0.48640382289886475,
      "5": 0.8164291977882385,
      "6": -0.19272907078266144,
      "7": 0.5110061764717102,
      "8": -2.105717182159424,
      "9": -0.8353857398033142,
      "10": -0.011649832129478455,
      "11": 0.09438060224056244,
      "12": -0.004926856141537428,
      "13": -0.82906174659729,
      "14": -0.4072726368904114,
      "15": -0.3061092793941498,
      "16": -1.863155484199524,
      "17": -0.29684194922447205,
      "18": -0.7403404116630554,
      "19": 0.24633727967739105,
      "20": -0.5766445398330688,
      "21": 0.039230599999427795,
      "22": 0.13427557051181793,
      "23": -0.7026512622833252,
      "24": -0.5654150247573853,
      "25": 0.05709841847419739,
      "26": -0.38396894931793213,
      "27": -0.33582398295402527,
      "28": -0.030409498140215874,
      "29": 0.9623578190803528,
      "30": -1.15890634059906,
      "31": -1.1502699851989746,
      "32": -1.2662044763565063,
      "33": -0.29333072900772095,
      "34": -0.24572214484214783,
      "35": -0.7848718166351318
    }
  },
  "inputLookup": null,
  "inputLookupLength": null,
  "outputLookup": null,
  "outputLookupLength": null
}
