{
    "type": "LSTMTimeStep",
    "options": {
        "inputSize": 55,
        "hiddenLayers": [
            10
        ],
        "outputSize": 55,
        "decayRate": 0.999,
        "smoothEps": 1e-8,
        "regc": 0.000001,
        "clipval": 5
    },
    "hiddenLayers": [
        {
            "inputMatrix": {
                "rows": 10,
                "columns": 55,
                "weights": {
                    "0": 0.0944414734840393,
                    "1": 0.1466847062110901,
                    "2": 0.15597866475582123,
                    "3": 0.14187225699424744,
                    "4": 0.09484029561281204,
                    "5": 0.12650644779205322,
                    "6": 0.16460083425045013,
                    "7": 0.15047045052051544,
                    "8": 0.2667537033557892,
                    "9": 0.09648561477661133,
                    "10": 0.10855057835578918,
                    "11": 0.1851469725370407,
                    "12": 0.21568220853805542,
                    "13": 0.22627876698970795,
                    "14": 0.14675140380859375,
                    "15": 0.09539470076560974,
                    "16": 0.2080542892217636,
                    "17": 0.11047737300395966,
                    "18": 0.09378223121166229,
                    "19": 0.1018451526761055,
                    "20": 0.10408689081668854,
                    "21": 0.17900323867797852,
                    "22": 0.09012089669704437,
                    "23": 0.22437193989753723,
                    "24": 0.17214247584342957,
                    "25": 0.12931440770626068,
                    "26": 0.11112934350967407,
                    "27": 0.10436868667602539,
                    "28": 0.21960777044296265,
                    "29": 0.2259533703327179,
                    "30": 0.21789830923080444,
                    "31": 0.19439519941806793,
                    "32": 0.10268072783946991,
                    "33": 0.11316638439893723,
                    "34": 0.20797549188137054,
                    "35": 0.20507395267486572,
                    "36": 0.33902299404144287,
                    "37": 0.1170698031783104,
                    "38": 0.20122897624969482,
                    "39": 0.13856720924377441,
                    "40": 0.1952628344297409,
                    "41": 0.20732304453849792,
                    "42": 0.10742860287427902,
                    "43": 0.11930526793003082,
                    "44": 0.12597860395908356,
                    "45": 0.20058225095272064,
                    "46": 0.1953338384628296,
                    "47": 0.10294859856367111,
                    "48": 0.11642777174711227,
                    "49": 0.2498902976512909,
                    "50": 0.1944308578968048,
                    "51": 0.12670046091079712,
                    "52": 0.1357017308473587,
                    "53": 0.21496550738811493,
                    "54": 0.18395616114139557,
                    "55": 0.24272491037845612,
                    "56": 0.25288841128349304,
                    "57": 0.3497663140296936,
                    "58": 0.37612321972846985,
                    "59": 0.30947309732437134,
                    "60": 0.3047404885292053,
                    "61": 0.3351083993911743,
                    "62": 0.31224408745765686,
                    "63": 0.31958749890327454,
                    "64": 0.3120003938674927,
                    "65": 0.27446043491363525,
                    "66": 0.31740838289260864,
                    "67": 0.35226184129714966,
                    "68": 0.2921675145626068,
                    "69": 0.2894308269023895,
                    "70": 0.25190091133117676,
                    "71": 0.2789401412010193,
                    "72": 0.25734835863113403,
                    "73": 0.28005364537239075,
                    "74": 0.3601839244365692,
                    "75": 0.2813326418399811,
                    "76": 0.3499922454357147,
                    "77": 0.30453333258628845,
                    "78": 0.2540227472782135,
                    "79": 0.3643718361854553,
                    "80": 0.38186055421829224,
                    "81": 0.32362547516822815,
                    "82": 0.3031017780303955,
                    "83": 0.25214648246765137,
                    "84": 0.3572414219379425,
                    "85": 0.23671786487102509,
                    "86": 0.2451641708612442,
                    "87": 0.3197901248931885,
                    "88": 0.257953017950058,
                    "89": 0.3596343696117401,
                    "90": 0.28184372186660767,
                    "91": 0.3740493953227997,
                    "92": 0.30543065071105957,
                    "93": 0.26083046197891235,
                    "94": 0.2864537537097931,
                    "95": 0.30927950143814087,
                    "96": 0.24049001932144165,
                    "97": 0.3023695647716522,
                    "98": 0.26441365480422974,
                    "99": 0.2413942664861679,
                    "100": 0.35014066100120544,
                    "101": 0.24657391011714935,
                    "102": 0.3699522614479065,
                    "103": 0.29268524050712585,
                    "104": 0.30127203464508057,
                    "105": 0.24301637709140778,
                    "106": 0.3175318241119385,
                    "107": 0.29257211089134216,
                    "108": 0.29481837153434753,
                    "109": 0.3042660057544708,
                    "110": 0.055980391800403595,
                    "111": 0.004317680839449167,
                    "112": 0.002009496558457613,
                    "113": 0.009237629361450672,
                    "114": 0.09509331732988358,
                    "115": 0.08958800137042999,
                    "116": -0.0017807218246161938,
                    "117": 0.05293076112866402,
                    "118": 0.06301764398813248,
                    "119": 0.04304478317499161,
                    "120": 0.04235048592090607,
                    "121": -0.04894202575087547,
                    "122": 0.03190390020608902,
                    "123": 0.04524301365017891,
                    "124": 0.08029881864786148,
                    "125": 0.0410158596932888,
                    "126": 0.014935579150915146,
                    "127": -0.02599119022488594,
                    "128": 0.006859838031232357,
                    "129": 0.07522974908351898,
                    "130": 0.02771984599530697,
                    "131": -0.050028230994939804,
                    "132": -0.01338813453912735,
                    "133": 0.08907078951597214,
                    "134": 0.09229950606822968,
                    "135": 0.0009112832485698164,
                    "136": 0.0988469272851944,
                    "137": 0.07570641487836838,
                    "138": 0.09717893600463867,
                    "139": 0.10309136658906937,
                    "140": -0.0066773006692528725,
                    "141": 0.05489722639322281,
                    "142": -0.04724467545747757,
                    "143": -0.04330133646726608,
                    "144": -0.02475457452237606,
                    "145": 0.08086787164211273,
                    "146": 0.07075583189725876,
                    "147": 0.012608873657882214,
                    "148": 0.020659461617469788,
                    "149": 0.08362165838479996,
                    "150": 0.06345938891172409,
                    "151": 0.0497593954205513,
                    "152": -0.02043345756828785,
                    "153": 0.07228408008813858,
                    "154": -0.04933886602520943,
                    "155": 0.06958197802305222,
                    "156": -0.022428354248404503,
                    "157": 0.0018793944036588073,
                    "158": -0.05146323889493942,
                    "159": 0.06852566450834274,
                    "160": 0.027009034529328346,
                    "161": 0.04754173010587692,
                    "162": 0.003722959663718939,
                    "163": -0.028658222407102585,
                    "164": 0.07632089406251907,
                    "165": 0.34719187021255493,
                    "166": 0.35349342226982117,
                    "167": 0.32191357016563416,
                    "168": 0.260981023311615,
                    "169": 0.3459421396255493,
                    "170": 0.24082964658737183,
                    "171": 0.3613516390323639,
                    "172": 0.3510386347770691,
                    "173": 0.24828925728797913,
                    "174": 0.2804197072982788,
                    "175": 0.3729413151741028,
                    "176": 0.2966728210449219,
                    "177": 0.24231868982315063,
                    "178": 0.36205312609672546,
                    "179": 0.2989950180053711,
                    "180": 0.27133211493492126,
                    "181": 0.38438716530799866,
                    "182": 0.30697840452194214,
                    "183": 0.23757869005203247,
                    "184": 0.38808196783065796,
                    "185": 0.24389122426509857,
                    "186": 0.25691601634025574,
                    "187": 0.2976095378398895,
                    "188": 0.24774836003780365,
                    "189": 0.36227428913116455,
                    "190": 0.3084265887737274,
                    "191": 0.2919309437274933,
                    "192": 0.2808287441730499,
                    "193": 0.25156018137931824,
                    "194": 0.35011786222457886,
                    "195": 0.38595297932624817,
                    "196": 0.25598692893981934,
                    "197": 0.28483864665031433,
                    "198": 0.3914484977722168,
                    "199": 0.3373711407184601,
                    "200": 0.31561553478240967,
                    "201": 0.25227975845336914,
                    "202": 0.2875373065471649,
                    "203": 0.2432778775691986,
                    "204": 0.35684454441070557,
                    "205": 0.37063339352607727,
                    "206": 0.2974569499492645,
                    "207": 0.2614230215549469,
                    "208": 0.25444507598876953,
                    "209": 0.29782843589782715,
                    "210": 0.2385297566652298,
                    "211": 0.29065027832984924,
                    "212": 0.2642773389816284,
                    "213": 0.3812221586704254,
                    "214": 0.3441084623336792,
                    "215": 0.3267880380153656,
                    "216": 0.31287819147109985,
                    "217": 0.2665160894393921,
                    "218": 0.34951162338256836,
                    "219": 0.34879806637763977,
                    "220": -0.39045146107673645,
                    "221": -0.3280826508998871,
                    "222": -0.27245065569877625,
                    "223": -0.29832977056503296,
                    "224": -0.31237390637397766,
                    "225": -0.26267534494400024,
                    "226": -0.3665112853050232,
                    "227": -0.32221439480781555,
                    "228": -0.3538673222064972,
                    "229": -0.2940269708633423,
                    "230": -0.3334692418575287,
                    "231": -0.3174925446510315,
                    "232": -0.25640442967414856,
                    "233": -0.29930320382118225,
                    "234": -0.2605006694793701,
                    "235": -0.2911134958267212,
                    "236": -0.3156197667121887,
                    "237": -0.3222444951534271,
                    "238": -0.25358906388282776,
                    "239": -0.32155707478523254,
                    "240": -0.2698567509651184,
                    "241": -0.3735336363315582,
                    "242": -0.34591925144195557,
                    "243": -0.38152027130126953,
                    "244": -0.31753087043762207,
                    "245": -0.35235872864723206,
                    "246": -0.3326452672481537,
                    "247": -0.3158319592475891,
                    "248": -0.2687515914440155,
                    "249": -0.35634610056877136,
                    "250": -0.27392181754112244,
                    "251": -0.34105756878852844,
                    "252": -0.30529582500457764,
                    "253": -0.3444482982158661,
                    "254": -0.3736884295940399,
                    "255": -0.3642301559448242,
                    "256": -0.34934157133102417,
                    "257": -0.2837461829185486,
                    "258": -0.27966052293777466,
                    "259": -0.2969164550304413,
                    "260": -0.3404289782047272,
                    "261": -0.37582600116729736,
                    "262": -0.3746453523635864,
                    "263": -0.3165592551231384,
                    "264": -0.2353714108467102,
                    "265": -0.34030765295028687,
                    "266": -0.35073322057724,
                    "267": -0.3341757357120514,
                    "268": -0.27592939138412476,
                    "269": -0.27852940559387207,
                    "270": -0.25599753856658936,
                    "271": -0.388238787651062,
                    "272": -0.37432408332824707,
                    "273": -0.3352551758289337,
                    "274": -0.28655946254730225,
                    "275": -0.24523061513900757,
                    "276": -0.2925259470939636,
                    "277": -0.2434798926115036,
                    "278": -0.34440863132476807,
                    "279": -0.2549349367618561,
                    "280": -0.24669066071510315,
                    "281": -0.30281969904899597,
                    "282": -0.37039557099342346,
                    "283": -0.24135352671146393,
                    "284": -0.336067259311676,
                    "285": -0.292449027299881,
                    "286": -0.3761026859283447,
                    "287": -0.3607230484485626,
                    "288": -0.253436416387558,
                    "289": -0.27333059906959534,
                    "290": -0.2924860417842865,
                    "291": -0.34369462728500366,
                    "292": -0.2687436044216156,
                    "293": -0.30759790539741516,
                    "294": -0.27198052406311035,
                    "295": -0.2721796929836273,
                    "296": -0.2810656428337097,
                    "297": -0.24952302873134613,
                    "298": -0.38625553250312805,
                    "299": -0.3919619917869568,
                    "300": -0.3345543444156647,
                    "301": -0.2731640636920929,
                    "302": -0.2384602278470993,
                    "303": -0.2966088652610779,
                    "304": -0.3090345859527588,
                    "305": -0.3527807295322418,
                    "306": -0.34649357199668884,
                    "307": -0.3712129294872284,
                    "308": -0.3013615012168884,
                    "309": -0.3790586292743683,
                    "310": -0.34822699427604675,
                    "311": -0.37674298882484436,
                    "312": -0.2681724429130554,
                    "313": -0.24989324808120728,
                    "314": -0.2625874876976013,
                    "315": -0.3578049838542938,
                    "316": -0.2543538212776184,
                    "317": -0.3648170828819275,
                    "318": -0.23921316862106323,
                    "319": -0.2701071500778198,
                    "320": -0.28468695282936096,
                    "321": -0.3739072382450104,
                    "322": -0.2759435772895813,
                    "323": -0.3454611599445343,
                    "324": -0.2828883230686188,
                    "325": -0.3229612410068512,
                    "326": -0.3888148069381714,
                    "327": -0.33403557538986206,
                    "328": -0.34079334139823914,
                    "329": -0.2606864869594574,
                    "330": -0.24011032283306122,
                    "331": -0.3918203115463257,
                    "332": -0.37568122148513794,
                    "333": -0.25298458337783813,
                    "334": -0.2886882722377777,
                    "335": -0.3440886437892914,
                    "336": -0.2952846884727478,
                    "337": -0.24436521530151367,
                    "338": -0.34781649708747864,
                    "339": -0.2553853690624237,
                    "340": -0.3356935679912567,
                    "341": -0.2558169960975647,
                    "342": -0.38341230154037476,
                    "343": -0.2411138117313385,
                    "344": -0.36079272627830505,
                    "345": -0.3329528868198395,
                    "346": -0.305214524269104,
                    "347": -0.3676345646381378,
                    "348": -0.24340230226516724,
                    "349": -0.26694434881210327,
                    "350": -0.3697618246078491,
                    "351": -0.2686689794063568,
                    "352": -0.3000642657279968,
                    "353": -0.34764420986175537,
                    "354": -0.2950783371925354,
                    "355": -0.3529447615146637,
                    "356": -0.3203601837158203,
                    "357": -0.254828542470932,
                    "358": -0.2802638113498688,
                    "359": -0.29010146856307983,
                    "360": -0.24537670612335205,
                    "361": -0.3453640043735504,
                    "362": -0.29454541206359863,
                    "363": -0.37933942675590515,
                    "364": -0.3385382294654846,
                    "365": -0.27083757519721985,
                    "366": -0.3254566490650177,
                    "367": -0.2420053631067276,
                    "368": -0.30638864636421204,
                    "369": -0.3137652575969696,
                    "370": -0.38592034578323364,
                    "371": -0.3576951324939728,
                    "372": -0.2885449230670929,
                    "373": -0.351394385099411,
                    "374": -0.2823827862739563,
                    "375": -0.25857746601104736,
                    "376": -0.36653757095336914,
                    "377": -0.3400021195411682,
                    "378": -0.244940385222435,
                    "379": -0.3009183406829834,
                    "380": -0.2885231673717499,
                    "381": -0.23825903236865997,
                    "382": -0.3379034399986267,
                    "383": -0.35805556178092957,
                    "384": -0.24520254135131836,
                    "385": 0.059109997004270554,
                    "386": -0.07037859410047531,
                    "387": -0.06268538534641266,
                    "388": 0.01914173550903797,
                    "389": -0.08319339156150818,
                    "390": -0.06160488352179527,
                    "391": 0.029729602858424187,
                    "392": 0.01980689913034439,
                    "393": -0.04964570701122284,
                    "394": 0.04828276485204697,
                    "395": -0.04824425280094147,
                    "396": -0.044346317648887634,
                    "397": -0.05055039003491402,
                    "398": 0.03853188827633858,
                    "399": 0.02443932741880417,
                    "400": 0.025757737457752228,
                    "401": 0.017740610986948013,
                    "402": -0.003934535663574934,
                    "403": -0.025213031098246574,
                    "404": 0.04098831117153168,
                    "405": -0.006391983479261398,
                    "406": -0.05538293346762657,
                    "407": 0.01776723377406597,
                    "408": -0.06121024489402771,
                    "409": -0.055708564817905426,
                    "410": -0.08441045135259628,
                    "411": -0.03312242403626442,
                    "412": -0.05287271365523338,
                    "413": 0.031832899898290634,
                    "414": 0.00044801170588470995,
                    "415": -0.03683159872889519,
                    "416": -0.04871515557169914,
                    "417": 0.016747906804084778,
                    "418": 0.055049072951078415,
                    "419": -0.030704261735081673,
                    "420": 0.05998629331588745,
                    "421": -0.07045397907495499,
                    "422": 0.021780315786600113,
                    "423": 0.009375285357236862,
                    "424": -0.031988948583602905,
                    "425": -0.03677333891391754,
                    "426": 0.03934648260474205,
                    "427": -0.05721448361873627,
                    "428": -0.04393531754612923,
                    "429": -0.004811165854334831,
                    "430": -0.08578385412693024,
                    "431": 0.0000901874082046561,
                    "432": -0.05826664716005325,
                    "433": 0.0241632629185915,
                    "434": 0.05324012413620949,
                    "435": -0.08875000476837158,
                    "436": -0.029415719211101532,
                    "437": -0.010446924716234207,
                    "438": -0.018849167972803116,
                    "439": -0.08116668462753296,
                    "440": 0.3352738618850708,
                    "441": 0.3722333014011383,
                    "442": 0.3777340054512024,
                    "443": 0.29827603697776794,
                    "444": 0.30758631229400635,
                    "445": 0.29599836468696594,
                    "446": 0.3594675362110138,
                    "447": 0.25809773802757263,
                    "448": 0.28329548239707947,
                    "449": 0.23667186498641968,
                    "450": 0.23834843933582306,
                    "451": 0.31610727310180664,
                    "452": 0.3646281063556671,
                    "453": 0.3208262026309967,
                    "454": 0.3759329319000244,
                    "455": 0.2662663459777832,
                    "456": 0.30862054228782654,
                    "457": 0.2903115451335907,
                    "458": 0.38220712542533875,
                    "459": 0.2577611804008484,
                    "460": 0.3559597432613373,
                    "461": 0.35949376225471497,
                    "462": 0.30488157272338867,
                    "463": 0.28892847895622253,
                    "464": 0.24297668039798737,
                    "465": 0.37626180052757263,
                    "466": 0.3316653072834015,
                    "467": 0.2651652991771698,
                    "468": 0.3820874094963074,
                    "469": 0.2996242940425873,
                    "470": 0.34926265478134155,
                    "471": 0.3324531614780426,
                    "472": 0.3562948703765869,
                    "473": 0.3215967118740082,
                    "474": 0.23595596849918365,
                    "475": 0.32784467935562134,
                    "476": 0.319949746131897,
                    "477": 0.360431045293808,
                    "478": 0.30421513319015503,
                    "479": 0.27870848774909973,
                    "480": 0.3450842797756195,
                    "481": 0.3113314211368561,
                    "482": 0.39104747772216797,
                    "483": 0.35048454999923706,
                    "484": 0.3362143933773041,
                    "485": 0.3892298638820648,
                    "486": 0.3781997263431549,
                    "487": 0.3341177701950073,
                    "488": 0.3890938460826874,
                    "489": 0.34938064217567444,
                    "490": 0.26714715361595154,
                    "491": 0.3719860017299652,
                    "492": 0.3298642635345459,
                    "493": 0.27969080209732056,
                    "494": 0.24273285269737244,
                    "495": 0.07103442400693893,
                    "496": 0.03300577402114868,
                    "497": 0.037903230637311935,
                    "498": 0.03217277303338051,
                    "499": -0.01874692738056183,
                    "500": -0.03757661208510399,
                    "501": -0.059187766164541245,
                    "502": -0.04762980341911316,
                    "503": -0.0313340499997139,
                    "504": 0.05357528105378151,
                    "505": -0.07803180068731308,
                    "506": -0.005787735339254141,
                    "507": 0.004017767962068319,
                    "508": -0.02663358300924301,
                    "509": -0.07665088027715683,
                    "510": -0.06602121889591217,
                    "511": 0.05364159867167473,
                    "512": 0.03406732901930809,
                    "513": -0.05005084350705147,
                    "514": -0.020586960017681122,
                    "515": -0.07188215851783752,
                    "516": 0.002124981489032507,
                    "517": -0.029187968000769615,
                    "518": 0.03613753989338875,
                    "519": -0.07273121923208237,
                    "520": 0.06687916815280914,
                    "521": -0.06211497634649277,
                    "522": -0.07305590808391571,
                    "523": 0.002635673386976123,
                    "524": 0.027869002893567085,
                    "525": 0.05529884248971939,
                    "526": 0.01597423106431961,
                    "527": -0.035654082894325256,
                    "528": -0.07159450650215149,
                    "529": -0.015024415217339993,
                    "530": 0.07463454455137253,
                    "531": -0.020064257085323334,
                    "532": -0.030139824375510216,
                    "533": 0.0010273144580423832,
                    "534": 0.04087534174323082,
                    "535": -0.01831028237938881,
                    "536": 0.04745897278189659,
                    "537": 0.03816633298993111,
                    "538": 0.07097218185663223,
                    "539": 0.01324448548257351,
                    "540": 0.025720421224832535,
                    "541": -0.029930422082543373,
                    "542": 0.046648211777210236,
                    "543": 0.007492005359381437,
                    "544": 0.013937101699411869,
                    "545": 0.045094240456819534,
                    "546": -0.005157078616321087,
                    "547": -0.0310229379683733,
                    "548": -0.04542713612318039,
                    "549": -0.021947331726551056
                }
            },
            "inputHidden": {
                "rows": 10,
                "columns": 10,
                "weights": {
                    "0": 0.24623826146125793,
                    "1": 0.06675297021865845,
                    "2": -0.39070549607276917,
                    "3": -0.17414602637290955,
                    "4": 0.28617411851882935,
                    "5": 0.27362295985221863,
                    "6": 0.31854671239852905,
                    "7": -0.3111138939857483,
                    "8": 0.3379700779914856,
                    "9": 0.28324660658836365,
                    "10": 0.21089577674865723,
                    "11": 0.00428136857226491,
                    "12": -0.21439024806022644,
                    "13": 0.04218762740492821,
                    "14": -0.005960114765912294,
                    "15": 0.24813932180404663,
                    "16": 0.2823118567466736,
                    "17": -0.09671445935964584,
                    "18": 0.23748120665550232,
                    "19": 0.21740345656871796,
                    "20": 0.30381301045417786,
                    "21": 0.13530123233795166,
                    "22": -0.3817342221736908,
                    "23": -0.28378698229789734,
                    "24": 0.3004460632801056,
                    "25": 0.37903547286987305,
                    "26": 0.3679255247116089,
                    "27": -0.31978902220726013,
                    "28": 0.3357367515563965,
                    "29": 0.261335164308548,
                    "30": 0.2764703929424286,
                    "31": 0.08076989650726318,
                    "32": -0.324819952249527,
                    "33": -0.07575707137584686,
                    "34": 0.05703207105398178,
                    "35": 0.2685297131538391,
                    "36": 0.2672255039215088,
                    "37": -0.36980950832366943,
                    "38": 0.3284732699394226,
                    "39": 0.29646775126457214,
                    "40": -0.3908175826072693,
                    "41": -0.0015950765227898955,
                    "42": 0.3161008059978485,
                    "43": 0.029839061200618744,
                    "44": -0.038226623088121414,
                    "45": -0.32074275612831116,
                    "46": -0.3140065670013428,
                    "47": 0.38191163539886475,
                    "48": -0.3638821542263031,
                    "49": -0.3295622766017914,
                    "50": -0.2889010012149811,
                    "51": 0.027777599170804024,
                    "52": 0.28303995728492737,
                    "53": 0.05850721150636673,
                    "54": 0.006476216949522495,
                    "55": -0.3835984468460083,
                    "56": -0.26313838362693787,
                    "57": 0.2381509393453598,
                    "58": -0.34288132190704346,
                    "59": -0.263913094997406,
                    "60": -0.2744371294975281,
                    "61": -0.060321904718875885,
                    "62": 0.2873885929584503,
                    "63": -0.034544456750154495,
                    "64": -0.10630093514919281,
                    "65": -0.27631986141204834,
                    "66": -0.3854062259197235,
                    "67": 0.2387949377298355,
                    "68": -0.29969218373298645,
                    "69": -0.3331633508205414,
                    "70": -0.27374371886253357,
                    "71": -0.1043240875005722,
                    "72": 0.3910272717475891,
                    "73": 0.3360000550746918,
                    "74": -0.24018435180187225,
                    "75": -0.3007577657699585,
                    "76": -0.2631698548793793,
                    "77": 0.38380852341651917,
                    "78": -0.32251134514808655,
                    "79": -0.3171868622303009,
                    "80": 0.07726167142391205,
                    "81": 0.06736359745264053,
                    "82": -0.019022291526198387,
                    "83": 0.010553249157965183,
                    "84": -0.02692328952252865,
                    "85": 0.16831928491592407,
                    "86": 0.15341447293758392,
                    "87": -0.11384370923042297,
                    "88": 0.03994372487068176,
                    "89": 0.06557633727788925,
                    "90": -0.27979806065559387,
                    "91": -0.27465617656707764,
                    "92": 0.27065446972846985,
                    "93": 0.25225186347961426,
                    "94": -0.35136115550994873,
                    "95": -0.024916134774684906,
                    "96": -0.050422895699739456,
                    "97": 0.23394182324409485,
                    "98": -0.27520331740379333,
                    "99": -0.12560980021953583
                }
            },
            "inputBias": {
                "rows": 10,
                "columns": 1,
                "weights": {
                    "0": 0.31004759669303894,
                    "1": 0.02360284887254238,
                    "2": 0.3128960132598877,
                    "3": 0.2553843855857849,
                    "4": -0.30314090847969055,
                    "5": -0.31001999974250793,
                    "6": -0.31021565198898315,
                    "7": -0.31293120980262756,
                    "8": 0.006033642217516899,
                    "9": -0.31294864416122437
                }
            },
            "forgetMatrix": {
                "rows": 10,
                "columns": 55,
                "weights": {
                    "0": 0.37409934401512146,
                    "1": 0.32082146406173706,
                    "2": 0.2605247497558594,
                    "3": 0.32472747564315796,
                    "4": 0.3042824864387512,
                    "5": 0.33614107966423035,
                    "6": 0.31168246269226074,
                    "7": 0.24706324934959412,
                    "8": 0.39129868149757385,
                    "9": 0.2601982057094574,
                    "10": 0.3857402503490448,
                    "11": 0.3363240957260132,
                    "12": 0.3880300223827362,
                    "13": 0.3110054135322571,
                    "14": 0.28169456124305725,
                    "15": 0.25232934951782227,
                    "16": 0.23456759750843048,
                    "17": 0.2936963438987732,
                    "18": 0.27938246726989746,
                    "19": 0.37414729595184326,
                    "20": 0.2936781346797943,
                    "21": 0.2718782424926758,
                    "22": 0.2950213551521301,
                    "23": 0.37693631649017334,
                    "24": 0.30695435404777527,
                    "25": 0.23895075917243958,
                    "26": 0.29975318908691406,
                    "27": 0.25576508045196533,
                    "28": 0.2819022834300995,
                    "29": 0.2850720286369324,
                    "30": 0.2870914340019226,
                    "31": 0.2670438587665558,
                    "32": 0.3091113865375519,
                    "33": 0.25678688287734985,
                    "34": 0.31421637535095215,
                    "35": 0.35211560130119324,
                    "36": 0.298177033662796,
                    "37": 0.32837656140327454,
                    "38": 0.3871765732765198,
                    "39": 0.2526038885116577,
                    "40": 0.37986648082733154,
                    "41": 0.3560289442539215,
                    "42": 0.32531362771987915,
                    "43": 0.38718438148498535,
                    "44": 0.3270537555217743,
                    "45": 0.29720157384872437,
                    "46": 0.24561797082424164,
                    "47": 0.2980138659477234,
                    "48": 0.25938311219215393,
                    "49": 0.29707086086273193,
                    "50": 0.3230699598789215,
                    "51": 0.3709995746612549,
                    "52": 0.2541719079017639,
                    "53": 0.3805978298187256,
                    "54": 0.3277432918548584,
                    "55": 0.05476381629705429,
                    "56": 0.10825540870428085,
                    "57": 0.10821862518787384,
                    "58": 0.1429080218076706,
                    "59": 0.1078643798828125,
                    "60": 0.06374935060739517,
                    "61": 0.10107769072055817,
                    "62": 0.0035580694675445557,
                    "63": 0.09309890866279602,
                    "64": 0.10499508678913116,
                    "65": 0.06405060738325119,
                    "66": 0.09994534403085709,
                    "67": 0.013359292410314083,
                    "68": 0.04249124601483345,
                    "69": 0.05948854982852936,
                    "70": 0.047450970858335495,
                    "71": 0.03472589701414108,
                    "72": 0.07634568214416504,
                    "73": 0.048976097255945206,
                    "74": 0.07912316918373108,
                    "75": 0.016402065753936768,
                    "76": 0.04679436981678009,
                    "77": 0.08273334801197052,
                    "78": 0.029404858127236366,
                    "79": 0.1465042382478714,
                    "80": 0.07208258658647537,
                    "81": 0.007346077356487513,
                    "82": 0.019053125753998756,
                    "83": 0.0021882641594856977,
                    "84": 0.036191198974847794,
                    "85": 0.05935630202293396,
                    "86": 0.0016757441917434335,
                    "87": 0.08238823711872101,
                    "88": 0.013463829644024372,
                    "89": 0.01765553466975689,
                    "90": 0.07398553192615509,
                    "91": -0.003584544640034437,
                    "92": 0.026250669732689857,
                    "93": 0.0304272398352623,
                    "94": 0.11083512753248215,
                    "95": -0.00856860727071762,
                    "96": 0.0839998722076416,
                    "97": 0.07660912722349167,
                    "98": 0.049971044063568115,
                    "99": 0.00021990500681567937,
                    "100": 0.021300507709383965,
                    "101": 0.05093424394726753,
                    "102": 0.004606664180755615,
                    "103": 0.06919249147176743,
                    "104": 0.12260585278272629,
                    "105": 0.13805028796195984,
                    "106": 0.05572773516178131,
                    "107": 0.14543014764785767,
                    "108": 0.017179779708385468,
                    "109": 0.07557646185159683,
                    "110": 0.34915944933891296,
                    "111": 0.31850096583366394,
                    "112": 0.3114451766014099,
                    "113": 0.2828788459300995,
                    "114": 0.3317626714706421,
                    "115": 0.3009042739868164,
                    "116": 0.2696448564529419,
                    "117": 0.315093994140625,
                    "118": 0.3316584825515747,
                    "119": 0.31543660163879395,
                    "120": 0.23382054269313812,
                    "121": 0.38018110394477844,
                    "122": 0.26937392354011536,
                    "123": 0.2538570463657379,
                    "124": 0.27449509501457214,
                    "125": 0.27424144744873047,
                    "126": 0.2610492706298828,
                    "127": 0.3536258339881897,
                    "128": 0.3195149302482605,
                    "129": 0.3718530237674713,
                    "130": 0.3133658468723297,
                    "131": 0.35348260402679443,
                    "132": 0.2730157971382141,
                    "133": 0.2592087984085083,
                    "134": 0.31482094526290894,
                    "135": 0.35750478506088257,
                    "136": 0.28426867723464966,
                    "137": 0.27615123987197876,
                    "138": 0.26739242672920227,
                    "139": 0.3548052906990051,
                    "140": 0.2805151641368866,
                    "141": 0.31949755549430847,
                    "142": 0.3268871605396271,
                    "143": 0.24554917216300964,
                    "144": 0.23706133663654327,
                    "145": 0.3721742033958435,
                    "146": 0.2932208776473999,
                    "147": 0.2507794201374054,
                    "148": 0.2820596992969513,
                    "149": 0.3172960579395294,
                    "150": 0.31632229685783386,
                    "151": 0.28666186332702637,
                    "152": 0.3855293095111847,
                    "153": 0.2559407949447632,
                    "154": 0.26613616943359375,
                    "155": 0.2648773491382599,
                    "156": 0.35833749175071716,
                    "157": 0.3687843978404999,
                    "158": 0.2445247322320938,
                    "159": 0.30019107460975647,
                    "160": 0.2512347996234894,
                    "161": 0.24151964485645294,
                    "162": 0.31733813881874084,
                    "163": 0.2666982412338257,
                    "164": 0.23863038420677185,
                    "165": 0.24451322853565216,
                    "166": 0.32805487513542175,
                    "167": 0.3573572635650635,
                    "168": 0.36227214336395264,
                    "169": 0.27777379751205444,
                    "170": 0.29458603262901306,
                    "171": 0.2552865743637085,
                    "172": 0.36080363392829895,
                    "173": 0.23726113140583038,
                    "174": 0.3705238103866577,
                    "175": 0.2279433161020279,
                    "176": 0.36080417037010193,
                    "177": 0.3051522374153137,
                    "178": 0.25225022435188293,
                    "179": 0.36555567383766174,
                    "180": 0.27335941791534424,
                    "181": 0.2759045362472534,
                    "182": 0.27383044362068176,
                    "183": 0.29717978835105896,
                    "184": 0.28169000148773193,
                    "185": 0.34089621901512146,
                    "186": 0.30664879083633423,
                    "187": 0.32067200541496277,
                    "188": 0.30746710300445557,
                    "189": 0.26164641976356506,
                    "190": 0.3572338819503784,
                    "191": 0.29259252548217773,
                    "192": 0.24677783250808716,
                    "193": 0.26558008790016174,
                    "194": 0.29970601201057434,
                    "195": 0.31799864768981934,
                    "196": 0.2645653784275055,
                    "197": 0.35131755471229553,
                    "198": 0.3626512885093689,
                    "199": 0.3050061762332916,
                    "200": 0.2865539491176605,
                    "201": 0.269072562456131,
                    "202": 0.31930407881736755,
                    "203": 0.30734920501708984,
                    "204": 0.32901531457901,
                    "205": 0.25898563861846924,
                    "206": 0.26277777552604675,
                    "207": 0.36337485909461975,
                    "208": 0.28103411197662354,
                    "209": 0.33167552947998047,
                    "210": 0.241612046957016,
                    "211": 0.2692825496196747,
                    "212": 0.3798735737800598,
                    "213": 0.3283815383911133,
                    "214": 0.25430771708488464,
                    "215": 0.2745494842529297,
                    "216": 0.32283511757850647,
                    "217": 0.32080426812171936,
                    "218": 0.25952035188674927,
                    "219": 0.2621046006679535,
                    "220": -0.25523990392684937,
                    "221": -0.2448004186153412,
                    "222": -0.32062575221061707,
                    "223": -0.2889750599861145,
                    "224": -0.3480737805366516,
                    "225": -0.31934797763824463,
                    "226": -0.31787794828414917,
                    "227": -0.33977171778678894,
                    "228": -0.2859862744808197,
                    "229": -0.28852182626724243,
                    "230": -0.26907792687416077,
                    "231": -0.2815529406070709,
                    "232": -0.3097275197505951,
                    "233": -0.26898977160453796,
                    "234": -0.24733726680278778,
                    "235": -0.33378809690475464,
                    "236": -0.31318199634552,
                    "237": -0.3189295828342438,
                    "238": -0.3020258843898773,
                    "239": -0.36711767315864563,
                    "240": -0.27526038885116577,
                    "241": -0.35588133335113525,
                    "242": -0.34900495409965515,
                    "243": -0.23928424715995789,
                    "244": -0.32064270973205566,
                    "245": -0.36194291710853577,
                    "246": -0.3478386700153351,
                    "247": -0.3203996419906616,
                    "248": -0.36975860595703125,
                    "249": -0.36590227484703064,
                    "250": -0.24691137671470642,
                    "251": -0.2443261295557022,
                    "252": -0.3566383719444275,
                    "253": -0.25934213399887085,
                    "254": -0.25229954719543457,
                    "255": -0.23965011537075043,
                    "256": -0.25659120082855225,
                    "257": -0.33270570635795593,
                    "258": -0.2908143699169159,
                    "259": -0.31061050295829773,
                    "260": -0.3849039375782013,
                    "261": -0.28285908699035645,
                    "262": -0.3501349687576294,
                    "263": -0.3314698040485382,
                    "264": -0.2603110671043396,
                    "265": -0.2923451066017151,
                    "266": -0.24308879673480988,
                    "267": -0.3390868008136749,
                    "268": -0.3689814507961273,
                    "269": -0.3202129006385803,
                    "270": -0.3112044930458069,
                    "271": -0.3496316373348236,
                    "272": -0.3536013662815094,
                    "273": -0.26410362124443054,
                    "274": -0.27887752652168274,
                    "275": -0.3313019573688507,
                    "276": -0.3224608302116394,
                    "277": -0.33930906653404236,
                    "278": -0.258081316947937,
                    "279": -0.3914914131164551,
                    "280": -0.27465495467185974,
                    "281": -0.3078882098197937,
                    "282": -0.2915787696838379,
                    "283": -0.26369890570640564,
                    "284": -0.2858676314353943,
                    "285": -0.3387278616428375,
                    "286": -0.25351789593696594,
                    "287": -0.3313058018684387,
                    "288": -0.26753607392311096,
                    "289": -0.3086816072463989,
                    "290": -0.3199789226055145,
                    "291": -0.2519512176513672,
                    "292": -0.30329856276512146,
                    "293": -0.2836139500141144,
                    "294": -0.259953111410141,
                    "295": -0.28403612971305847,
                    "296": -0.3091878592967987,
                    "297": -0.3130222260951996,
                    "298": -0.2707500159740448,
                    "299": -0.29599300026893616,
                    "300": -0.30530205368995667,
                    "301": -0.2951258718967438,
                    "302": -0.3149932324886322,
                    "303": -0.2461872100830078,
                    "304": -0.24087509512901306,
                    "305": -0.28070536255836487,
                    "306": -0.27121344208717346,
                    "307": -0.32298973202705383,
                    "308": -0.31619054079055786,
                    "309": -0.26751166582107544,
                    "310": -0.3731442987918854,
                    "311": -0.3587324917316437,
                    "312": -0.28732794523239136,
                    "313": -0.263558954000473,
                    "314": -0.30052050948143005,
                    "315": -0.3242945075035095,
                    "316": -0.27169069647789,
                    "317": -0.3638112545013428,
                    "318": -0.32844439148902893,
                    "319": -0.23466482758522034,
                    "320": -0.2603217661380768,
                    "321": -0.38527193665504456,
                    "322": -0.3853774666786194,
                    "323": -0.36146289110183716,
                    "324": -0.25982749462127686,
                    "325": -0.2942280173301697,
                    "326": -0.30605506896972656,
                    "327": -0.3894489109516144,
                    "328": -0.31663358211517334,
                    "329": -0.3443259596824646,
                    "330": -0.0681307315826416,
                    "331": -0.031636692583560944,
                    "332": -0.052979517728090286,
                    "333": -0.1857815980911255,
                    "334": -0.07738903909921646,
                    "335": -0.08973481506109238,
                    "336": -0.08740099519491196,
                    "337": -0.12448672205209732,
                    "338": -0.14476832747459412,
                    "339": -0.037737682461738586,
                    "340": -0.04378283768892288,
                    "341": -0.10519026219844818,
                    "342": -0.1400224268436432,
                    "343": -0.02515360154211521,
                    "344": -0.05897810682654381,
                    "345": -0.13558585941791534,
                    "346": -0.037306591868400574,
                    "347": -0.12580522894859314,
                    "348": -0.10586735606193542,
                    "349": -0.16207042336463928,
                    "350": -0.08165832608938217,
                    "351": -0.0734475702047348,
                    "352": -0.018317585811018944,
                    "353": -0.09774191677570343,
                    "354": -0.04609927162528038,
                    "355": -0.048059169203042984,
                    "356": -0.14425185322761536,
                    "357": -0.05560080334544182,
                    "358": -0.07354196161031723,
                    "359": -0.1556071788072586,
                    "360": -0.14920860528945923,
                    "361": -0.06651414930820465,
                    "362": -0.1282675862312317,
                    "363": -0.11409161239862442,
                    "364": -0.05888209864497185,
                    "365": -0.11380290985107422,
                    "366": 0.01752922683954239,
                    "367": -0.09147098660469055,
                    "368": -0.09983006119728088,
                    "369": -0.05738643556833267,
                    "370": -0.07917515188455582,
                    "371": -0.16370442509651184,
                    "372": -0.0586092509329319,
                    "373": -0.01963200978934765,
                    "374": -0.022125478833913803,
                    "375": -0.09804711490869522,
                    "376": -0.04300479218363762,
                    "377": -0.03699612244963646,
                    "378": -0.1278601586818695,
                    "379": -0.007632363121956587,
                    "380": -0.05170304700732231,
                    "381": -0.05491949990391731,
                    "382": -0.0508711151778698,
                    "383": -0.08565323799848557,
                    "384": -0.08166492730379105,
                    "385": -0.2420063018798828,
                    "386": -0.28866085410118103,
                    "387": -0.2954648733139038,
                    "388": -0.29274657368659973,
                    "389": -0.31733566522598267,
                    "390": -0.38381844758987427,
                    "391": -0.3592929542064667,
                    "392": -0.31228452920913696,
                    "393": -0.2631273865699768,
                    "394": -0.3526989221572876,
                    "395": -0.30514559149742126,
                    "396": -0.2692454159259796,
                    "397": -0.38101059198379517,
                    "398": -0.33498209714889526,
                    "399": -0.3078952431678772,
                    "400": -0.2601884603500366,
                    "401": -0.3527998626232147,
                    "402": -0.3135048747062683,
                    "403": -0.3797006905078888,
                    "404": -0.23105157911777496,
                    "405": -0.347292423248291,
                    "406": -0.3767193555831909,
                    "407": -0.38641518354415894,
                    "408": -0.2753472328186035,
                    "409": -0.2900937795639038,
                    "410": -0.38314470648765564,
                    "411": -0.38129350543022156,
                    "412": -0.2753404974937439,
                    "413": -0.31780198216438293,
                    "414": -0.3354669213294983,
                    "415": -0.29622775316238403,
                    "416": -0.33613327145576477,
                    "417": -0.317961722612381,
                    "418": -0.38668256998062134,
                    "419": -0.37153303623199463,
                    "420": -0.27206525206565857,
                    "421": -0.3749452233314514,
                    "422": -0.31400275230407715,
                    "423": -0.3037058711051941,
                    "424": -0.3628048896789551,
                    "425": -0.2784697413444519,
                    "426": -0.24846255779266357,
                    "427": -0.2588089108467102,
                    "428": -0.2381555289030075,
                    "429": -0.39051100611686707,
                    "430": -0.2949272692203522,
                    "431": -0.2790810167789459,
                    "432": -0.3666229844093323,
                    "433": -0.23061102628707886,
                    "434": -0.33332914113998413,
                    "435": -0.32340332865715027,
                    "436": -0.24595142900943756,
                    "437": -0.3687452971935272,
                    "438": -0.2828007638454437,
                    "439": -0.2846606373786926,
                    "440": 0.38358160853385925,
                    "441": 0.2769368290901184,
                    "442": 0.29419663548469543,
                    "443": 0.2761839032173157,
                    "444": 0.39116185903549194,
                    "445": 0.3786064088344574,
                    "446": 0.350612074136734,
                    "447": 0.28004080057144165,
                    "448": 0.2865631580352783,
                    "449": 0.2846580445766449,
                    "450": 0.29459673166275024,
                    "451": 0.27522701025009155,
                    "452": 0.2845019996166229,
                    "453": 0.35449421405792236,
                    "454": 0.33744120597839355,
                    "455": 0.2755907475948334,
                    "456": 0.2452307641506195,
                    "457": 0.2759276330471039,
                    "458": 0.34349948167800903,
                    "459": 0.24035999178886414,
                    "460": 0.3346159756183624,
                    "461": 0.3875110447406769,
                    "462": 0.37338224053382874,
                    "463": 0.35968488454818726,
                    "464": 0.3011387884616852,
                    "465": 0.38336461782455444,
                    "466": 0.3459071218967438,
                    "467": 0.32927781343460083,
                    "468": 0.25055480003356934,
                    "469": 0.2995311915874481,
                    "470": 0.24232859909534454,
                    "471": 0.32294806838035583,
                    "472": 0.28494444489479065,
                    "473": 0.24582721292972565,
                    "474": 0.37724825739860535,
                    "475": 0.23861320316791534,
                    "476": 0.2826443612575531,
                    "477": 0.37233394384384155,
                    "478": 0.2884720265865326,
                    "479": 0.32426464557647705,
                    "480": 0.28067290782928467,
                    "481": 0.33359429240226746,
                    "482": 0.35382506251335144,
                    "483": 0.378955215215683,
                    "484": 0.2517092525959015,
                    "485": 0.2869916260242462,
                    "486": 0.368169367313385,
                    "487": 0.2791528105735779,
                    "488": 0.30099281668663025,
                    "489": 0.3903214633464813,
                    "490": 0.2484407126903534,
                    "491": 0.2621479034423828,
                    "492": 0.3714236617088318,
                    "493": 0.3908816874027252,
                    "494": 0.3807041049003601,
                    "495": 0.010419746860861778,
                    "496": -0.0929054543375969,
                    "497": -0.12202445417642593,
                    "498": -0.0191375520080328,
                    "499": -0.08337060362100601,
                    "500": -0.057719189673662186,
                    "501": -0.061222825199365616,
                    "502": -0.10224588960409164,
                    "503": -0.010741879232227802,
                    "504": -0.0298647191375494,
                    "505": -0.06839936226606369,
                    "506": -0.04518132284283638,
                    "507": -0.05179012939333916,
                    "508": -0.04874463006854057,
                    "509": -0.06076737493276596,
                    "510": -0.08146113157272339,
                    "511": -0.07791101932525635,
                    "512": -0.11253200471401215,
                    "513": -0.1050763875246048,
                    "514": -0.04742914065718651,
                    "515": -0.02663915604352951,
                    "516": -0.0014151530340313911,
                    "517": 0.006144288461655378,
                    "518": 0.015692679211497307,
                    "519": -0.10307851433753967,
                    "520": -0.12437041848897934,
                    "521": -0.11016480624675751,
                    "522": -0.019133785739541054,
                    "523": 0.022645896300673485,
                    "524": -0.10598690807819366,
                    "525": -0.06570293009281158,
                    "526": 0.00022748354240320623,
                    "527": 0.03825116157531738,
                    "528": -0.1262195110321045,
                    "529": -0.11258881539106369,
                    "530": 0.013650418259203434,
                    "531": -0.08641477674245834,
                    "532": -0.03657856956124306,
                    "533": -0.04047232121229172,
                    "534": -0.04800555109977722,
                    "535": -0.00618394510820508,
                    "536": -0.07432214170694351,
                    "537": -0.026233291253447533,
                    "538": 0.008311168290674686,
                    "539": -0.004635847173631191,
                    "540": -0.06979148834943771,
                    "541": -0.11188331991434097,
                    "542": 0.020779941231012344,
                    "543": -0.0823819488286972,
                    "544": -0.035434212535619736,
                    "545": -0.0713096335530281,
                    "546": -0.11019841581583023,
                    "547": -0.00790294911712408,
                    "548": -0.0677633285522461,
                    "549": -0.08861161768436432
                }
            },
            "forgetHidden": {
                "rows": 10,
                "columns": 10,
                "weights": {
                    "0": 0.2794918119907379,
                    "1": 0.07630820572376251,
                    "2": -0.31972435116767883,
                    "3": -0.08963709324598312,
                    "4": 0.04471728578209877,
                    "5": 0.3590531051158905,
                    "6": 0.30849727988243103,
                    "7": -0.2554457485675812,
                    "8": 0.3654834032058716,
                    "9": 0.23480233550071716,
                    "10": 0.037291064858436584,
                    "11": 0.023979540914297104,
                    "12": 0.027154073119163513,
                    "13": -0.07187897711992264,
                    "14": 0.03335127979516983,
                    "15": 0.04852478578686714,
                    "16": 0.0766250491142273,
                    "17": -0.025274040177464485,
                    "18": 0.06961174309253693,
                    "19": -0.03954262286424637,
                    "20": 0.10610663145780563,
                    "21": 0.061885468661785126,
                    "22": -0.07456230372190475,
                    "23": -0.07311610877513885,
                    "24": -0.05305758863687515,
                    "25": 0.0495380274951458,
                    "26": 0.08235863596200943,
                    "27": -0.011798456311225891,
                    "28": -0.006664564833045006,
                    "29": 0.11994815617799759,
                    "30": 0.049631267786026,
                    "31": -0.021973000839352608,
                    "32": -0.08578605949878693,
                    "33": 0.05551980435848236,
                    "34": -0.05765771120786667,
                    "35": 0.12371402233839035,
                    "36": 0.0997798964381218,
                    "37": 0.04326622933149338,
                    "38": -0.011479867622256279,
                    "39": -0.032090675085783005,
                    "40": -0.08881939202547073,
                    "41": -0.027974862605333328,
                    "42": 0.04994566738605499,
                    "43": 0.05564779043197632,
                    "44": -0.03421697020530701,
                    "45": -0.18112008273601532,
                    "46": -0.19122368097305298,
                    "47": 0.034376829862594604,
                    "48": -0.09766528755426407,
                    "49": -0.08383212238550186,
                    "50": -0.34035345911979675,
                    "51": 0.06741475313901901,
                    "52": 0.3583407700061798,
                    "53": 0.01660257577896118,
                    "54": 0.003107805270701647,
                    "55": -0.24257856607437134,
                    "56": -0.33271971344947815,
                    "57": 0.3746717870235443,
                    "58": -0.38800084590911865,
                    "59": -0.35239335894584656,
                    "60": 0.05427827313542366,
                    "61": -0.003670651465654373,
                    "62": 0.007902323268353939,
                    "63": -0.05069497972726822,
                    "64": 0.0017097435193136334,
                    "65": -0.052744098007678986,
                    "66": -0.07334748655557632,
                    "67": -0.05468985065817833,
                    "68": -0.021033642813563347,
                    "69": -0.06614433228969574,
                    "70": -0.24210084974765778,
                    "71": -0.02744024619460106,
                    "72": 0.2812792658805847,
                    "73": 0.038289204239845276,
                    "74": -0.14317616820335388,
                    "75": -0.24167805910110474,
                    "76": -0.26239416003227234,
                    "77": 0.322163462638855,
                    "78": -0.2740229070186615,
                    "79": -0.3293047845363617,
                    "80": 0.2428922802209854,
                    "81": -0.01357833482325077,
                    "82": -0.23361459374427795,
                    "83": -0.012246204540133476,
                    "84": -0.030437445268034935,
                    "85": 0.35621678829193115,
                    "86": 0.3596067428588867,
                    "87": -0.30996832251548767,
                    "88": 0.365420937538147,
                    "89": 0.27544718980789185,
                    "90": -0.3310358226299286,
                    "91": -0.10973537713289261,
                    "92": 0.28993722796440125,
                    "93": 0.24846145510673523,
                    "94": -0.34533053636550903,
                    "95": -0.26075634360313416,
                    "96": -0.3776542544364929,
                    "97": 0.28667500615119934,
                    "98": -0.2724377512931824,
                    "99": -0.31720003485679626
                }
            },
            "forgetBias": {
                "rows": 10,
                "columns": 1,
                "weights": {
                    "0": 0,
                    "1": 0,
                    "2": 0,
                    "3": 0,
                    "4": 0,
                    "5": 0,
                    "6": 0,
                    "7": 0,
                    "8": 0,
                    "9": 0
                }
            },
            "outputMatrix": {
                "rows": 10,
                "columns": 55,
                "weights": {
                    "0": 0.030427373945713043,
                    "1": 0.05860688164830208,
                    "2": -0.05627342313528061,
                    "3": 0.030929462984204292,
                    "4": 0.09169811755418777,
                    "5": -0.04934460297226906,
                    "6": -0.03009966015815735,
                    "7": -0.00037045127828605473,
                    "8": -0.020070645958185196,
                    "9": -0.01589050143957138,
                    "10": 0.09237110614776611,
                    "11": -0.004666317719966173,
                    "12": 0.05225517228245735,
                    "13": 0.009236468933522701,
                    "14": 0.0417882539331913,
                    "15": 0.014131423085927963,
                    "16": 0.03837190568447113,
                    "17": -0.026285571977496147,
                    "18": 0.0773923471570015,
                    "19": 0.007051280699670315,
                    "20": -0.02452876605093479,
                    "21": -0.008033959195017815,
                    "22": 0.06643649190664291,
                    "23": -0.004629659466445446,
                    "24": -0.020889759063720703,
                    "25": -0.003412255086004734,
                    "26": -0.012241682037711143,
                    "27": 0.08841681480407715,
                    "28": -0.003273172304034233,
                    "29": -0.003167839255183935,
                    "30": 0.001048809615895152,
                    "31": -0.002648396184667945,
                    "32": 0.0725947692990303,
                    "33": 0.029945524409413338,
                    "34": 0.07736317068338394,
                    "35": 0.04373149573802948,
                    "36": 0.0837627500295639,
                    "37": 0.03745630756020546,
                    "38": 0.05164257809519768,
                    "39": 0.09434258937835693,
                    "40": 0.01849994994699955,
                    "41": 0.06537403166294098,
                    "42": 0.0665346309542656,
                    "43": 0.025991767644882202,
                    "44": 0.054094020277261734,
                    "45": 0.03738200664520264,
                    "46": -0.001116768573410809,
                    "47": 0.005154651124030352,
                    "48": -0.030956566333770752,
                    "49": -0.023208921775221825,
                    "50": -0.03078377991914749,
                    "51": 0.07921747118234634,
                    "52": -0.03944304957985878,
                    "53": -0.026986777782440186,
                    "54": 0.06386871635913849,
                    "55": 0.20541885495185852,
                    "56": 0.1774004101753235,
                    "57": 0.12972140312194824,
                    "58": 0.15045402944087982,
                    "59": 0.1353577971458435,
                    "60": 0.18999822437763214,
                    "61": 0.15267816185951233,
                    "62": 0.22124220430850983,
                    "63": 0.11280572414398193,
                    "64": 0.20736949145793915,
                    "65": 0.12022639811038971,
                    "66": 0.2107943892478943,
                    "67": 0.190219908952713,
                    "68": 0.11034215241670609,
                    "69": 0.1718297302722931,
                    "70": 0.07357911020517349,
                    "71": 0.2172134816646576,
                    "72": 0.2407730221748352,
                    "73": 0.07936552911996841,
                    "74": 0.10584009438753128,
                    "75": 0.1608669012784958,
                    "76": 0.18461933732032776,
                    "77": 0.22698497772216797,
                    "78": 0.2138688713312149,
                    "79": 0.1325599104166031,
                    "80": 0.12876051664352417,
                    "81": 0.22200274467468262,
                    "82": 0.11434843391180038,
                    "83": 0.2021883875131607,
                    "84": 0.10286688804626465,
                    "85": 0.1312616467475891,
                    "86": 0.15938951075077057,
                    "87": 0.252596914768219,
                    "88": 0.21145880222320557,
                    "89": 0.09149474650621414,
                    "90": 0.22915682196617126,
                    "91": 0.04654357582330704,
                    "92": 0.23564425110816956,
                    "93": 0.11967794597148895,
                    "94": 0.21687309443950653,
                    "95": 0.09956052154302597,
                    "96": 0.19785654544830322,
                    "97": 0.1505829095840454,
                    "98": 0.1367485672235489,
                    "99": 0.12388898432254791,
                    "100": 0.15387600660324097,
                    "101": 0.19913944602012634,
                    "102": 0.19776080548763275,
                    "103": 0.13670770823955536,
                    "104": 0.16216595470905304,
                    "105": 0.17602792382240295,
                    "106": 0.15698516368865967,
                    "107": 0.17600105702877045,
                    "108": 0.1990348845720291,
                    "109": 0.1021769791841507,
                    "110": 0.016398129984736443,
                    "111": -0.049460429698228836,
                    "112": 0.0373854823410511,
                    "113": 0.0009092552354559302,
                    "114": -0.022956792265176773,
                    "115": -0.020723601803183556,
                    "116": 0.0026527433656156063,
                    "117": -0.03641263395547867,
                    "118": 0.08383486419916153,
                    "119": -0.025398921221494675,
                    "120": -0.007114350330084562,
                    "121": 0.08557434380054474,
                    "122": 0.05933175981044769,
                    "123": 0.062354449182748795,
                    "124": 0.062224049121141434,
                    "125": -0.045762352645397186,
                    "126": 0.055610232055187225,
                    "127": -0.030292879790067673,
                    "128": 0.09196911007165909,
                    "129": 0.035443250089883804,
                    "130": 0.014297982677817345,
                    "131": 0.07086009532213211,
                    "132": -0.009905069135129452,
                    "133": -0.013475597836077213,
                    "134": 0.0110219931229949,
                    "135": -0.037061721086502075,
                    "136": 0.004617088474333286,
                    "137": 0.09493361413478851,
                    "138": 0.09671910852193832,
                    "139": 0.012571713887155056,
                    "140": 0.09060908108949661,
                    "141": 0.03276436775922775,
                    "142": -0.0032874986063688993,
                    "143": -0.04809350520372391,
                    "144": -0.0005151660880073905,
                    "145": -0.018898705020546913,
                    "146": -0.04493478313088417,
                    "147": 0.08536669611930847,
                    "148": -0.054723817855119705,
                    "149": 0.07412707060575485,
                    "150": 0.021438032388687134,
                    "151": 0.06990683078765869,
                    "152": 0.08247453719377518,
                    "153": 0.009949847124516964,
                    "154": -0.03329797834157944,
                    "155": 0.016956862062215805,
                    "156": 0.04268209636211395,
                    "157": -0.004374143201857805,
                    "158": -0.04270915314555168,
                    "159": 0.006130080204457045,
                    "160": 0.06609493494033813,
                    "161": 0.08273649960756302,
                    "162": -0.0028090081177651882,
                    "163": -0.01852244883775711,
                    "164": 0.08662821352481842,
                    "165": 0.26672887802124023,
                    "166": 0.2587551474571228,
                    "167": 0.3910137414932251,
                    "168": 0.3032744526863098,
                    "169": 0.3823641836643219,
                    "170": 0.25574737787246704,
                    "171": 0.26143214106559753,
                    "172": 0.2660984992980957,
                    "173": 0.3335382342338562,
                    "174": 0.3158711791038513,
                    "175": 0.2910201847553253,
                    "176": 0.33695849776268005,
                    "177": 0.38294273614883423,
                    "178": 0.33811166882514954,
                    "179": 0.24639815092086792,
                    "180": 0.27705058455467224,
                    "181": 0.3251011371612549,
                    "182": 0.37844008207321167,
                    "183": 0.2836208641529083,
                    "184": 0.2908564805984497,
                    "185": 0.2923881411552429,
                    "186": 0.27757003903388977,
                    "187": 0.27046605944633484,
                    "188": 0.31492242217063904,
                    "189": 0.31166917085647583,
                    "190": 0.28200921416282654,
                    "191": 0.3676927387714386,
                    "192": 0.25967705249786377,
                    "193": 0.31167200207710266,
                    "194": 0.34732380509376526,
                    "195": 0.34634485840797424,
                    "196": 0.23534856736660004,
                    "197": 0.2677239775657654,
                    "198": 0.28427544236183167,
                    "199": 0.2918945550918579,
                    "200": 0.26068583130836487,
                    "201": 0.37286874651908875,
                    "202": 0.3552016615867615,
                    "203": 0.3757249116897583,
                    "204": 0.2894095182418823,
                    "205": 0.24482664465904236,
                    "206": 0.31705933809280396,
                    "207": 0.29689499735832214,
                    "208": 0.2383839637041092,
                    "209": 0.32829150557518005,
                    "210": 0.37742841243743896,
                    "211": 0.3057986795902252,
                    "212": 0.2480449378490448,
                    "213": 0.24995778501033783,
                    "214": 0.34000465273857117,
                    "215": 0.35884737968444824,
                    "216": 0.3840852677822113,
                    "217": 0.3555738925933838,
                    "218": 0.3535650968551636,
                    "219": 0.3326238989830017,
                    "220": -0.3868001401424408,
                    "221": -0.35883763432502747,
                    "222": -0.30944114923477173,
                    "223": -0.2543899118900299,
                    "224": -0.33186647295951843,
                    "225": -0.2946961522102356,
                    "226": -0.24189113080501556,
                    "227": -0.3791513442993164,
                    "228": -0.34436193108558655,
                    "229": -0.388424277305603,
                    "230": -0.3343367874622345,
                    "231": -0.3173536956310272,
                    "232": -0.271924763917923,
                    "233": -0.3271388113498688,
                    "234": -0.24721452593803406,
                    "235": -0.33260735869407654,
                    "236": -0.2869958281517029,
                    "237": -0.38880088925361633,
                    "238": -0.3534611761569977,
                    "239": -0.31868889927864075,
                    "240": -0.3378966152667999,
                    "241": -0.28998124599456787,
                    "242": -0.33845973014831543,
                    "243": -0.3300919234752655,
                    "244": -0.2959800362586975,
                    "245": -0.24154163897037506,
                    "246": -0.3388148844242096,
                    "247": -0.23760035634040833,
                    "248": -0.3338734805583954,
                    "249": -0.3059875965118408,
                    "250": -0.29182037711143494,
                    "251": -0.2981868088245392,
                    "252": -0.2972807288169861,
                    "253": -0.3747361898422241,
                    "254": -0.32007184624671936,
                    "255": -0.3864104747772217,
                    "256": -0.3430282473564148,
                    "257": -0.3405325412750244,
                    "258": -0.2461792528629303,
                    "259": -0.3021976053714752,
                    "260": -0.29971054196357727,
                    "261": -0.316956102848053,
                    "262": -0.29578569531440735,
                    "263": -0.3517811596393585,
                    "264": -0.24807272851467133,
                    "265": -0.24779880046844482,
                    "266": -0.2995234429836273,
                    "267": -0.24680329859256744,
                    "268": -0.3537197709083557,
                    "269": -0.23669710755348206,
                    "270": -0.3176649510860443,
                    "271": -0.3094131350517273,
                    "272": -0.33884021639823914,
                    "273": -0.3621194362640381,
                    "274": -0.23703062534332275,
                    "275": -0.062303755432367325,
                    "276": -0.05988899990916252,
                    "277": -0.05779973790049553,
                    "278": -0.12010080367326736,
                    "279": -0.12973301112651825,
                    "280": -0.06670472770929337,
                    "281": -0.12239821255207062,
                    "282": -0.13293656706809998,
                    "283": -0.14203210175037384,
                    "284": -0.07703205943107605,
                    "285": -0.15501399338245392,
                    "286": -0.11265432834625244,
                    "287": -0.07633579522371292,
                    "288": -0.11636814475059509,
                    "289": -0.09788979589939117,
                    "290": -0.1914767026901245,
                    "291": -0.21211636066436768,
                    "292": -0.07630842924118042,
                    "293": -0.060582175850868225,
                    "294": -0.12964437901973724,
                    "295": -0.17154882848262787,
                    "296": -0.09967569261789322,
                    "297": -0.1237921193242073,
                    "298": -0.07440616935491562,
                    "299": -0.19778354465961456,
                    "300": -0.0752614215016365,
                    "301": -0.0812821313738823,
                    "302": -0.05867885425686836,
                    "303": -0.2030247300863266,
                    "304": -0.15320222079753876,
                    "305": -0.06662848591804504,
                    "306": -0.2027091681957245,
                    "307": -0.04906805232167244,
                    "308": -0.12138725072145462,
                    "309": -0.1101280227303505,
                    "310": -0.10754647850990295,
                    "311": -0.3368660509586334,
                    "312": -0.11369214206933975,
                    "313": -0.16872818768024445,
                    "314": -0.1545717716217041,
                    "315": -0.13150005042552948,
                    "316": -0.1278507560491562,
                    "317": -0.1782529652118683,
                    "318": -0.2188321352005005,
                    "319": -0.0892084538936615,
                    "320": -0.135899618268013,
                    "321": -0.1483648717403412,
                    "322": -0.18503537774085999,
                    "323": -0.16124583780765533,
                    "324": -0.18798033893108368,
                    "325": -0.17063471674919128,
                    "326": -0.06187460571527481,
                    "327": -0.09251314401626587,
                    "328": -0.138689786195755,
                    "329": -0.17025181651115417,
                    "330": 0.008927575312554836,
                    "331": 0.028627652674913406,
                    "332": -0.002869707066565752,
                    "333": -0.08434098213911057,
                    "334": -0.05467068403959274,
                    "335": -0.008160367608070374,
                    "336": -0.07019811123609543,
                    "337": -0.02499259263277054,
                    "338": 0.03255684673786163,
                    "339": 0.01149487029761076,
                    "340": 0.024472622200846672,
                    "341": 0.04861803725361824,
                    "342": 0.07024382799863815,
                    "343": -0.04114709421992302,
                    "344": -0.016192685812711716,
                    "345": -0.0516972653567791,
                    "346": 0.01754753105342388,
                    "347": 0.041595328599214554,
                    "348": 0.003713973332196474,
                    "349": 0.009091353043913841,
                    "350": 0.044617198407649994,
                    "351": 0.059600237756967545,
                    "352": -0.028659386560320854,
                    "353": 0.01440714206546545,
                    "354": -0.05209645256400108,
                    "355": -0.04199368134140968,
                    "356": -0.011222289875149727,
                    "357": -0.034816622734069824,
                    "358": 0.04135318845510483,
                    "359": -0.0739746168255806,
                    "360": 0.042419515550136566,
                    "361": -0.05439126491546631,
                    "362": -0.05944786220788956,
                    "363": 0.01298768725246191,
                    "364": 0.010444463230669498,
                    "365": 0.006916659418493509,
                    "366": -0.09756271541118622,
                    "367": -0.07623371481895447,
                    "368": -0.038386669009923935,
                    "369": 0.023304397240281105,
                    "370": -0.03254949674010277,
                    "371": 0.007983277551829815,
                    "372": 0.01652897335588932,
                    "373": 0.005336209200322628,
                    "374": -0.04460470378398895,
                    "375": 0.05750764161348343,
                    "376": -0.037481483072042465,
                    "377": -0.042284999042749405,
                    "378": 0.04419422149658203,
                    "379": -0.005477925296872854,
                    "380": 0.04850398004055023,
                    "381": 0.012309389188885689,
                    "382": 0.0491020493209362,
                    "383": -0.017781535163521767,
                    "384": -0.008641325868666172,
                    "385": -0.25504589080810547,
                    "386": -0.3446592390537262,
                    "387": -0.26816391944885254,
                    "388": -0.3293720781803131,
                    "389": -0.3174397647380829,
                    "390": -0.27288341522216797,
                    "391": -0.2889152467250824,
                    "392": -0.23726075887680054,
                    "393": -0.2629528343677521,
                    "394": -0.358788400888443,
                    "395": -0.23719574511051178,
                    "396": -0.26379069685935974,
                    "397": -0.2790348529815674,
                    "398": -0.26019105315208435,
                    "399": -0.2654677927494049,
                    "400": -0.324158251285553,
                    "401": -0.3002604842185974,
                    "402": -0.26278743147850037,
                    "403": -0.32122886180877686,
                    "404": -0.2872598171234131,
                    "405": -0.35994017124176025,
                    "406": -0.3505922257900238,
                    "407": -0.28729456663131714,
                    "408": -0.3014060854911804,
                    "409": -0.3551996946334839,
                    "410": -0.3253362476825714,
                    "411": -0.3182387948036194,
                    "412": -0.299944132566452,
                    "413": -0.39152291417121887,
                    "414": -0.2822028696537018,
                    "415": -0.2692359685897827,
                    "416": -0.2765549123287201,
                    "417": -0.34268835186958313,
                    "418": -0.3118970990180969,
                    "419": -0.25695720314979553,
                    "420": -0.2868904769420624,
                    "421": -0.3226640820503235,
                    "422": -0.3168758749961853,
                    "423": -0.30897149443626404,
                    "424": -0.3805698752403259,
                    "425": -0.255937397480011,
                    "426": -0.3460042178630829,
                    "427": -0.2826125919818878,
                    "428": -0.25570210814476013,
                    "429": -0.29043200612068176,
                    "430": -0.343435138463974,
                    "431": -0.27753427624702454,
                    "432": -0.3619336187839508,
                    "433": -0.25303763151168823,
                    "434": -0.3585546612739563,
                    "435": -0.3409043848514557,
                    "436": -0.2780745327472687,
                    "437": -0.347121924161911,
                    "438": -0.23828892409801483,
                    "439": -0.3310323655605316,
                    "440": -0.043161630630493164,
                    "441": 0.05502567067742348,
                    "442": 0.05534550920128822,
                    "443": 0.052410516887903214,
                    "444": 0.054856207221746445,
                    "445": 0.06063322722911835,
                    "446": 0.011258147656917572,
                    "447": 0.10177866369485855,
                    "448": 0.08603502810001373,
                    "449": 0.03239854425191879,
                    "450": 0.09161978214979172,
                    "451": 0.07035963237285614,
                    "452": 0.07265014201402664,
                    "453": -0.03847849741578102,
                    "454": 0.028161179274320602,
                    "455": 0.0881926491856575,
                    "456": 0.10620925575494766,
                    "457": -0.016781577840447426,
                    "458": 0.04356688633561134,
                    "459": 0.041166242212057114,
                    "460": -0.04965130612254143,
                    "461": 0.030245261266827583,
                    "462": 0.03858316317200661,
                    "463": -0.0167546346783638,
                    "464": -0.04315907880663872,
                    "465": 0.0055322772823274136,
                    "466": 0.06445758789777756,
                    "467": -0.00931620318442583,
                    "468": 0.008420591242611408,
                    "469": -0.010030368342995644,
                    "470": -0.035128045827150345,
                    "471": 0.016941772773861885,
                    "472": 0.06817206740379333,
                    "473": -0.021439315751194954,
                    "474": 0.013218863867223263,
                    "475": 0.03961672633886337,
                    "476": 0.04941149055957794,
                    "477": 0.06359872967004776,
                    "478": -0.0070012337528169155,
                    "479": 0.062139902263879776,
                    "480": 0.017039328813552856,
                    "481": -0.04196150600910187,
                    "482": 0.06403738260269165,
                    "483": -0.025879550725221634,
                    "484": 0.10092158615589142,
                    "485": 0.057315897196531296,
                    "486": 0.07027151435613632,
                    "487": -0.029422128573060036,
                    "488": 0.02905781753361225,
                    "489": -0.010804862715303898,
                    "490": -0.04587796702980995,
                    "491": 0.040895167738199234,
                    "492": 0.0896405503153801,
                    "493": 0.022497106343507767,
                    "494": 0.007254252675920725,
                    "495": -0.1446225941181183,
                    "496": -0.12404601275920868,
                    "497": -0.11146943271160126,
                    "498": -0.13106733560562134,
                    "499": -0.22829091548919678,
                    "500": -0.267821341753006,
                    "501": -0.13723614811897278,
                    "502": -0.1261763721704483,
                    "503": -0.23906315863132477,
                    "504": -0.13061107695102692,
                    "505": -0.13579772412776947,
                    "506": -0.17126668989658356,
                    "507": -0.2656669020652771,
                    "508": -0.17512336373329163,
                    "509": -0.19160598516464233,
                    "510": -0.2821495234966278,
                    "511": -0.24376696348190308,
                    "512": -0.20257635414600372,
                    "513": -0.17608551681041718,
                    "514": -0.12363789230585098,
                    "515": -0.13061155378818512,
                    "516": -0.15597401559352875,
                    "517": -0.25276675820350647,
                    "518": -0.22189167141914368,
                    "519": -0.12846454977989197,
                    "520": -0.16487707197666168,
                    "521": -0.22358983755111694,
                    "522": -0.08662798255681992,
                    "523": -0.25235557556152344,
                    "524": -0.15678276121616364,
                    "525": -0.14289827644824982,
                    "526": -0.3059885799884796,
                    "527": -0.13683615624904633,
                    "528": -0.15249229967594147,
                    "529": -0.21660491824150085,
                    "530": -0.20959478616714478,
                    "531": -0.2561124265193939,
                    "532": -0.131896510720253,
                    "533": -0.13183599710464478,
                    "534": -0.21879790723323822,
                    "535": -0.3589555025100708,
                    "536": -0.20663949847221375,
                    "537": -0.24621769785881042,
                    "538": -0.24836328625679016,
                    "539": -0.2518289089202881,
                    "540": -0.12784633040428162,
                    "541": -0.1681598424911499,
                    "542": -0.2049846053123474,
                    "543": -0.22867585718631744,
                    "544": -0.225204199552536,
                    "545": -0.23518237471580505,
                    "546": -0.12186232954263687,
                    "547": -0.21840259432792664,
                    "548": -0.2303725630044937,
                    "549": -0.1975780725479126
                }
            },
            "outputHidden": {
                "rows": 10,
                "columns": 10,
                "weights": {
                    "0": 0.372280478477478,
                    "1": 2.230382204055786,
                    "2": -0.3842725455760956,
                    "3": -1.571077585220337,
                    "4": 0.26855385303497314,
                    "5": 0.3718477785587311,
                    "6": 0.2786184847354889,
                    "7": -0.24373124539852142,
                    "8": 0.36065471172332764,
                    "9": 0.33465972542762756,
                    "10": -0.0615205392241478,
                    "11": -0.046399619430303574,
                    "12": -0.07628411799669266,
                    "13": 0.0688246339559555,
                    "14": -0.04264356940984726,
                    "15": 0.015701763331890106,
                    "16": 0.08273638784885406,
                    "17": 0.0036784063559025526,
                    "18": -0.059294022619724274,
                    "19": -0.0527808740735054,
                    "20": 0.5124006867408752,
                    "21": 0.42441609501838684,
                    "22": -0.38902953267097473,
                    "23": -0.5436312556266785,
                    "24": 0.3484518826007843,
                    "25": 0.08861935138702393,
                    "26": 0.12708532810211182,
                    "27": -0.23954008519649506,
                    "28": 0.465000718832016,
                    "29": 0.14943909645080566,
                    "30": 0.23855799436569214,
                    "31": 0.046151190996170044,
                    "32": -0.2813957631587982,
                    "33": 0.027223359793424606,
                    "34": 0.056272536516189575,
                    "35": 0.2570965588092804,
                    "36": 0.37265801429748535,
                    "37": -0.33431148529052734,
                    "38": 0.3613026738166809,
                    "39": 0.36391130089759827,
                    "40": -0.37245193123817444,
                    "41": -0.07438576221466064,
                    "42": 0.36849600076675415,
                    "43": 0.08538173884153366,
                    "44": -0.08534295111894608,
                    "45": -0.35156217217445374,
                    "46": -0.2733690142631531,
                    "47": 0.2605913281440735,
                    "48": -0.2351219207048416,
                    "49": -0.32163479924201965,
                    "50": -0.33675479888916016,
                    "51": -0.05718414857983589,
                    "52": 0.27647924423217773,
                    "53": 0.12089965492486954,
                    "54": -0.2348063439130783,
                    "55": -0.35718411207199097,
                    "56": -0.29440364241600037,
                    "57": 0.347247838973999,
                    "58": -0.38293981552124023,
                    "59": -0.28434091806411743,
                    "60": -0.3755662441253662,
                    "61": -0.1666671633720398,
                    "62": 0.2471635788679123,
                    "63": 0.3439163863658905,
                    "64": -0.37237614393234253,
                    "65": -0.20438186824321747,
                    "66": -0.09734262526035309,
                    "67": 0.267277330160141,
                    "68": -0.29146185517311096,
                    "69": -0.3662812113761902,
                    "70": -0.10791165381669998,
                    "71": 0.03318224102258682,
                    "72": 0.24089263379573822,
                    "73": 0.05504538491368294,
                    "74": -0.033808596432209015,
                    "75": -0.2946537733078003,
                    "76": -0.3057762086391449,
                    "77": 0.08269988000392914,
                    "78": -0.22503283619880676,
                    "79": -0.1668844074010849,
                    "80": 0.2630554139614105,
                    "81": 0.08253936469554901,
                    "82": -0.3626168668270111,
                    "83": -0.2732052206993103,
                    "84": 0.2818605303764343,
                    "85": 0.35440248250961304,
                    "86": 0.3329939842224121,
                    "87": -0.3719198405742645,
                    "88": 0.3767245411872864,
                    "89": 0.31852787733078003,
                    "90": -0.3780083656311035,
                    "91": -0.030410027131438255,
                    "92": 0.29248589277267456,
                    "93": 0.029861580580472946,
                    "94": -0.19426973164081573,
                    "95": -0.26139751076698303,
                    "96": -0.3710848391056061,
                    "97": 0.37916937470436096,
                    "98": -0.26399752497673035,
                    "99": -0.29494255781173706
                }
            },
            "outputBias": {
                "rows": 10,
                "columns": 1,
                "weights": {
                    "0": 0.4926130175590515,
                    "1": 0.00036229274701327085,
                    "2": 0.6153061389923096,
                    "3": 0.24884535372257233,
                    "4": -0.26006054878234863,
                    "5": -0.30568525195121765,
                    "6": -0.3129185140132904,
                    "7": -0.029076287522912025,
                    "8": 0.3121463358402252,
                    "9": -0.3085857927799225
                }
            },
            "cellActivationMatrix": {
                "rows": 10,
                "columns": 55,
                "weights": {
                    "0": 0.11122500151395798,
                    "1": -0.03754173964262009,
                    "2": 0.06065445765852928,
                    "3": 0.04763175547122955,
                    "4": -0.03628676384687424,
                    "5": 0.01992861181497574,
                    "6": 0.08289937674999237,
                    "7": -0.03150064870715141,
                    "8": 0.0037084866780787706,
                    "9": -0.00825431477278471,
                    "10": 0.0862707570195198,
                    "11": 0.10479144006967545,
                    "12": 0.11819075047969818,
                    "13": 0.0641837865114212,
                    "14": 0.11736394464969635,
                    "15": 0.1006472185254097,
                    "16": 0.05270069092512131,
                    "17": 0.07679484039545059,
                    "18": 0.007829374633729458,
                    "19": 0.044322434812784195,
                    "20": 0.04820531979203224,
                    "21": 0.02337927184998989,
                    "22": 0.08824431151151657,
                    "23": 0.0002611651725601405,
                    "24": -0.012548545375466347,
                    "25": 0.12394702434539795,
                    "26": 0.09520892053842545,
                    "27": 0.09888771921396255,
                    "28": 0.01902422122657299,
                    "29": 0.04571860283613205,
                    "30": 0.1210361048579216,
                    "31": -0.005256863310933113,
                    "32": -0.001591452513821423,
                    "33": 0.06263013929128647,
                    "34": -0.03310314193367958,
                    "35": 0.0027411202900111675,
                    "36": 0.11324106156826019,
                    "37": 0.01510040182620287,
                    "38": -0.014298070222139359,
                    "39": 0.11991588771343231,
                    "40": 0.08062192797660828,
                    "41": -0.022746345028281212,
                    "42": 0.09025109559297562,
                    "43": -0.031118689104914665,
                    "44": 0.10365156829357147,
                    "45": -0.0077394358813762665,
                    "46": 0.07942067086696625,
                    "47": -0.034129224717617035,
                    "48": 0.08088904619216919,
                    "49": 0.08054053783416748,
                    "50": 0.031421564519405365,
                    "51": -0.000663706858176738,
                    "52": 0.11491844803094864,
                    "53": 0.003886645892634988,
                    "54": 0.031019054353237152,
                    "55": 0.2819460928440094,
                    "56": 0.30536365509033203,
                    "57": 0.23549850285053253,
                    "58": 0.21312719583511353,
                    "59": 0.3112461268901825,
                    "60": 0.23867863416671753,
                    "61": 0.2956889271736145,
                    "62": 0.2943747639656067,
                    "63": 0.3131445348262787,
                    "64": 0.33708125352859497,
                    "65": 0.32912853360176086,
                    "66": 0.3488907516002655,
                    "67": 0.30805304646492004,
                    "68": 0.22557058930397034,
                    "69": 0.3325742185115814,
                    "70": 0.3035644292831421,
                    "71": 0.30696043372154236,
                    "72": 0.29824304580688477,
                    "73": 0.3026774525642395,
                    "74": 0.305717408657074,
