{
  "type": "LSTMTimeStep",
  "options": {
    "inputSize": 55,
    "hiddenLayers": [100],
    "outputSize": 55,
    "decayRate": 0.999,
    "smoothEps": 1e-8,
    "regc": 0.000001,
    "clipval": 5
  },
  "hiddenLayers": [
    {
      "inputMatrix": {
        "rows": 100,
        "columns": 55,
        "weights": {
          "0": -0.28162238001823425,
          "1": -0.2698343098163605,
          "2": -0.3668440878391266,
          "3": -0.2490394115447998,
          "4": -0.10856068879365921,
          "5": -0.07237701863050461,
          "6": -0.25985458493232727,
          "7": -0.3080974817276001,
          "8": -0.36032041907310486,
          "9": -0.33433279395103455,
          "10": -0.24170514941215515,
          "11": -0.3287384808063507,
          "12": -0.20836657285690308,
          "13": -0.2734896242618561,
          "14": -0.3256407380104065,
          "15": -0.031038567423820496,
          "16": -0.2554672062397003,
          "17": -0.3628009259700775,
          "18": -0.20577111840248108,
          "19": -0.24466778337955475,
          "20": -0.2658185660839081,
          "21": -0.210708886384964,
          "22": -0.17622177302837372,
          "23": -0.22790837287902832,
          "24": -0.24491743743419647,
          "25": -0.21890555322170258,
          "26": -0.25376421213150024,
          "27": -0.33389654755592346,
          "28": -0.3172507882118225,
          "29": -0.2090853750705719,
          "30": -0.2687435746192932,
          "31": -0.35623273253440857,
          "32": -0.3524165451526642,
          "33": -0.3634375035762787,
          "34": -0.3815391957759857,
          "35": -0.24091163277626038,
          "36": -0.25124892592430115,
          "37": -0.2352515161037445,
          "38": -0.3707210421562195,
          "39": -0.3165682554244995,
          "40": -0.29634931683540344,
          "41": -0.25108450651168823,
          "42": -0.28781232237815857,
          "43": -0.38016876578330994,
          "44": -0.2727575898170471,
          "45": -0.32509249448776245,
          "46": -0.3666151463985443,
          "47": -0.15122178196907043,
          "48": 0.03575533628463745,
          "49": -0.32430583238601685,
          "50": -0.24023975431919098,
          "51": -0.34632429480552673,
          "52": -0.2968069612979889,
          "53": -0.15488700568675995,
          "54": -0.3902682662010193,
          "55": -0.29562461376190186,
          "56": -0.40319907665252686,
          "57": -0.3460615873336792,
          "58": -0.29074060916900635,
          "59": -0.2645968794822693,
          "60": -0.08661704510450363,
          "61": -0.34355607628822327,
          "62": -0.4026033282279968,
          "63": -0.28530076146125793,
          "64": -0.2790625989437103,
          "65": -0.318535715341568,
          "66": -0.3460465669631958,
          "67": -0.41038334369659424,
          "68": -0.39034852385520935,
          "69": -0.39361903071403503,
          "70": -0.39483827352523804,
          "71": -0.4005468189716339,
          "72": -0.3266496956348419,
          "73": -0.40967151522636414,
          "74": -0.34339067339897156,
          "75": -0.3816635012626648,
          "76": -0.34071820974349976,
          "77": -0.3516041934490204,
          "78": -0.3620070815086365,
          "79": -0.37163296341896057,
          "80": -0.40634962916374207,
          "81": -0.3354909121990204,
          "82": -0.38619711995124817,
          "83": -0.2838241755962372,
          "84": -0.4026806950569153,
          "85": -0.40761151909828186,
          "86": -0.3902370035648346,
          "87": -0.2768980860710144,
          "88": -0.317626029253006,
          "89": -0.37968024611473083,
          "90": -0.350384920835495,
          "91": -0.2601071894168854,
          "92": -0.3117259740829468,
          "93": -0.41500863432884216,
          "94": -0.4163757860660553,
          "95": -0.27785030007362366,
          "96": -0.2823652923107147,
          "97": -0.41515347361564636,
          "98": -0.3775266110897064,
          "99": -0.29395005106925964,
          "100": -0.3168056905269623,
          "101": -0.2659759819507599,
          "102": -0.26128652691841125,
          "103": -0.2958817780017853,
          "104": -0.2908394932746887,
          "105": -0.24000930786132812,
          "106": -0.2826296389102936,
          "107": -0.2628205120563507,
          "108": -0.3795522153377533,
          "109": -0.28394779562950134,
          "110": -0.3407641053199768,
          "111": -0.23848457634449005,
          "112": -0.2938591539859772,
          "113": -0.2449464648962021,
          "114": -0.31014224886894226,
          "115": -0.001074778730981052,
          "116": -0.22745123505592346,
          "117": -0.17926275730133057,
          "118": -0.2636979818344116,
          "119": -0.28028440475463867,
          "120": -0.24841094017028809,
          "121": -0.2952287793159485,
          "122": -0.3408806622028351,
          "123": -0.19954946637153625,
          "124": -0.261954128742218,
          "125": -0.2699951231479645,
          "126": -0.2524854242801666,
          "127": -0.26361551880836487,
          "128": -0.2671619951725006,
          "129": -0.23530958592891693,
          "130": -0.2890416383743286,
          "131": -0.20313431322574615,
          "132": -0.20122583210468292,
          "133": -0.2660420835018158,
          "134": -0.2700096666812897,
          "135": -0.2954975366592407,
          "136": -0.25170180201530457,
          "137": -0.2546364367008209,
          "138": -0.3264923691749573,
          "139": -0.2909685969352722,
          "140": -0.281250536441803,
          "141": -0.2773706912994385,
          "142": -0.262673944234848,
          "143": -0.23738692700862885,
          "144": -0.2474236786365509,
          "145": -0.3354314863681793,
          "146": -0.23722156882286072,
          "147": -0.2592981457710266,
          "148": -0.2059469372034073,
          "149": -0.21432338654994965,
          "150": -0.33012375235557556,
          "151": -0.17657771706581116,
          "152": -0.22921188175678253,
          "153": -0.28258296847343445,
          "154": -0.30889078974723816,
          "155": -0.32606595754623413,
          "156": -0.21187745034694672,
          "157": -0.22673703730106354,
          "158": -0.20184165239334106,
          "159": -0.2382384091615677,
          "160": -0.15792657434940338,
          "161": -0.27484577894210815,
          "162": -0.24808956682682037,
          "163": -0.2815542221069336,
          "164": -0.27007994055747986,
          "165": -0.19973845779895782,
          "166": -0.24580290913581848,
          "167": -0.26580220460891724,
          "168": -0.22968904674053192,
          "169": -0.3317941427230835,
          "170": -0.03833708167076111,
          "171": -0.2777709662914276,
          "172": -0.2920806407928467,
          "173": -0.2817981541156769,
          "174": -0.2861555814743042,
          "175": -0.19132518768310547,
          "176": -0.24214214086532593,
          "177": -0.29172125458717346,
          "178": -0.25030815601348877,
          "179": -0.18410958349704742,
          "180": -0.30424734950065613,
          "181": -0.12224455177783966,
          "182": -0.1871265172958374,
          "183": -0.25614410638809204,
          "184": -0.2666584253311157,
          "185": -0.25433894991874695,
          "186": -0.26062989234924316,
          "187": -0.2787075638771057,
          "188": -0.2677929401397705,
          "189": -0.2338027060031891,
          "190": -0.1897348016500473,
          "191": -0.15860232710838318,
          "192": -0.2708672881126404,
          "193": -0.16180984675884247,
          "194": -0.1825723648071289,
          "195": -0.24763339757919312,
          "196": -0.1553216427564621,
          "197": -0.20639753341674805,
          "198": -0.20365671813488007,
          "199": -0.24258646368980408,
          "200": -0.16597241163253784,
          "201": -0.15866173803806305,
          "202": -0.14727899432182312,
          "203": -0.1791449785232544,
          "204": -0.14417998492717743,
          "205": -0.22141383588314056,
          "206": -0.2899102568626404,
          "207": -0.15589898824691772,
          "208": -0.2273561805486679,
          "209": -0.22921207547187805,
          "210": -0.2429204285144806,
          "211": -0.28459009528160095,
          "212": -0.1905578225851059,
          "213": -0.18354371190071106,
          "214": -0.23582400381565094,
          "215": -0.16223236918449402,
          "216": -0.2047855108976364,
          "217": -0.22742438316345215,
          "218": -0.2365158647298813,
          "219": -0.1770755797624588,
          "220": -0.37032121419906616,
          "221": -0.2992359697818756,
          "222": -0.2669084966182709,
          "223": -0.26927316188812256,
          "224": -0.07256148755550385,
          "225": -0.06531620770692825,
          "226": -0.31557831168174744,
          "227": -0.16279065608978271,
          "228": -0.3604860007762909,
          "229": -0.1586681753396988,
          "230": -0.21512557566165924,
          "231": -0.2818920612335205,
          "232": -0.040577732026576996,
          "233": -0.3185572624206543,
          "234": -0.23641923069953918,
          "235": -0.046135611832141876,
          "236": -0.3134955167770386,
          "237": -0.2759670913219452,
          "238": -0.09090341627597809,
          "239": -0.2992779314517975,
          "240": -0.1637067049741745,
          "241": -0.1523752063512802,
          "242": -0.13037928938865662,
          "243": -0.2640751302242279,
          "244": -0.3116690218448639,
          "245": -0.2031981498003006,
          "246": -0.3589787781238556,
          "247": -0.3634263277053833,
          "248": -0.3593997359275818,
          "249": -0.11178067326545715,
          "250": -0.19055259227752686,
          "251": -0.3789817988872528,
          "252": -0.3162664473056793,
          "253": -0.3683123290538788,
          "254": -0.2577883303165436,
          "255": -0.23661254346370697,
          "256": -0.24526569247245789,
          "257": -0.2080054134130478,
          "258": -0.27948904037475586,
          "259": -0.331121027469635,
          "260": -0.34415820240974426,
          "261": -0.2084566205739975,
          "262": -0.32292917370796204,
          "263": -0.25416865944862366,
          "264": -0.2632991373538971,
          "265": -0.24497324228286743,
          "266": -0.2613178789615631,
          "267": -0.13702423870563507,
          "268": -0.004593366291373968,
          "269": -0.27427518367767334,
          "270": -0.240608811378479,
          "271": -0.3023854196071625,
          "272": -0.3614077568054199,
          "273": 0.008647171780467033,
          "274": -0.2653994858264923,
          "275": -0.17226728796958923,
          "276": -0.1356649547815323,
          "277": -0.37598752975463867,
          "278": -0.315094530582428,
          "279": -0.286694198846817,
          "280": -0.1696522980928421,
          "281": -0.24773858487606049,
          "282": -0.3237670958042145,
          "283": -0.23841728270053864,
          "284": -0.3450891971588135,
          "285": -0.2793583571910858,
          "286": -0.17219078540802002,
          "287": -0.31153684854507446,
          "288": -0.10583055764436722,
          "289": -0.2258961796760559,
          "290": -0.29585152864456177,
          "291": -0.12967605888843536,
          "292": -0.3633098900318146,
          "293": -0.27663013339042664,
          "294": 0.015777617692947388,
          "295": -0.3333984911441803,
          "296": -0.32267463207244873,
          "297": -0.3010143041610718,
          "298": -0.31846925616264343,
          "299": -0.18232190608978271,
          "300": -0.2958974242210388,
          "301": -0.13569052517414093,
          "302": -0.18214374780654907,
          "303": -0.15507535636425018,
          "304": -0.3017929494380951,
          "305": -0.341610848903656,
          "306": -0.19434650242328644,
          "307": -0.30942434072494507,
          "308": -0.06678888201713562,
          "309": -0.10919365286827087,
          "310": -0.14876899123191833,
          "311": -0.19429174065589905,
          "312": -0.29322242736816406,
          "313": -0.3625907897949219,
          "314": -0.10973901301622391,
          "315": -0.12601639330387115,
          "316": -0.30371204018592834,
          "317": -0.23369479179382324,
          "318": -0.2892414927482605,
          "319": -0.06250356137752533,
          "320": -0.09897869825363159,
          "321": -0.06524155288934708,
          "322": -0.37271854281425476,
          "323": -0.39022746682167053,
          "324": -0.3214224576950073,
          "325": -0.046441707760095596,
          "326": -0.14226549863815308,
          "327": -0.2786574065685272,
          "328": -0.3398166000843048,
          "329": -0.26514947414398193,
          "330": 0.3406074643135071,
          "331": 0.3548561930656433,
          "332": 0.3257903754711151,
          "333": 0.2479156106710434,
          "334": 0.29113924503326416,
          "335": 0.06173098087310791,
          "336": 0.3155021071434021,
          "337": 0.3320107161998749,
          "338": 0.25016653537750244,
          "339": 0.22715947031974792,
          "340": 0.2974206507205963,
          "341": 0.3409690260887146,
          "342": 0.25476977229118347,
          "343": 0.25853121280670166,
          "344": 0.37066295742988586,
          "345": 0.24010789394378662,
          "346": 0.32994675636291504,
          "347": 0.2492130845785141,
          "348": 0.2792986035346985,
          "349": 0.3389628231525421,
          "350": 0.3424514830112457,
          "351": 0.3277345895767212,
          "352": 0.25101879239082336,
          "353": 0.27426934242248535,
          "354": 0.3195597231388092,
          "355": 0.30053359270095825,
          "356": 0.23481206595897675,
          "357": 0.32958292961120605,
          "358": 0.22476381063461304,
          "359": 0.33628934621810913,
          "360": 0.2195204198360443,
          "361": 0.3633701205253601,
          "362": 0.36671754717826843,
          "363": 0.2179991751909256,
          "364": 0.3010416030883789,
          "365": 0.2533431947231293,
          "366": 0.22289243340492249,
          "367": 0.3221823573112488,
          "368": 0.34565141797065735,
          "369": 0.2691100239753723,
          "370": 0.28111305832862854,
          "371": 0.33463579416275024,
          "372": 0.2524426281452179,
          "373": 0.35129091143608093,
          "374": 0.311833918094635,
          "375": 0.2709333896636963,
          "376": 0.26366040110588074,
          "377": 0.3186870813369751,
          "378": 0.11264869570732117,
          "379": 0.26936182379722595,
          "380": 0.3567057251930237,
          "381": 0.3578164875507355,
          "382": 0.28557339310646057,
          "383": 0.31219950318336487,
          "384": 0.3710349202156067,
          "385": -0.34913960099220276,
          "386": -0.35099852085113525,
          "387": -0.340924471616745,
          "388": -0.38465243577957153,
          "389": -0.10912615805864334,
          "390": 0.032387617975473404,
          "391": -0.30539485812187195,
          "392": -0.31420576572418213,
          "393": -0.34556272625923157,
          "394": -0.18768708407878876,
          "395": -0.23373474180698395,
          "396": -0.3105189800262451,
          "397": -0.1935224086046219,
          "398": -0.23916004598140717,
          "399": -0.38620489835739136,
          "400": 0.045517709106206894,
          "401": -0.2498359978199005,
          "402": -0.2699498236179352,
          "403": -0.25949159264564514,
          "404": -0.31097665429115295,
          "405": -0.20542216300964355,
          "406": -0.2581057548522949,
          "407": -0.14125347137451172,
          "408": -0.2966052293777466,
          "409": -0.30335959792137146,
          "410": -0.2829006314277649,
          "411": -0.23750711977481842,
          "412": -0.326595664024353,
          "413": -0.2590722143650055,
          "414": -0.19224965572357178,
          "415": -0.3108915388584137,
          "416": -0.25815609097480774,
          "417": -0.28632375597953796,
          "418": -0.2934514880180359,
          "419": -0.24359813332557678,
          "420": -0.25017884373664856,
          "421": -0.28039440512657166,
          "422": -0.2516557276248932,
          "423": -0.2884739339351654,
          "424": -0.2638265788555145,
          "425": -0.3549334406852722,
          "426": -0.30392009019851685,
          "427": -0.25696632266044617,
          "428": -0.29766765236854553,
          "429": -0.34528326988220215,
          "430": -0.2665562629699707,
          "431": -0.2991158366203308,
          "432": -0.2625052332878113,
          "433": 0.05762800574302673,
          "434": -0.2983158230781555,
          "435": -0.3159294128417969,
          "436": -0.307638019323349,
          "437": -0.23987433314323425,
          "438": -0.15633359551429749,
          "439": -0.3235688805580139,
          "440": -0.37666574120521545,
          "441": -0.31803128123283386,
          "442": -0.25255125761032104,
          "443": -0.25729629397392273,
          "444": -0.04250826686620712,
          "445": -0.0436551608145237,
          "446": -0.2165503203868866,
          "447": -0.21186061203479767,
          "448": -0.37242093682289124,
          "449": -0.2504245638847351,
          "450": -0.259487122297287,
          "451": -0.34397685527801514,
          "452": -0.18667687475681305,
          "453": -0.26447778940200806,
          "454": -0.31783899664878845,
          "455": -0.07436109334230423,
          "456": -0.2869204878807068,
          "457": -0.24267567694187164,
          "458": -0.18829432129859924,
          "459": -0.35832735896110535,
          "460": -0.2396419197320938,
          "461": -0.26700249314308167,
          "462": -0.21894535422325134,
          "463": -0.264398992061615,
          "464": -0.28551357984542847,
          "465": -0.27684685587882996,
          "466": -0.3798011839389801,
          "467": -0.26791319251060486,
          "468": -0.3575296401977539,
          "469": -0.22164922952651978,
          "470": -0.16283614933490753,
          "471": -0.34463798999786377,
          "472": -0.24350936710834503,
          "473": -0.32434457540512085,
          "474": -0.3714308440685272,
          "475": -0.2807323932647705,
          "476": -0.30602172017097473,
          "477": -0.28608813881874084,
          "478": -0.3743763566017151,
          "479": -0.30424797534942627,
          "480": -0.2829095423221588,
          "481": -0.26924288272857666,
          "482": -0.2816913425922394,
          "483": -0.23561397194862366,
          "484": -0.25186991691589355,
          "485": -0.35716623067855835,
          "486": -0.30548909306526184,
          "487": -0.10221204906702042,
          "488": -0.05412694811820984,
          "489": -0.27038684487342834,
          "490": -0.32902488112449646,
          "491": -0.23538222908973694,
          "492": -0.32264846563339233,
          "493": -0.10040581226348877,
          "494": -0.30308425426483154,
          "495": -0.2584896683692932,
          "496": -0.3339923918247223,
          "497": -0.3188868761062622,
          "498": -0.3509671986103058,
          "499": -0.30723869800567627,
          "500": -0.011189526878297329,
          "501": -0.2744799256324768,
          "502": -0.24827639758586884,
          "503": -0.2375321388244629,
          "504": -0.38082700967788696,
          "505": -0.36238792538642883,
          "506": -0.37041953206062317,
          "507": -0.2661885619163513,
          "508": -0.31787601113319397,
          "509": -0.38910719752311707,
          "510": -0.26045840978622437,
          "511": -0.29482167959213257,
          "512": -0.371568888425827,
          "513": -0.31163427233695984,
          "514": -0.3427671194076538,
          "515": -0.23766089975833893,
          "516": -0.31296059489250183,
          "517": -0.30637526512145996,
          "518": -0.25652942061424255,
          "519": -0.23953886330127716,
          "520": -0.36659806966781616,
          "521": -0.282149076461792,
          "522": -0.2511492073535919,
          "523": -0.3518848419189453,
          "524": -0.3276699483394623,
          "525": -0.3192526698112488,
          "526": -0.3922255039215088,
          "527": -0.36956438422203064,
          "528": -0.37796613574028015,
          "529": -0.291568398475647,
          "530": -0.24936681985855103,
          "531": -0.3371531069278717,
          "532": -0.39267057180404663,
          "533": -0.3079027831554413,
          "534": -0.30194276571273804,
          "535": -0.32587915658950806,
          "536": -0.33338916301727295,
          "537": -0.29349613189697266,
          "538": -0.27663958072662354,
          "539": -0.3754982352256775,
          "540": -0.29485976696014404,
          "541": -0.30170655250549316,
          "542": -0.3495621383190155,
          "543": -0.05356677249073982,
          "544": -0.2538031041622162,
          "545": -0.326050341129303,
          "546": -0.3830081522464752,
          "547": -0.37819474935531616,
          "548": -0.2815246284008026,
          "549": -0.28709742426872253,
          "550": -0.3346403241157532,
          "551": -0.3774617314338684,
          "552": -0.34881582856178284,
          "553": -0.4239957332611084,
          "554": -0.43992409110069275,
          "555": -0.012392044067382812,
          "556": -0.4531856179237366,
          "557": -0.3364619314670563,
          "558": -0.3094843327999115,
          "559": -0.4301489591598511,
          "560": -0.30126309394836426,
          "561": -0.3032987415790558,
          "562": -0.3936043083667755,
          "563": -0.3425922095775604,
          "564": -0.3894033432006836,
          "565": -0.20561668276786804,
          "566": -0.4226773679256439,
          "567": -0.30172261595726013,
          "568": -0.45459800958633423,
          "569": -0.3226413428783417,
          "570": -0.31562644243240356,
          "571": -0.40663865208625793,
          "572": -0.46250107884407043,
          "573": -0.3530122637748718,
          "574": -0.33929696679115295,
          "575": -0.4009016752243042,
          "576": -0.38290488719940186,
          "577": -0.3016299605369568,
          "578": -0.27948155999183655,
          "579": -0.39472711086273193,
          "580": -0.38720449805259705,
          "581": -0.4150303304195404,
          "582": -0.29500988125801086,
          "583": -0.37639424204826355,
          "584": -0.3467613458633423,
          "585": -0.34347328543663025,
          "586": -0.3176604211330414,
          "587": -0.3361988961696625,
          "588": -0.31170353293418884,
          "589": -0.28962570428848267,
          "590": -0.4257684648036957,
          "591": -0.43595272302627563,
          "592": -0.37318146228790283,
          "593": -0.3449628949165344,
          "594": -0.2737025022506714,
          "595": -0.3439085781574249,
          "596": -0.40339195728302,
          "597": -0.4755839407444,
          "598": -0.03399866074323654,
          "599": -0.3895677328109741,
          "600": -0.3350341320037842,
          "601": -0.2765125632286072,
          "602": -0.3317394554615021,
          "603": -0.35257527232170105,
          "604": -0.42177248001098633,
          "605": -0.3348415493965149,
          "606": -0.3923226296901703,
          "607": -0.36629316210746765,
          "608": -0.38992950320243835,
          "609": -0.22633515298366547,
          "610": -0.08397898823022842,
          "611": -0.39184892177581787,
          "612": -0.3365665078163147,
          "613": -0.33625563979148865,
          "614": -0.27483049035072327,
          "615": -0.24038776755332947,
          "616": -0.388109415769577,
          "617": -0.25612983107566833,
          "618": -0.2822045385837555,
          "619": -0.3737565279006958,
          "620": -0.20363713800907135,
          "621": -0.32894840836524963,
          "622": -0.24436357617378235,
          "623": -0.2669609487056732,
          "624": -0.30483829975128174,
          "625": -0.29814061522483826,
          "626": -0.35240408778190613,
          "627": -0.3769198954105377,
          "628": -0.37964776158332825,
          "629": -0.3655640780925751,
          "630": -0.364397794008255,
          "631": -0.33530354499816895,
          "632": -0.34818050265312195,
          "633": -0.25923895835876465,
          "634": -0.28901931643486023,
          "635": -0.2898930013179779,
          "636": -0.3335409164428711,
          "637": -0.3931466042995453,
          "638": -0.393759548664093,
          "639": -0.32498589158058167,
          "640": -0.33177778124809265,
          "641": -0.2646738886833191,
          "642": -0.2996554374694824,
          "643": -0.26177579164505005,
          "644": -0.30591344833374023,
          "645": -0.2839619219303131,
          "646": -0.26442772150039673,
          "647": -0.23703494668006897,
          "648": -0.3275388479232788,
          "649": -0.3030502200126648,
          "650": -0.344082236289978,
          "651": -0.2772578001022339,
          "652": -0.32690712809562683,
          "653": -0.05930311232805252,
          "654": -0.3297705054283142,
          "655": -0.3548741638660431,
          "656": -0.2560817301273346,
          "657": -0.2520422637462616,
          "658": -0.27816495299339294,
          "659": -0.2955944836139679,
          "660": -0.36798861622810364,
          "661": -0.3419700562953949,
          "662": -0.36012211441993713,
          "663": -0.2816227078437805,
          "664": -0.4024781286716461,
          "665": 0.035716284066438675,
          "666": -0.2991437613964081,
          "667": -0.38098442554473877,
          "668": -0.31500914692878723,
          "669": -0.31455591320991516,
          "670": -0.3566533923149109,
          "671": -0.3296065926551819,
          "672": -0.37403425574302673,
          "673": -0.3752300441265106,
          "674": -0.31716564297676086,
          "675": -0.2616724371910095,
          "676": -0.3430791199207306,
          "677": -0.27716371417045593,
          "678": -0.3189012110233307,
          "679": -0.3567303717136383,
          "680": -0.264761358499527,
          "681": -0.30940771102905273,
          "682": -0.37010326981544495,
          "683": -0.36381715536117554,
          "684": -0.2629256546497345,
          "685": -0.3283374309539795,
          "686": -0.3319036662578583,
          "687": -0.3642174005508423,
          "688": -0.3949121832847595,
          "689": -0.4086017608642578,
          "690": -0.42721810936927795,
          "691": -0.323588103055954,
          "692": -0.35833510756492615,
          "693": -0.24755552411079407,
          "694": -0.2707151174545288,
          "695": -0.2723000645637512,
          "696": -0.39714720845222473,
          "697": -0.3612928092479706,
          "698": -0.24847915768623352,
          "699": -0.36122190952301025,
          "700": -0.24141202867031097,
          "701": -0.3603265881538391,
          "702": -0.3031107485294342,
          "703": -0.29853174090385437,
          "704": -0.27364683151245117,
          "705": -0.32053065299987793,
          "706": -0.2555609345436096,
          "707": -0.3822648227214813,
          "708": -0.27173087000846863,
          "709": -0.29725512862205505,
          "710": -0.3137211799621582,
          "711": -0.36465439200401306,
          "712": -0.3002198338508606,
          "713": -0.3652685880661011,
          "714": -0.2975008487701416,
          "715": -0.25890782475471497,
          "716": -0.33029282093048096,
          "717": -0.3753688335418701,
          "718": -0.311248779296875,
          "719": -0.23797567188739777,
          "720": 0.05431287735700607,
          "721": -0.26470816135406494,
          "722": -0.3840651512145996,
          "723": -0.24117712676525116,
          "724": -0.3378685414791107,
          "725": -0.2805178761482239,
          "726": -0.33994385600090027,
          "727": -0.22440506517887115,
          "728": -0.2400364726781845,
          "729": -0.2639475166797638,
          "730": -0.02358006127178669,
          "731": -0.2677608132362366,
          "732": -0.30626973509788513,
          "733": -0.3333912193775177,
          "734": -0.2875111699104309,
          "735": -0.3819476068019867,
          "736": -0.32473647594451904,
          "737": -0.3552219867706299,
          "738": -0.2955629825592041,
          "739": -0.36130625009536743,
          "740": -0.30816182494163513,
          "741": -0.2993764877319336,
          "742": -0.2762528955936432,
          "743": -0.2476051151752472,
          "744": -0.2331138700246811,
          "745": -0.2746562659740448,
          "746": -0.23800301551818848,
          "747": -0.3120995759963989,
          "748": -0.27746257185935974,
          "749": -0.3571828305721283,
          "750": -0.38597795367240906,
          "751": -0.3311723470687866,
          "752": -0.3214288353919983,
          "753": -0.24762281775474548,
          "754": -0.28517043590545654,
          "755": -0.3213593661785126,
          "756": -0.28001585602760315,
          "757": -0.24995359778404236,
          "758": -0.34099191427230835,
          "759": -0.25286149978637695,
          "760": -0.3588172197341919,
          "761": -0.3403446078300476,
          "762": -0.2916736602783203,
          "763": -0.09612002223730087,
          "764": -0.3820991814136505,
          "765": -0.24346955120563507,
          "766": -0.3428240120410919,
          "767": -0.3896760940551758,
          "768": -0.24455991387367249,
          "769": -0.2713692784309387,
          "770": -0.31131261587142944,
          "771": -0.31369638442993164,
          "772": -0.3299579918384552,
          "773": -0.2824997007846832,
          "774": -0.37306830286979675,
          "775": 0.010937929153442383,
          "776": -0.3327680826187134,
          "777": -0.3594464659690857,
          "778": -0.3014930486679077,
          "779": -0.24710902571678162,
          "780": -0.3302786946296692,
          "781": -0.341574102640152,
          "782": -0.3210867643356323,
          "783": -0.36810535192489624,
          "784": -0.32141241431236267,
          "785": -0.19329716265201569,
          "786": -0.24320201575756073,
          "787": -0.38747596740722656,
          "788": -0.23439310491085052,
          "789": -0.24193075299263,
          "790": -0.361655592918396,
          "791": -0.2736344039440155,
          "792": -0.3426211178302765,
          "793": -0.3309195339679718,
          "794": -0.2588751018047333,
          "795": -0.38802021741867065,
          "796": -0.33118724822998047,
          "797": -0.3472645580768585,
          "798": -0.3337181508541107,
          "799": -0.3694262206554413,
          "800": -0.2585947513580322,
          "801": -0.38299843668937683,
          "802": -0.3861801028251648,
          "803": -0.298003613948822,
          "804": -0.32981711626052856,
          "805": -0.3184300661087036,
          "806": -0.3876209259033203,
          "807": -0.34557992219924927,
          "808": -0.28447437286376953,
          "809": -0.2609463334083557,
          "810": -0.2529463469982147,
          "811": -0.3640808165073395,
          "812": -0.26643940806388855,
          "813": -0.3755846619606018,
          "814": -0.3367573022842407,
          "815": -0.2743282616138458,
          "816": -0.2674877941608429,
          "817": -0.2883647084236145,
          "818": -0.12432488054037094,
          "819": -0.3891419768333435,
          "820": -0.33683809638023376,
          "821": -0.3957226574420929,
          "822": -0.3000170588493347,
          "823": -0.1980183720588684,
          "824": -0.2378913015127182,
          "825": -0.0004091946466360241,
          "826": 0.01626383513212204,
          "827": 0.07347992062568665,
          "828": -0.033798106014728546,
          "829": 0.08764349669218063,
          "830": 0.24537363648414612,
          "831": -0.028398888185620308,
          "832": 0.07570695132017136,
          "833": -0.03649407625198364,
          "834": -0.00792397279292345,
          "835": 0.08990281075239182,
          "836": 0.054252710193395615,
          "837": 0.10239031165838242,
          "838": -0.04213433340191841,
          "839": 0.05981706455349922,
          "840": 0.3803565502166748,
          "841": 0.005100298672914505,
          "842": 0.012017031200230122,
          "843": 0.02106909453868866,
          "844": 0.07219494879245758,
          "845": 0.11522861570119858,
          "846": 0.036108121275901794,
          "847": 0.05942047759890556,
          "848": -0.027854377403855324,
          "849": -0.027360592037439346,
          "850": 0.024439707398414612,
          "851": 0.04880378767848015,
          "852": 0.07488130778074265,
          "853": 0.076020747423172,
          "854": 0.09547508507966995,
          "855": 0.06670583784580231,
          "856": 0.021373819559812546,
          "857": 0.08109142631292343,
          "858": -0.05357103794813156,
          "859": 0.04758814349770546,
          "860": 0.032950252294540405,
          "861": 0.06958668678998947,
          "862": 0.021390337496995926,
          "863": -0.017694052308797836,
          "864": 0.026567451655864716,
          "865": -0.030380308628082275,
          "866": 0.07324036955833435,
          "867": 0.08093106746673584,
          "868": 0.01578330062329769,
          "869": 0.06791696697473526,
          "870": 0.06577683985233307,
          "871": 0.00012707388668786734,
          "872": 0.12148845940828323,
          "873": 0.32877346873283386,
          "874": -0.0480232872068882,
          "875": -0.012747503817081451,
          "876": 0.03795650973916054,
          "877": 0.05246811732649803,
          "878": 0.1624852418899536,
          "879": 0.034691859036684036,
          "880": -0.3198860287666321,
          "881": -0.2776302397251129,
          "882": -0.3494848906993866,
          "883": -0.30531394481658936,
          "884": -0.21748775243759155,
          "885": -0.07118739187717438,
          "886": -0.36347275972366333,
          "887": -0.2806774973869324,
          "888": -0.36373385787010193,
          "889": -0.25440698862075806,
          "890": -0.3775085210800171,
          "891": -0.2394854575395584,
          "892": -0.1986321657896042,
          "893": -0.3315308094024658,
          "894": -0.2848189175128937,
          "895": -0.01469112653285265,
          "896": -0.32033586502075195,
          "897": -0.2735900580883026,
          "898": -0.34558969736099243,
          "899": -0.2699865996837616,
          "900": -0.27131354808807373,
          "901": -0.32832980155944824,
          "902": -0.20304150879383087,
          "903": -0.36484912037849426,
          "904": -0.28262436389923096,
          "905": -0.3198229968547821,
          "906": -0.2508624494075775,
          "907": -0.24161548912525177,
          "908": -0.37103188037872314,
          "909": -0.2633213698863983,
          "910": -0.2907570004463196,
          "911": -0.26423877477645874,
          "912": -0.38860630989074707,
          "913": -0.23544207215309143,
          "914": -0.3805317282676697,
          "915": -0.35196366906166077,
          "916": -0.271904319524765,
          "917": -0.2687702476978302,
          "918": -0.2512015104293823,
          "919": -0.28768664598464966,
          "920": -0.36335456371307373,
          "921": -0.21821796894073486,
          "922": -0.2349814474582672,
          "923": -0.3655335605144501,
          "924": -0.3159139156341553,
          "925": -0.26108720898628235,
          "926": -0.2819215953350067,
          "927": -0.22743737697601318,
          "928": -0.05939723551273346,
          "929": -0.3644733726978302,
          "930": -0.3222929835319519,
          "931": -0.3937319815158844,
          "932": -0.39138877391815186,
          "933": -0.09841751307249069,
          "934": -0.30337417125701904,
          "935": -0.26789021492004395,
          "936": -0.3754057288169861,
          "937": -0.23406198620796204,
          "938": -0.19009104371070862,
          "939": -0.11063355952501297,
          "940": -0.036077409982681274,
          "941": -0.19480910897254944,
          "942": -0.20583242177963257,
          "943": -0.2117217630147934,
          "944": -0.07387377321720123,
          "945": -0.218843013048172,
          "946": -0.31431540846824646,
          "947": -0.03330400213599205,
          "948": -0.27667325735092163,
          "949": -0.3725030720233917,
          "950": 0.05993291363120079,
          "951": -0.3095949590206146,
          "952": -0.1879170835018158,
          "953": -0.0739465281367302,
          "954": -0.28595608472824097,
          "955": -0.20897163450717926,
          "956": -0.12362555414438248,
          "957": -0.15950074791908264,
          "958": -0.17728422582149506,
          "959": -0.2666274905204773,
          "960": -0.14278797805309296,
          "961": -0.34242644906044006,
          "962": -0.24320384860038757,
          "963": -0.23000900447368622,
          "964": -0.09146124124526978,
          "965": -0.12356658279895782,
          "966": -0.2850489020347595,
          "967": -0.3318406343460083,
          "968": -0.3709792494773865,
          "969": -0.2911011576652527,
          "970": -0.3383566737174988,
          "971": -0.2596578896045685,
          "972": -0.12691277265548706,
          "973": -0.23500017821788788,
          "974": -0.3313790559768677,
          "975": -0.3162137269973755,
          "976": -0.09119021147489548,
          "977": -0.32516828179359436,
          "978": -0.33725497126579285,
          "979": -0.2352062463760376,
          "980": -0.33208754658699036,
          "981": -0.3857547640800476,
          "982": -0.048364657908678055,
          "983": -0.05958922207355499,
          "984": -0.29791969060897827,
          "985": -0.38172054290771484,
          "986": -0.21064245700836182,
          "987": -0.3129480481147766,
          "988": -0.04559073969721794,
          "989": -0.23913607001304626,
          "990": -0.2620397210121155,
          "991": -0.379406601190567,
          "992": -0.3679456412792206,
          "993": -0.23966850340366364,
          "994": -0.3636184334754944,
          "995": 0.07450856268405914,
          "996": -0.34997454285621643,
          "997": -0.34961357712745667,
          "998": -0.33054986596107483,
          "999": -0.378072589635849,
          "1000": -0.2942681610584259,
          "1001": -0.34757423400878906,
          "1002": -0.28980910778045654,
          "1003": -0.319277822971344,
          "1004": -0.2924744486808777,
          "1005": -0.16938214004039764,
          "1006": -0.2579764723777771,
          "1007": -0.30130988359451294,
          "1008": -0.35029199719429016,
          "1009": -0.30770355463027954,
          "1010": -0.2830398678779602,
          "1011": -0.35427746176719666,
          "1012": -0.36032649874687195,
          "1013": -0.24471837282180786,
          "1014": -0.2669873535633087,
          "1015": -0.3933999836444855,
          "1016": -0.3942980468273163,
          "1017": -0.24109238386154175,
          "1018": -0.39051878452301025,
          "1019": -0.2913531959056854,
          "1020": -0.32286784052848816,
          "1021": -0.30417805910110474,
          "1022": -0.28881680965423584,
          "1023": -0.2897408902645111,
          "1024": -0.2558181881904602,
          "1025": -0.37383610010147095,
          "1026": -0.27142947912216187,
          "1027": -0.2574016749858856,
          "1028": -0.2738047242164612,
          "1029": -0.30272629857063293,
          "1030": -0.36564892530441284,
          "1031": -0.2957977056503296,
          "1032": -0.38631191849708557,
          "1033": -0.2809143662452698,
          "1034": -0.3409995138645172,
          "1035": -0.30425962805747986,
          "1036": -0.25158581137657166,
          "1037": -0.3064954876899719,
          "1038": -0.01972247287631035,
          "1039": -0.29869356751441956,
          "1040": -0.34809955954551697,
          "1041": -0.24453000724315643,
          "1042": -0.23967617750167847,
          "1043": -0.35067299008369446,
          "1044": -0.28823432326316833,
          "1045": -0.21858447790145874,
          "1046": -0.1942692995071411,
          "1047": -0.2599039673805237,
          "1048": -0.3071371912956238,
          "1049": -0.34726881980895996,
          "1050": -0.011356632225215435,
          "1051": -0.33054670691490173,
          "1052": -0.24605420231819153,
          "1053": -0.24182523787021637,
          "1054": -0.26693570613861084,
          "1055": -0.2510281801223755,
          "1056": -0.2229880392551422,
          "1057": -0.2614757716655731,
          "1058": -0.283566415309906,
          "1059": -0.26584768295288086,
          "1060": -0.3170630633831024,
          "1061": -0.2837413251399994,
          "1062": -0.25597256422042847,
          "1063": -0.2648628056049347,
          "1064": -0.17044827342033386,
          "1065": -0.31481602787971497,
          "1066": -0.2509951889514923,
          "1067": -0.3331480324268341,
          "1068": -0.20645886659622192,
          "1069": -0.3045535981655121,
          "1070": -0.27400636672973633,
          "1071": -0.2707052528858185,
          "1072": -0.3163175880908966,
          "1073": -0.2175307720899582,
          "1074": -0.3103446066379547,
          "1075": -0.24698349833488464,
          "1076": -0.22915682196617126,
          "1077": -0.2700556814670563,
          "1078": -0.28088971972465515,
          "1079": -0.21792080998420715,
          "1080": -0.21010944247245789,
          "1081": -0.26672104001045227,
          "1082": -0.2913393974304199,
          "1083": -0.24273055791854858,
          "1084": -0.1909949779510498,
          "1085": -0.23010064661502838,
          "1086": -0.271256685256958,
          "1087": -0.3258935809135437,
          "1088": -0.20571406185626984,
          "1089": -0.19476230442523956,
          "1090": -0.28444188833236694,
          "1091": -0.05409618467092514,
          "1092": -0.39395859837532043,
          "1093": -0.32821935415267944,
          "1094": -0.3146906793117523,
          "1095": -0.14930428564548492,
          "1096": -0.3198545277118683,
          "1097": -0.2779802978038788,
          "1098": -0.3331175744533539,
          "1099": -0.18506720662117004,
          "1100": -0.3146567642688751,
          "1101": -0.254961222410202,
          "1102": -0.3387168347835541,
          "1103": -0.34996986389160156,
          "1104": -0.2778802514076233,
          "1105": 0.03197597712278366,
          "1106": -0.35226818919181824,
          "1107": -0.31912803649902344,
          "1108": -0.31992074847221375,
          "1109": -0.3105148375034332,
          "1110": -0.28065964579582214,
          "1111": -0.3830821216106415,
          "1112": -0.3202821612358093,
          "1113": -0.2899141311645508,
          "1114": -0.38966262340545654,
          "1115": -0.20909737050533295,
          "1116": -0.3510096073150635,
          "1117": -0.25505125522613525,
          "1118": -0.31295907497406006,
          "1119": -0.2930320203304291,
          "1120": -0.37857237458229065,
          "1121": -0.37069422006607056,
          "1122": -0.24404384195804596,
          "1123": -0.24173854291439056,
          "1124": -0.2994099259376526,
          "1125": -0.3678811490535736,
          "1126": -0.3060828149318695,
          "1127": -0.28636881709098816,
          "1128": -0.3955307900905609,
          "1129": -0.3338353931903839,
          "1130": -0.2421829104423523,
          "1131": -0.37299880385398865,
          "1132": -0.2895667850971222,
          "1133": -0.2939319312572479,
          "1134": -0.3297017514705658,
          "1135": -0.2895747125148773,
          "1136": -0.24586349725723267,
          "1137": -0.33009952306747437,
          "1138": -0.3034522235393524,
          "1139": -0.2744519114494324,
          "1140": -0.2902344763278961,
          "1141": -0.2824741303920746,
          "1142": -0.2964116036891937,
          "1143": -0.35764646530151367,
          "1144": -0.28175365924835205,
          "1145": -0.295099139213562,
          "1146": -0.300934374332428,
          "1147": -0.3588055968284607,
          "1148": -0.09176459908485413,
          "1149": -0.3941405713558197,
          "1150": -0.2885048985481262,
          "1151": -0.3000110685825348,
          "1152": -0.3855970799922943,
          "1153": -0.3102830648422241,
          "1154": -0.3952581584453583,
          "1155": 0.33083614706993103,
          "1156": 0.24492932856082916,
          "1157": 0.26092058420181274,
          "1158": 0.28366920351982117,
          "1159": 0.1904577612876892,
          "1160": 0.029999129474163055,
          "1161": 0.34040018916130066,
          "1162": 0.18779340386390686,
          "1163": 0.3271666169166565,
          "1164": 0.33775317668914795,
          "1165": 0.2553104758262634,
          "1166": 0.26920953392982483,
          "1167": 0.23499943315982819,
          "1168": 0.30988001823425293,
          "1169": 0.28488919138908386,
          "1170": 0.10255637764930725,
          "1171": 0.20132197439670563,
          "1172": 0.20687991380691528,
          "1173": 0.30380779504776,
          "1174": 0.20532578229904175,
          "1175": 0.2528402507305145,
          "1176": 0.32749485969543457,
          "1177": 0.2115645557641983,
          "1178": 0.1913163661956787,
          "1179": 0.3069649040699005,
          "1180": 0.24239686131477356,
          "1181": 0.22817933559417725,
          "1182": 0.24381127953529358,
          "1183": 0.3124517798423767,
          "1184": 0.2864682376384735,
          "1185": 0.2683030962944031,
          "1186": 0.342890202999115,
          "1187": 0.22431126236915588,
          "1188": 0.33105263113975525,
          "1189": 0.25929054617881775,
          "1190": 0.284249871969223,
          "1191": 0.2934042513370514,
          "1192": 0.3000553846359253,
          "1193": 0.3242938816547394,
          "1194": 0.2136916220188141,
          "1195": 0.2319345474243164,
          "1196": 0.21714381873607635,
          "1197": 0.2103981226682663,
          "1198": 0.23937472701072693,
          "1199": 0.23744480311870575,
          "1200": 0.32795631885528564,
          "1201": 0.2590515911579132,
          "1202": 0.3124184310436249,
          "1203": 0.10278093069791794,
          "1204": 0.32131001353263855,
          "1205": 0.3438255786895752,
          "1206": 0.21123625338077545,
          "1207": 0.22008399665355682,
          "1208": 0.23382586240768433,
          "1209": 0.2756793797016144,
          "1210": 0.17906589806079865,
          "1211": 0.1240394189953804,
          "1212": 0.09893438220024109,
          "1213": 0.1503378003835678,
          "1214": 0.11277106404304504,
          "1215": -0.06562338769435883,
          "1216": 0.20107799768447876,
          "1217": 0.15650470554828644,
          "1218": 0.1624303162097931,
          "1219": 0.15358105301856995,
          "1220": 0.20259009301662445,
          "1221": 0.22281518578529358,
          "1222": 0.18588890135288239,
          "1223": 0.06877819448709488,
          "1224": 0.16725729405879974,
          "1225": 0.07818625867366791,
          "1226": 0.1334487348794937,
          "1227": 0.12962250411510468,
          "1228": 0.1234293282032013,
          "1229": 0.20111502707004547,
          "1230": 0.1471094787120819,
          "1231": 0.06250755488872528,
          "1232": 0.13330359756946564,
          "1233": 0.14953407645225525,
          "1234": 0.13261830806732178,
          "1235": 0.15801480412483215,
          "1236": 0.10502694547176361,
          "1237": 0.11113762110471725,
          "1238": 0.07733562588691711,
          "1239": 0.10202383249998093,
          "1240": 0.15080896019935608,
          "1241": 0.07918773591518402,
          "1242": 0.07706814259290695,
          "1243": 0.1648683398962021,
          "1244": 0.22259676456451416,
          "1245": 0.206661194562912,
          "1246": 0.13970571756362915,
          "1247": 0.21940787136554718,
          "1248": 0.14163073897361755,
          "1249": 0.07239891588687897,
          "1250": 0.19064173102378845,
          "1251": 0.2126559466123581,
          "1252": 0.08242626488208771,
          "1253": 0.1584191471338272,
          "1254": 0.07588668912649155,
          "1255": 0.10724755376577377,
          "1256": 0.1311734914779663,
          "1257": 0.20082029700279236,
          "1258": -0.00455782376229763,
          "1259": 0.12609684467315674,
          "1260": 0.11061107367277145,
          "1261": 0.08505966514348984,
          "1262": 0.09179418534040451,
          "1263": 0.1985723227262497,
          "1264": 0.08768150955438614,
          "1265": 0.49339115619659424,
          "1266": 0.401342511177063,
          "1267": 0.518351674079895,
          "1268": 0.4399607181549072,
          "1269": 0.5483096241950989,
          "1270": -0.04049312323331833,
          "1271": 0.5841233134269714,
          "1272": 0.47461357712745667,
          "1273": 0.39155229926109314,
          "1274": 0.539501428604126,
          "1275": 0.45222190022468567,
          "1276": 0.3661484122276306,
          "1277": 0.6080660820007324,
          "1278": 0.46529248356819153,
          "1279": 0.44776907563209534,
          "1280": 0.49264922738075256,
          "1281": 0.35526999831199646,
          "1282": 0.49744343757629395,
          "1283": 0.5195724964141846,
          "1284": 0.3966725170612335,
          "1285": 0.4594302177429199,
          "1286": 0.5012924075126648,
          "1287": 0.6191976070404053,
          "1288": 0.47354942560195923,
          "1289": 0.5156533718109131,
          "1290": 0.6077650189399719,
          "1291": 0.4000866115093231,
          "1292": 0.4015810787677765,
          "1293": 0.41242673993110657,
          "1294": 0.6036493182182312,
          "1295": 0.5910428762435913,
          "1296": 0.4737728536128998,
          "1297": 0.531117856502533,
          "1298": 0.4832335412502289,
          "1299": 0.4251159727573395,
          "1300": 0.3384641706943512,
          "1301": 0.3997975289821625,
          "1302": 0.5478357672691345,
          "1303": 0.5456492900848389,
          "1304": 0.3817765414714813,
          "1305": 0.48904258012771606,
          "1306": 0.4821435511112213,
          "1307": 0.41037115454673767,
          "1308": 0.4835948050022125,
          "1309": 0.41907888650894165,
          "1310": 0.44569599628448486,
          "1311": 0.33288252353668213,
          "1312": 0.5334932804107666,
          "1313": 0.399904727935791,
          "1314": 0.4870983958244324,
          "1315": 0.354190856218338,
          "1316": 0.5172605514526367,
          "1317": 0.3892207741737366,
          "1318": 0.5954266786575317,
          "1319": 0.5122889876365662,
          "1320": -0.3404054641723633,
          "1321": -0.286056250333786,
          "1322": -0.35594627261161804,
          "1323": -0.31118595600128174,
          "1324": -0.137359157204628,
          "1325": -0.07723834365606308,
          "1326": -0.2835598587989807,
          "1327": -0.24367755651474,
          "1328": -0.23638315498828888,
          "1329": -0.3469540774822235,
          "1330": -0.31963494420051575,
          "1331": -0.32570651173591614,
          "1332": -0.3261754810810089,
          "1333": -0.2904537618160248,
          "1334": -0.33994582295417786,
          "1335": -0.11195388436317444,
          "1336": -0.38176706433296204,
          "1337": -0.3922227621078491,
          "1338": -0.3775467872619629,
          "1339": -0.35588762164115906,
          "1340": -0.24311242997646332,
          "1341": -0.26713305711746216,
          "1342": -0.3484559953212738,
          "1343": -0.2756180465221405,
          "1344": -0.3817286789417267,
          "1345": -0.25326135754585266,
          "1346": -0.375769704580307,
          "1347": -0.33982089161872864,
          "1348": -0.326335072517395,
          "1349": -0.23560677468776703,
          "1350": -0.32158535718917847,
          "1351": -0.384927898645401,
          "1352": -0.2866419553756714,
          "1353": -0.3130066394805908,
          "1354": -0.31340381503105164,
          "1355": -0.36367717385292053,
          "1356": -0.3633977770805359,
          "1357": -0.3466852009296417,
          "1358": -0.29820898175239563,
          "1359": -0.24689273536205292,
          "1360": -0.386263370513916,
          "1361": -0.34758856892585754,
          "1362": -0.38624700903892517,
          "1363": -0.37571513652801514,
          "1364": -0.3286620080471039,
          "1365": -0.38873276114463806,
          "1366": -0.27580180764198303,
          "1367": -0.2985994517803192,
          "1368": 0.008279199711978436,
          "1369": -0.28980156779289246,
          "1370": -0.24880953133106232,
          "1371": -0.27296605706214905,
          "1372": -0.27839213609695435,
          "1373": -0.09098457545042038,
          "1374": -0.26294419169425964,
          "1375": -0.32796332240104675,
          "1376": -0.3195066750049591,
          "1377": -0.32493069767951965,
          "1378": -0.2894929349422455,
          "1379": -0.35026174783706665,
          "1380": -0.045629844069480896,
          "1381": -0.24003951251506805,
          "1382": -0.3093894124031067,
          "1383": -0.30162790417671204,
          "1384": -0.36522620916366577,
          "1385": -0.25292468070983887,
          "1386": -0.26442602276802063,
          "1387": -0.28024640679359436,
          "1388": -0.28445908427238464,
          "1389": -0.3237365484237671,
          "1390": -0.2169591337442398,
          "1391": -0.2398037612438202,
          "1392": -0.3538353443145752,
          "1393": -0.33742839097976685,
          "1394": -0.3428391218185425,
          "1395": -0.3439643085002899,
          "1396": -0.2991531491279602,
          "1397": -0.38789233565330505,
          "1398": -0.327576607465744,
          "1399": -0.351946085691452,
          "1400": -0.24985268712043762,
          "1401": -0.31477198004722595,
          "1402": -0.2680082619190216,
          "1403": -0.3865038752555847,
          "1404": -0.36440354585647583,
          "1405": -0.30741238594055176,
          "1406": -0.3070221245288849,
          "1407": -0.3634941875934601,
          "1408": -0.3005465567111969,
          "1409": -0.25151577591896057,
          "1410": -0.31972604990005493,
          "1411": -0.3913068473339081,
          "1412": -0.2521013915538788,
          "1413": -0.3221021294593811,
          "1414": -0.2736920714378357,
          "1415": -0.2845633924007416,
          "1416": -0.39443203806877136,
          "1417": -0.2561858296394348,
          "1418": -0.2918391227722168,
          "1419": -0.3272378742694855,
          "1420": -0.32664281129837036,
          "1421": -0.37976783514022827,
          "1422": -0.24507932364940643,
          "1423": -0.10342475026845932,
          "1424": -0.306615948677063,
          "1425": -0.3923773467540741,
          "1426": -0.2879828214645386,
          "1427": -0.3264863193035126,
          "1428": -0.38120219111442566,
          "1429": -0.3849540650844574,
          "1430": -0.380569726228714,
          "1431": -0.29619288444519043,
          "1432": -0.36406251788139343,
          "1433": -0.3677646219730377,
          "1434": -0.3085257112979889,
          "1435": 0.025514371693134308,
          "1436": -0.34881046414375305,
          "1437": -0.38972440361976624,
          "1438": -0.29443782567977905,
          "1439": -0.23349672555923462,
          "1440": -0.3383186161518097,
          "1441": -0.31576991081237793,
          "1442": -0.22745555639266968,
          "1443": -0.3498087227344513,
          "1444": -0.3595375716686249,
          "1445": -0.06306342035531998,
          "1446": -0.3639015853404999,
          "1447": -0.2903537154197693,
          "1448": -0.3304542899131775,
          "1449": -0.25851330161094666,
          "1450": -0.3290382921695709,
          "1451": -0.2659825086593628,
          "1452": -0.2901768684387207,
          "1453": -0.3678637444972992,
          "1454": -0.33210527896881104,
          "1455": -0.3261415660381317,
          "1456": -0.2919169068336487,
          "1457": -0.3900005519390106,
          "1458": -0.3684748113155365,
          "1459": -0.3329944610595703,
          "1460": -0.24261818826198578,
          "1461": -0.24673818051815033,
          "1462": -0.2693347632884979,
          "1463": -0.2923741936683655,
          "1464": -0.32494282722473145,
          "1465": -0.26279816031455994,
          "1466": -0.2587214708328247,
          "1467": -0.27173295617103577,
          "1468": -0.32857614755630493,
          "1469": -0.3424828350543976,
          "1470": -0.24044770002365112,
          "1471": -0.31349125504493713,
          "1472": -0.38688620924949646,
          "1473": -0.353198766708374,
          "1474": -0.2425733506679535,
          "1475": -0.302311509847641,
          "1476": -0.34778258204460144,
          "1477": -0.37616169452667236,
          "1478": -0.018062258139252663,
          "1479": -0.3564664423465729,
          "1480": -0.27641022205352783,
          "1481": -0.34080204367637634,
          "1482": -0.30302801728248596,
          "1483": -0.24298588931560516,
          "1484": -0.2767791450023651,
          "1485": -0.2414637953042984,
          "1486": -0.3797418177127838,
          "1487": -0.2877914607524872,
          "1488": -0.3597542941570282,
          "1489": -0.15863704681396484,
          "1490": 0.056228868663311005,
          "1491": -0.2713838219642639,
          "1492": -0.3648090660572052,
          "1493": -0.2590653598308563,
          "1494": -0.289066880941391,
          "1495": -0.24008245766162872,
          "1496": -0.3581770360469818,
          "1497": -0.18911603093147278,
          "1498": -0.27912434935569763,
          "1499": -0.31079310178756714,
          "1500": -0.06720148026943207,
          "1501": -0.353114515542984,
          "1502": -0.3803854286670685,
          "1503": -0.3411897122859955,
          "1504": -0.3727997839450836,
          "1505": -0.2455708086490631,
          "1506": -0.27803653478622437,
          "1507": -0.23735348880290985,
          "1508": -0.29184165596961975,
          "1509": -0.3067440390586853,
          "1510": -0.31588014960289,
          "1511": -0.33270901441574097,
          "1512": -0.2447558045387268,
          "1513": -0.27635812759399414,
          "1514": -0.3265819549560547,
          "1515": -0.3772381842136383,
          "1516": -0.31912142038345337,
          "1517": -0.29527807235717773,
          "1518": -0.3646194636821747,
          "1519": -0.24124816060066223,
          "1520": -0.323201447725296,
          "1521": -0.33209332823753357,
          "1522": -0.33416587114334106,
          "1523": -0.2774564027786255,
          "1524": -0.3420235216617584,
          "1525": -0.31224504113197327,
          "1526": -0.23659130930900574,
          "1527": -0.2807193696498871,
          "1528": -0.3477988541126251,
          "1529": -0.3831033706665039,
          "1530": -0.35415229201316833,
          "1531": -0.373951256275177,
          "1532": -0.34703579545021057,
          "1533": 0.03158852085471153,
          "1534": -0.30744534730911255,
          "1535": -0.3694445788860321,
          "1536": -0.3920394480228424,
          "1537": -0.24111545085906982,
          "1538": -0.2282818704843521,
          "1539": -0.30575916171073914,
          "1540": -0.306171715259552,
          "1541": -0.3012359142303467,
          "1542": -0.23469117283821106,
          "1543": -0.36175695061683655,
          "1544": -0.10033591091632843,
          "1545": -0.058075908571481705,
          "1546": -0.38405200839042664,
          "1547": -0.353674054145813,
          "1548": -0.2938104271888733,
          "1549": -0.3555041253566742,
          "1550": -0.30745676159858704,
          "1551": -0.23951394855976105,
          "1552": -0.22787010669708252,
          "1553": -0.3078519105911255,
          "1554": -0.2572372853755951,
          "1555": -0.10702875256538391,
          "1556": -0.31374332308769226,
          "1557": -0.3624841868877411,
          "1558": -0.23589123785495758,
          "1559": -0.28207141160964966,
          "1560": -0.2628230154514313,
          "1561": -0.25713080167770386,
          "1562": -0.2480342984199524,
          "1563": -0.2963597774505615,
          "1564": -0.3262791335582733,
          "1565": -0.3078840672969818,
          "1566": -0.3429171144962311,
          "1567": -0.24270707368850708,
          "1568": -0.37539035081863403,
          "1569": -0.1893118917942047,
          "1570": -0.3089052438735962,
          "1571": -0.380620539188385,
          "1572": -0.25365695357322693,
          "1573": -0.3042016327381134,
          "1574": -0.34217414259910583,
          "1575": -0.24247141182422638,
          "1576": -0.2626298666000366,
          "1577": -0.30460572242736816,
          "1578": -0.34649038314819336,
          "1579": -0.3459346294403076,
          "1580": -0.29072561860084534,
          "1581": -0.22588355839252472,
          "1582": -0.36168113350868225,
          "1583": -0.307304322719574,
          "1584": -0.27549469470977783,
          "1585": -0.32041361927986145,
          "1586": -0.30218297243118286,
          "1587": -0.2751602530479431,
          "1588": 0.03579826280474663,
          "1589": -0.294417142868042,
          "1590": -0.3482653796672821,
          "1591": -0.2743077278137207,
          "1592": -0.3653241693973541,
          "1593": -0.18619224429130554,
          "1594": -0.33852866291999817,
          "1595": -0.22135521471500397,
          "1596": -0.22507420182228088,
          "1597": -0.28409543633461,
          "1598": -0.3054335415363312,
          "1599": -0.251713365316391,
          "1600": 0.02815314382314682,
          "1601": -0.20460909605026245,
          "1602": -0.2107713371515274,
          "1603": -0.20437254011631012,
          "1604": -0.22940441966056824,
          "1605": -0.1787356585264206,
          "1606": -0.2858825623989105,
          "1607": -0.3174477815628052,
          "1608": -0.2942940592765808,
          "1609": -0.2362881600856781,
          "1610": -0.2416241466999054,
          "1611": -0.1525680422782898,
          "1612": -0.19397984445095062,
          "1613": -0.32093924283981323,
          "1614": -0.28990495204925537,
          "1615": -0.21832944452762604,
          "1616": -0.17215518653392792,
          "1617": -0.24212466180324554,
          "1618": -0.2748742699623108,
          "1619": -0.25475597381591797,
          "1620": -0.17806077003479004,
          "1621": -0.2134452611207962,
          "1622": -0.14907306432724,
          "1623": -0.24759376049041748,
          "1624": -0.24668990075588226,
          "1625": -0.25111842155456543,
          "1626": -0.2454511821269989,
          "1627": -0.26766544580459595,
          "1628": -0.20806990563869476,
          "1629": -0.2540065348148346,
          "1630": -0.2954745292663574,
          "1631": -0.28492945432662964,
          "1632": -0.2564777433872223,
          "1633": -0.17384815216064453,
          "1634": -0.15073919296264648,
          "1635": -0.231185182929039,
          "1636": -0.2975376844406128,
          "1637": -0.159419983625412,
          "1638": -0.19441978633403778,
          "1639": -0.2484906017780304,
          "1640": -0.291555255651474,
          "1641": -0.2249269336462021,
          "1642": -0.34478458762168884,
          "1643": -0.2540780305862427,
          "1644": -0.2684742212295532,
          "1645": -0.15507546067237854,
          "1646": -0.22070427238941193,
          "1647": -0.2872660756111145,
          "1648": -0.3126399517059326,
          "1649": -0.26874199509620667,
          "1650": -0.36619189381599426,
          "1651": -0.36098265647888184,
          "1652": -0.25749412178993225,
          "1653": -0.38690969347953796,
          "1654": -0.2646358013153076,
          "1655": -0.05381342023611069,
          "1656": -0.24438877403736115,
          "1657": -0.27017882466316223,
          "1658": -0.2981521785259247,
          "1659": -0.24333427846431732,
          "1660": -0.3153975009918213,
          "1661": -0.3353239893913269,
          "1662": -0.28764620423316956,
          "1663": -0.28749391436576843,
          "1664": -0.2839299440383911,
          "1665": -0.2726455330848694,
          "1666": -0.36774611473083496,
          "1667": -0.25367239117622375,
          "1668": -0.3472599685192108,
          "1669": -0.3289879858493805,
          "1670": -0.25653183460235596,
          "1671": -0.3542462885379791,
          "1672": -0.27661988139152527,
          "1673": -0.2779056429862976,
          "1674": -0.27417659759521484,
          "1675": -0.2953786551952362,
          "1676": -0.3066195547580719,
          "1677": -0.29546642303466797,
          "1678": -0.2617810368537903,
          "1679": -0.3823176920413971,
          "1680": -0.24240939319133759,
          "1681": -0.29356813430786133,
          "1682": -0.2418108731508255,
          "1683": -0.30613645911216736,
          "1684": -0.3896700441837311,
          "1685": -0.37776875495910645,
          "1686": -0.3311944007873535,
          "1687": -0.3952842056751251,
          "1688": -0.27679845690727234,
          "1689": -0.2985830307006836,
          "1690": -0.3577446937561035,
          "1691": -0.2775617837905884,
          "1692": -0.36467307806015015,
          "1693": -0.2362901121377945,
          "1694": -0.3167245388031006,
          "1695": -0.33115458488464355,
          "1696": -0.33490291237831116,
          "1697": -0.33101505041122437,
          "1698": -0.12363719195127487,
          "1699": -0.360373854637146,
          "1700": -0.29021018743515015,
          "1701": -0.32689031958580017,
          "1702": -0.2683561444282532,
          "1703": -0.2777998745441437,
          "1704": -0.2666637897491455,
          "1705": -0.3631399869918823,
          "1706": -0.32754263281822205,
          "1707": -0.3713598847389221,
          "1708": -0.37675556540489197,
          "1709": -0.2538185715675354,
          "1710": 0.032589759677648544,
          "1711": -0.3368690311908722,
          "1712": -0.313131183385849,
          "1713": -0.38229671120643616,
          "1714": -0.2867218554019928,
          "1715": -0.37098729610443115,
          "1716": -0.36043739318847656,
          "1717": -0.2581620216369629,
          "1718": -0.2835877537727356,
          "1719": -0.31396305561065674,
          "1720": -0.1714445948600769,
          "1721": -0.35453200340270996,
          "1722": -0.2610280215740204,
          "1723": -0.250512957572937,
          "1724": -0.241681769490242,
          "1725": -0.29913023114204407,
          "1726": -0.27565741539001465,
          "1727": -0.277424156665802,
          "1728": -0.36118772625923157,
          "1729": -0.24458536505699158,
          "1730": -0.3920740485191345,
          "1731": -0.356990247964859,
          "1732": -0.3589111864566803,
          "1733": -0.33679524064064026,
          "1734": -0.35467880964279175,
          "1735": -0.31438368558883667,
          "1736": -0.27717772126197815,
          "1737": -0.2946029603481293,
          "1738": -0.3860054016113281,
          "1739": -0.3055250942707062,
          "1740": -0.37031370401382446,
          "1741": -0.33835992217063904,
          "1742": -0.350953608751297,
          "1743": -0.2942695915699005,
          "1744": -0.38278040289878845,
          "1745": -0.2927371561527252,
          "1746": -0.33513709902763367,
          "1747": -0.26487940549850464,
          "1748": -0.3408481478691101,
          "1749": -0.33658191561698914,
          "1750": -0.24386148154735565,
          "1751": -0.3124760687351227,
          "1752": -0.2927088141441345,
          "1753": -0.131452739238739,
          "1754": -0.24892643094062805,
          "1755": -0.31000614166259766,
          "1756": -0.28230956196784973,
          "1757": -0.2543587386608124,
          "1758": -0.2315414845943451,
          "1759": -0.24788819253444672,
          "1760": 0.1375827193260193,
          "1761": 0.1942109912633896,
          "1762": 0.09334803372621536,
          "1763": 0.21807347238063812,
          "1764": 0.18750731647014618,
          "1765": 0.02758222259581089,
          "1766": 0.12126149982213974,
          "1767": 0.21993592381477356,
          "1768": 0.1037730723619461,
          "1769": 0.2214488387107849,
          "1770": 0.09335455298423767,
          "1771": 0.23739425837993622,
          "1772": 0.1638229936361313,
          "1773": 0.17804186046123505,
          "1774": 0.1131560429930687,
          "1775": 0.018364250659942627,
          "1776": 0.1629110425710678,
          "1777": 0.23064525425434113,
          "1778": 0.18542523682117462,
          "1779": 0.16545957326889038,
          "1780": 0.14977167546749115,
          "1781": 0.10604143887758255,
          "1782": 0.06129933148622513,
          "1783": 0.17899158596992493,
          "1784": 0.14912335574626923,
          "1785": 0.1105649322271347,
          "1786": 0.18789264559745789,
          "1787": 0.1865232288837433,
          "1788": 0.11914625763893127,
          "1789": 0.18822725117206573,
          "1790": 0.13335609436035156,
          "1791": 0.16200977563858032,
          "1792": 0.12954668700695038,
          "1793": 0.09377094358205795,
          "1794": 0.18252460658550262,
          "1795": 0.12857477366924286,
          "1796": 0.08317294716835022,
          "1797": 0.12318078428506851,
          "1798": 0.09812412410974503,
          "1799": 0.1313851773738861,
          "1800": 0.0993732437491417,
          "1801": 0.11958475410938263,
          "1802": 0.14934422075748444,
          "1803": 0.09445096552371979,
          "1804": 0.08677525818347931,
          "1805": 0.220955953001976,
          "1806": 0.22675664722919464,
          "1807": 0.16292470693588257,
          "1808": 0.0944402739405632,
          "1809": 0.11184414476156235,
          "1810": 0.1486627608537674,
          "1811": 0.1611577421426773,
          "1812": 0.202268585562706,
          "1813": 0.09748924523591995,
          "1814": 0.14616739749908447,
          "1815": 0.14329072833061218,
          "1816": 0.19768035411834717,
          "1817": 0.17468595504760742,
          "1818": 0.16970252990722656,
          "1819": 0.1660037785768509,
          "1820": -0.012572845444083214,
          "1821": 0.12468935549259186,
          "1822": 0.18303655087947845,
          "1823": 0.13970667123794556,
          "1824": 0.21577122807502747,
          "1825": 0.13538630306720734,
          "1826": 0.232561856508255,
          "1827": 0.2688063681125641,
          "1828": 0.2707701325416565,
          "1829": 0.23341402411460876,
          "1830": 0.1461133360862732,
          "1831": 0.25743523240089417,
          "1832": 0.12721695005893707,
          "1833": 0.16404235363006592,
          "1834": 0.2179708182811737,
          "1835": 0.14866474270820618,
          "1836": 0.22508583962917328,
          "1837": 0.1298644244670868,
          "1838": 0.15050169825553894,
          "1839": 0.14642801880836487,
          "1840": 0.24272428452968597,
          "1841": 0.15517999231815338,
          "1842": 0.2083132117986679,
          "1843": 0.26584920287132263,
          "1844": 0.16864965856075287,
          "1845": 0.1428609937429428,
          "1846": 0.15059714019298553,
          "1847": 0.14460544288158417,
          "1848": 0.13424691557884216,
          "1849": 0.1617787480354309,
          "1850": 0.1396639347076416,
          "1851": 0.1686965823173523,
          "1852": 0.2066810429096222,
          "1853": 0.21713833510875702,
          "1854": 0.265865683555603,
          "1855": 0.1642322838306427,
          "1856": 0.12953820824623108,
          "1857": 0.2128022462129593,
          "1858": 0.2610635757446289,
          "1859": 0.165636345744133,
          "1860": 0.18727612495422363,
          "1861": 0.2031078338623047,
          "1862": 0.26196855306625366,
          "1863": -0.03181574121117592,
          "1864": 0.13388875126838684,
          "1865": 0.1435224562883377,
          "1866": 0.21727263927459717,
          "1867": 0.2803269624710083,
          "1868": 0.16476193070411682,
          "1869": 0.2710925042629242,
          "1870": -0.31438329815864563,
          "1871": -0.04819741100072861,
          "1872": -0.3792346119880676,
          "1873": -0.3223825991153717,
          "1874": -0.27516329288482666,
          "1875": -0.2706620395183563,
          "1876": -0.3054310381412506,
          "1877": -0.27197161316871643,
          "1878": -0.17347799241542816,
          "1879": -0.2991451025009155,
          "1880": -0.30872640013694763,
          "1881": -0.09111206978559494,
          "1882": -0.26200059056282043,
          "1883": -0.12423087656497955,
          "1884": -0.18879789113998413,
          "1885": -0.2888815999031067,
          "1886": -0.16626928746700287,
          "1887": -0.2626829743385315,
          "1888": -0.32299208641052246,
          "1889": -0.12093731015920639,
          "1890": -0.3420785665512085,
          "1891": -0.38869360089302063,
          "1892": -0.3187497556209564,
          "1893": -0.2856709063053131,
          "1894": -0.23789924383163452,
          "1895": -0.3865016996860504,
          "1896": -0.19315968453884125,
          "1897": -0.26568323373794556,
          "1898": -0.16892649233341217,
          "1899": -0.3549962341785431,
          "1900": -0.31187769770622253,
          "1901": -0.17620645463466644,
          "1902": -0.30151987075805664,
          "1903": -0.12463569641113281,
          "1904": -0.08411664515733719,
          "1905": -0.0981140285730362,
          "1906": -0.22371278703212738,
          "1907": -0.3490820825099945,
          "1908": -0.2892122268676758,
          "1909": -0.12954674661159515,
          "1910": -0.19343475997447968,
          "1911": -0.3921712338924408,
          "1912": -0.28550735116004944,
          "1913": -0.3344969153404236,
          "1914": -0.1199190616607666,
          "1915": -0.134160578250885,
          "1916": -0.05414697527885437,
          "1917": -0.310549259185791,
          "1918": -0.27671143412590027,
          "1919": -0.29706472158432007,
          "1920": -0.06925705075263977,
          "1921": -0.26152125000953674,
          "1922": -0.21489231288433075,
          "1923": -0.3307148814201355,
          "1924": -0.2454954832792282,
          "1925": 0.2502407133579254,
          "1926": 0.20649851858615875,
          "1927": 0.13536368310451508,
          "1928": 0.17219848930835724,
          "1929": 0.18294784426689148,
          "1930": -0.04312650486826897,
          "1931": 0.1349285989999771,
          "1932": 0.17025232315063477,
          "1933": 0.1438615322113037,
          "1934": 0.19821777939796448,
          "1935": 0.1932632327079773,
          "1936": 0.2690432071685791,
          "1937": 0.1862790435552597,
          "1938": 0.1927194893360138,
          "1939": 0.23845504224300385,
          "1940": 0.15581753849983215,
          "1941": 0.17259174585342407,
          "1942": 0.1621420681476593,
          "1943": 0.22424034774303436,
          "1944": 0.28402402997016907,
          "1945": 0.17470397055149078,
          "1946": 0.17054106295108795,
          "1947": 0.202008455991745,
          "1948": 0.26152515411376953,
          "1949": 0.22080761194229126,
          "1950": 0.28249451518058777,
          "1951": 0.18960218131542206,
          "1952": 0.1599666327238083,
          "1953": 0.17805875837802887,
          "1954": 0.17645783722400665,
          "1955": 0.16652877628803253,
          "1956": 0.18961259722709656,
          "1957": 0.22657334804534912,
          "1958": 0.19064635038375854,
          "1959": 0.25766274333000183,
          "1960": 0.1484275758266449,
          "1961": 0.2843255400657654,
          "1962": 0.24747705459594727,
          "1963": 0.1327381581068039,
          "1964": 0.2340058982372284,
          "1965": 0.1592492312192917,
          "1966": 0.22930391132831573,
          "1967": 0.1871062070131302,
          "1968": 0.28417861461639404,
          "1969": 0.28918683528900146,
          "1970": 0.14515501260757446,
          "1971": 0.2590024471282959,
          "1972": 0.2819693088531494,
          "1973": 0.09031268209218979,
          "1974": 0.15266773104667664,
          "1975": 0.15301260352134705,
          "1976": 0.28605398535728455,
          "1977": 0.27702051401138306,
          "1978": 0.14203503727912903,
          "1979": 0.1409238576889038,
          "1980": -0.39019468426704407,
          "1981": -0.3314414322376251,
          "1982": -0.27144479751586914,
          "1983": -0.38718247413635254,
          "1984": -0.37759634852409363,
          "1985": 0.073727086186409,
          "1986": -0.37471768260002136,
          "1987": -0.2936789095401764,
          "1988": -0.26164481043815613,
          "1989": -0.33759450912475586,
          "1990": -0.2380335032939911,
          "1991": -0.3066267669200897,
          "1992": -0.33846572041511536,
          "1993": -0.24073566496372223,
          "1994": -0.33407196402549744,
          "1995": -0.16603301465511322,
          "1996": -0.3463495373725891,
          "1997": -0.25253626704216003,
          "1998": -0.240293487906456,
          "1999": -0.345969557762146,
          "2000": -0.3296337127685547,
          "2001": -0.23656752705574036,
          "2002": -0.3783007860183716,
          "2003": -0.26207831501960754,
          "2004": -0.38504716753959656,
          "2005": -0.32919982075691223,
          "2006": -0.29506948590278625,
          "2007": -0.36908844113349915,
          "2008": -0.24253782629966736,
          "2009": -0.23989112675189972,
          "2010": -0.28359803557395935,
          "2011": -0.32725074887275696,
          "2012": -0.33137834072113037,
          "2013": -0.24873395264148712,
          "2014": -0.24356843531131744,
          "2015": -0.38487622141838074,
          "2016": -0.3492678105831146,
          "2017": -0.35704556107521057,
          "2018": -0.29147204756736755,
          "2019": -0.3383004367351532,
          "2020": -0.33865514397621155,
          "2021": -0.34609556198120117,
          "2022": -0.24278724193572998,
          "2023": -0.3899156451225281,
          "2024": -0.23691080510616302,
          "2025": -0.2778029441833496,
          "2026": -0.3249189853668213,
          "2027": -0.37599509954452515,
          "2028": -0.1645706444978714,
          "2029": -0.2769722640514374,
          "2030": -0.332224041223526,
          "2031": -0.3254214823246002,
          "2032": -0.2493157833814621,
          "2033": -0.28837841749191284,
          "2034": -0.325735867023468,
          "2035": -0.25683191418647766,
          "2036": -0.29114291071891785,
          "2037": -0.2873547673225403,
          "2038": -0.3255818784236908,
          "2039": -0.009614383801817894,
          "2040": -0.07724867016077042,
          "2041": -0.29850512742996216,
          "2042": -0.15097062289714813,
          "2043": -0.24508614838123322,
          "2044": -0.23512928187847137,
          "2045": -0.3526564836502075,
          "2046": -0.38081517815589905,
          "2047": -0.05828692764043808,
          "2048": -0.38107597827911377,
          "2049": -0.3411007523536682,
          "2050": -0.0432707779109478,
          "2051": -0.27608606219291687,
          "2052": -0.30422717332839966,
          "2053": -0.09106195718050003,
          "2054": -0.33376631140708923,
          "2055": -0.19211755692958832,
          "2056": -0.0880981832742691,
          "2057": -0.05347191542387009,
          "2058": -0.2359423190355301,
          "2059": -0.22593161463737488,
          "2060": -0.1431233435869217,
          "2061": -0.25320708751678467,
          "2062": -0.3535727560520172,
          "2063": -0.36831673979759216,
          "2064": -0.08950427919626236,
          "2065": -0.21405093371868134,
          "2066": -0.3726280927658081,
          "2067": -0.2760887145996094,
          "2068": -0.2951347231864929,
          "2069": -0.25477299094200134,
          "2070": -0.33275285363197327,
          "2071": -0.3007480502128601,
          "2072": -0.14260447025299072,
          "2073": -0.22426971793174744,
          "2074": -0.3036893904209137,
          "2075": -0.2858862578868866,
          "2076": -0.06338787823915482,
          "2077": -0.2362244874238968,
          "2078": -0.23832273483276367,
          "2079": -0.3107737600803375,
          "2080": -0.300685316324234,
          "2081": -0.26756444573402405,
          "2082": -0.06219242885708809,
          "2083": -0.015672292560338974,
          "2084": -0.28206953406333923,
          "2085": -0.2977449893951416,
          "2086": -0.2707240581512451,
          "2087": -0.3348482549190521,
          "2088": -0.0459379181265831,
          "2089": -0.282219797372818,
          "2090": -0.12823142111301422,
          "2091": -0.1980150192975998,
          "2092": -0.11140169203281403,
          "2093": -0.17655518651008606,
          "2094": -0.3287034034729004,
          "2095": 0.03469816967844963,
          "2096": -0.2752215266227722,
          "2097": -0.1531534045934677,
          "2098": -0.17821794748306274,
          "2099": -0.20031902194023132,
          "2100": -0.25011545419692993,
          "2101": -0.18753540515899658,
          "2102": -0.3543785810470581,
          "2103": -0.20557662844657898,
          "2104": -0.21165181696414948,
          "2105": -0.14747540652751923,
          "2106": -0.2216876745223999,
          "2107": -0.1566266268491745,
          "2108": -0.31047341227531433,
          "2109": -0.1680964082479477,
          "2110": -0.23480446636676788,
          "2111": -0.23822453618049622,
          "2112": -0.26442790031433105,
          "2113": -0.23992162942886353,
          "2114": -0.20003265142440796,
          "2115": -0.2057531327009201,
          "2116": -0.10409969836473465,
          "2117": -0.2177046835422516,
          "2118": -0.09394336491823196,
          "2119": -0.2427241951227188,
          "2120": -0.2918323874473572,
          "2121": -0.10592861473560333,
          "2122": -0.17687594890594482,
          "2123": -0.24458883702754974,
          "2124": -0.22469502687454224,
          "2125": -0.23544543981552124,
          "2126": -0.14293895661830902,
          "2127": -0.2410694807767868,
          "2128": -0.22857922315597534,
          "2129": -0.1444980949163437,
          "2130": -0.11364750564098358,
          "2131": -0.2746289074420929,
          "2132": -0.23864799737930298,
          "2133": -0.15280872583389282,
          "2134": -0.17456820607185364,
          "2135": -0.20492517948150635,
          "2136": -0.17818789184093475,
          "2137": -0.29984939098358154,
          "2138": -0.0021570208482444286,
          "2139": -0.17631766200065613,
          "2140": -0.13858431577682495,
          "2141": -0.09264443069696426,
          "2142": -0.20302851498126984,
          "2143": -0.33021867275238037,
          "2144": -0.20028825104236603,
          "2145": -0.07882719486951828,
          "2146": -0.0914984866976738,
          "2147": -0.1541076898574829,
          "2148": -0.07444146275520325,
          "2149": -0.1969122588634491,
          "2150": 0.07010695338249207,
          "2151": -0.1570185422897339,
          "2152": -0.14054934680461884,
          "2153": -0.15532144904136658,
          "2154": -0.06841399520635605,
          "2155": -0.18409599363803864,
          "2156": -0.08922890573740005,
          "2157": -0.13318279385566711,
          "2158": -0.15261593461036682,
          "2159": -0.07452045381069183,
          "2160": -0.0745043233036995,
          "2161": -0.1087682694196701,
          "2162": -0.08491019904613495,
          "2163": -0.15358085930347443,
          "2164": -0.14739002287387848,
          "2165": -0.08251377195119858,
          "2166": -0.09745386242866516,
          "2167": -0.1870902180671692,
          "2168": -0.1033640056848526,
          "2169": -0.16702193021774292,
          "2170": -0.14948822557926178,
          "2171": -0.1770380586385727,
          "2172": -0.0997755229473114,
          "2173": -0.12785302102565765,
          "2174": -0.04369702190160751,
          "2175": -0.19097967445850372,
          "2176": -0.20679183304309845,
          "2177": -0.05793628841638565,
          "2178": -0.06040874868631363,
          "2179": -0.19347529113292694,
          "2180": -0.18774496018886566,
          "2181": -0.11023953557014465,
          "2182": -0.14622527360916138,
          "2183": -0.1469530463218689,
          "2184": -0.05310214310884476,
          "2185": -0.18673375248908997,
          "2186": -0.14682598412036896,
          "2187": -0.19415314495563507,
          "2188": -0.16876719892024994,
          "2189": -0.14907336235046387,
          "2190": -0.10879470407962799,
          "2191": -0.19917993247509003,
          "2192": -0.058134034276008606,
          "2193": -0.11889862269163132,
          "2194": -0.08047588914632797,
          "2195": -0.192073792219162,
          "2196": -0.1077667772769928,
          "2197": -0.1673809140920639,
          "2198": -0.12386147677898407,
          "2199": -0.18378563225269318,
          "2200": -0.21644525229930878,
          "2201": -0.26419687271118164,
          "2202": -0.21371188759803772,
          "2203": -0.22755225002765656,
          "2204": -0.39951416850090027,
          "2205": -0.0696045383810997,
          "2206": -0.22315829992294312,
          "2207": -0.2592020630836487,
          "2208": -0.2057991921901703,
          "2209": -0.2923491299152374,
          "2210": -0.29963448643684387,
          "2211": -0.1902310699224472,
          "2212": -0.38820719718933105,
          "2213": -0.22601521015167236,
          "2214": -0.31024572253227234,
          "2215": -0.4228925406932831,
          "2216": -0.17420122027397156,
          "2217": -0.33219751715660095,
          "2218": -0.34863168001174927,
          "2219": -0.12397416681051254,
          "2220": -0.31085312366485596,
          "2221": -0.37129223346710205,
          "2222": -0.29642254114151,
          "2223": -0.3526957929134369,
          "2224": -0.2941553294658661,
          "2225": -0.2883618474006653,
          "2226": -0.20087675750255585,
          "2227": -0.22203432023525238,
          "2228": -0.171804279088974,
          "2229": -0.2802826166152954,
          "2230": -0.3733794093132019,
          "2231": -0.2528024911880493,
          "2232": -0.2189757525920868,
          "2233": -0.3339650332927704,
          "2234": -0.10413984954357147,
          "2235": -0.2362489551305771,
          "2236": -0.3046310245990753,
          "2237": -0.23583975434303284,
          "2238": -0.36703336238861084,
          "2239": -0.30222535133361816,
          "2240": -0.3203883767127991,
          "2241": -0.28969308733940125,
          "2242": -0.2899385094642639,
          "2243": -0.2706276476383209,
          "2244": -0.15945260226726532,
          "2245": -0.3207205832004547,
          "2246": -0.036521196365356445,
          "2247": -0.33827224373817444,
          "2248": -0.28566625714302063,
          "2249": -0.294684499502182,
          "2250": -0.011203210800886154,
          "2251": -0.3316994905471802,
          "2252": -0.25779035687446594,
          "2253": -0.3525187075138092,
          "2254": -0.31167471408843994,
          "2255": -0.012929320335388184,
          "2256": 0.014570961706340313,
          "2257": 0.06676237285137177,
          "2258": -0.005262726917862892,
          "2259": 0.21877574920654297,
          "2260": 0.6888550519943237,
          "2261": 0.13222740590572357,
          "2262": 0.0849141925573349,
          "2263": -0.02066970430314541,
          "2264": 0.1291111558675766,
          "2265": -0.03304493427276611,
          "2266": 0.05627601221203804,
          "2267": 0.16261541843414307,
          "2268": 0.06956363469362259,
          "2269": 0.09886061400175095,
          "2270": 0.5357747673988342,
          "2271": 0.1007891520857811,
          "2272": 0.08143386989831924,
          "2273": 0.1173810362815857,
          "2274": 0.07912366837263107,
          "2275": 0.10474351793527603,
          "2276": 0.1810346096754074,
          "2277": 0.23051302134990692,
          "2278": 0.07623149454593658,
          "2279": 0.06392429769039154,
          "2280": 0.07856889814138412,
          "2281": 0.024654770269989967,
          "2282": 0.019583238288760185,
          "2283": 0.05530034750699997,
          "2284": 0.20086577534675598,
          "2285": 0.1324802190065384,
          "2286": 0.04261036589741707,
          "2287": 0.05930924788117409,
          "2288": 0.07207883894443512,
          "2289": 0.02241816744208336,
          "2290": 0.0966784805059433,
          "2291": 0.07260394096374512,
          "2292": 0.11451426148414612,
          "2293": 0.07745181024074554,
          "2294": 0.013334500603377819,
          "2295": 0.10140510648488998,
          "2296": 0.07704877853393555,
          "2297": 0.008799235336482525,
          "2298": 0.12032603472471237,
          "2299": 0.08209042996168137,
          "2300": 0.03155020996928215,
          "2301": 0.021627657115459442,
          "2302": 0.24155613780021667,
          "2303": 0.6551663279533386,
          "2304": -0.018306391313672066,
          "2305": 0.08871077001094818,
          "2306": 0.09390927851200104,
          "2307": -0.026762446388602257,
          "2308": 0.29194432497024536,
          "2309": 0.04661545529961586,
          "2310": -0.09503813832998276,
          "2311": 0.07799620181322098,
          "2312": -0.07634984701871872,
          "2313": -0.1364680677652359,
          "2314": -0.5273932218551636,
          "2315": -0.8137242794036865,
          "2316": -0.11779963970184326,
          "2317": -0.2292100340127945,
          "2318": -0.07209813594818115,
          "2319": -0.299199640750885,
          "2320": -0.021668916568160057,
          "2321": 0.09564394503831863,
          "2322": -0.4090459942817688,
          "2323": 0.09877538681030273,
          "2324": 0.055145520716905594,
          "2325": -0.715132474899292,
          "2326": 0.002472036285325885,
          "2327": -0.08278995007276535,
          "2328": -0.29238462448120117,
          "2329": -0.01377659197896719,
          "2330": -0.2776166498661041,
          "2331": -0.31215518712997437,
          "2332": -0.44847553968429565,
          "2333": -0.1766078621149063,
          "2334": 0.006909775547683239,
          "2335": -0.18426628410816193,
          "2336": -0.02471509575843811,
          "2337": 0.04454740136861801,
          "2338": 0.011205075308680534,
          "2339": -0.4325541853904724,
          "2340": -0.2636384665966034,
          "2341": -0.052669309079647064,
          "2342": -0.03346987068653107,
          "2343": 0.029752055183053017,
          "2344": 0.0790671557188034,
          "2345": -0.03221815824508667,
          "2346": 0.08161614835262299,
          "2347": -0.22853900492191315,
          "2348": -0.0900716632604599,
          "2349": 0.07322397083044052,
          "2350": 0.0032062437385320663,
          "2351": -0.3794298470020294,
          "2352": -0.009992522187530994,
          "2353": -0.11284803599119186,
          "2354": 0.09116639196872711,
          "2355": 0.10458625853061676,
          "2356": 0.038584381341934204,
          "2357": -0.4191000461578369,
          "2358": -0.7358118295669556,
          "2359": -0.013081331737339497,
          "2360": 0.10763330012559891,
          "2361": -0.04745752364397049,
          "2362": -0.06491953134536743,
          "2363": -0.6004883646965027,
          "2364": -0.003423181129619479,
          "2365": -0.35010188817977905,
          "2366": -0.3495190739631653,
          "2367": -0.2470988780260086,
          "2368": -0.3486354649066925,
          "2369": -0.3847261667251587,
          "2370": 0.04043411463499069,
          "2371": -0.24913881719112396,
          "2372": -0.26864704489707947,
          "2373": -0.24213439226150513,
          "2374": -0.34630388021469116,
          "2375": -0.26495465636253357,
          "2376": -0.3898555636405945,
          "2377": -0.26316291093826294,
          "2378": -0.3303707242012024,
          "2379": -0.36270180344581604,
          "2380": -0.3206022083759308,
          "2381": -0.28257715702056885,
          "2382": -0.35236451029777527,
          "2383": -0.2553730309009552,
          "2384": -0.278335839509964,
          "2385": -0.3540908098220825,
          "2386": -0.38799941539764404,
          "2387": -0.36332541704177856,
          "2388": -0.26403525471687317,
          "2389": -0.26118001341819763,
          "2390": -0.29961833357810974,
          "2391": -0.30609074234962463,
          "2392": -0.24089467525482178,
          "2393": -0.3058006763458252,
          "2394": -0.3044169545173645,
          "2395": -0.3173794150352478,
          "2396": -0.3876364827156067,
          "2397": -0.3555417060852051,
          "2398": -0.27929994463920593,
          "2399": -0.383132666349411,
          "2400": -0.32140907645225525,
          "2401": -0.31756553053855896,
          "2402": -0.26499849557876587,
          "2403": -0.3456200659275055,
          "2404": -0.29760193824768066,
          "2405": -0.30448058247566223,
          "2406": -0.3606101870536804,
          "2407": -0.3900274336338043,
          "2408": -0.3285708725452423,
          "2409": -0.251739501953125,
          "2410": -0.2844052016735077,
          "2411": -0.2843238115310669,
          "2412": -0.29467570781707764,
          "2413": -0.16231513023376465,
          "2414": -0.28146204352378845,
          "2415": -0.34184378385543823,
          "2416": -0.23677174746990204,
          "2417": -0.3656558394432068,
          "2418": -0.24977444112300873,
          "2419": -0.26241105794906616,
          "2420": -0.2448951005935669,
          "2421": -0.34493064880371094,
          "2422": -0.3691846430301666,
          "2423": -0.2805814743041992,
          "2424": -0.2968548834323883,
          "2425": 0.01587682217359543,
          "2426": -0.2965390682220459,
          "2427": -0.32103273272514343,
          "2428": -0.3648686707019806,
          "2429": -0.3318050503730774,
          "2430": -0.23647041618824005,
          "2431": -0.3398300111293793,
          "2432": -0.3558712303638458,
          "2433": -0.2856122553348541,
          "2434": -0.3335723876953125,
          "2435": -0.10487391799688339,
          "2436": -0.24792742729187012,
          "2437": -0.2621062994003296,
          "2438": -0.3026210367679596,
          "2439": -0.2364000827074051,
          "2440": -0.3276728391647339,
          "2441": -0.3364274203777313,
          "2442": -0.315695583820343,
          "2443": -0.2801284193992615,
          "2444": -0.2396121770143509,
          "2445": -0.3766598701477051,
          "2446": -0.2475776970386505,
          "2447": -0.24787203967571259,
          "2448": -0.2935802936553955,
          "2449": -0.31816595792770386,
          "2450": -0.26914554834365845,
          "2451": -0.2532707750797272,
          "2452": -0.24127963185310364,
          "2453": -0.29057925939559937,
          "2454": -0.236857607960701,
          "2455": -0.2799417972564697,
          "2456": -0.308645099401474,
          "2457": -0.3634403347969055,
          "2458": -0.2541094124317169,
          "2459": -0.25753504037857056,
          "2460": -0.3329506814479828,
          "2461": -0.3274945616722107,
          "2462": -0.2952185571193695,
          "2463": -0.34589922428131104,
          "2464": -0.3419301211833954,
          "2465": -0.37641963362693787,
          "2466": -0.3537750244140625,
          "2467": -0.26547059416770935,
          "2468": -0.10682499408721924,
          "2469": -0.2606453001499176,
          "2470": -0.3250929117202759,
          "2471": -0.2541358172893524,
          "2472": -0.29931020736694336,
          "2473": -0.18493187427520752,
          "2474": -0.3856944441795349,
          "2475": 0.08949638903141022,
          "2476": 0.025176433846354485,
          "2477": 0.4126918911933899,
          "2478": 0.17912310361862183,
          "2479": 0.9063066840171814,
          "2480": 0.7887970805168152,
          "2481": 0.41058868169784546,
          "2482": 0.4335026443004608,
          "2483": 0.1727081835269928,
          "2484": 0.6292250156402588,
          "2485": 0.1638791412115097,
          "2486": 0.11635993421077728,
          "2487": 0.8178927302360535,
          "2488": 0.0018369071185588837,
          "2489": 0.12220054119825363,
          "2490": 0.9423413872718811,
          "2491": 0.013561009429395199,
          "2492": 0.3072378933429718,
          "2493": 0.5558907389640808,
          "2494": -0.03136284276843071,
          "2495": 0.5266282558441162,
          "2496": 0.5139775276184082,
          "2497": 0.6458792090415955,
          "2498": 0.396222323179245,
          "2499": 0.11629875749349594,
          "2500": 0.4368108808994293,
          "2501": 0.00986025482416153,
          "2502": 0.05064965412020683,
          "2503": 0.017192792147397995,
          "2504": 0.6602539420127869,
          "2505": 0.6625661849975586,
          "2506": 0.16428051888942719,
          "2507": 0.2065930962562561,
          "2508": 0.1088261604309082,
          "2509": 0.022546008229255676,
          "2510": 0.01825219765305519,
          "2511": 0.11155827343463898,
          "2512": 0.5492280721664429,
          "2513": 0.3192090094089508,
          "2514": 0.1241561695933342,
          "2515": 0.10497350990772247,
          "2516": 0.6879923343658447,
          "2517": 0.2954185903072357,
          "2518": 0.28038015961647034,
          "2519": -0.03545241430401802,
          "2520": 0.04895821958780289,
          "2521": -0.09118223190307617,
          "2522": 0.7607774138450623,
          "2523": 0.9014891982078552,
          "2524": 0.1389133781194687,
          "2525": -0.14692634344100952,
          "2526": 0.11796151846647263,
          "2527": 0.09787166863679886,
          "2528": 0.9436768293380737,
          "2529": 0.1784253567457199,
          "2530": -0.17192353308200836,
          "2531": -0.15828752517700195,
          "2532": -0.16709424555301666,
          "2533": -0.04461744427680969,
          "2534": -0.1795937716960907,
          "2535": -0.027849284932017326,
          "2536": -0.10641054809093475,
          "2537": -0.09837736189365387,
          "2538": -0.16968339681625366,
          "2539": -0.07597377896308899,
          "2540": -0.15580186247825623,
          "2541": -0.10343711078166962,
          "2542": -0.07451125979423523,
          "2543": -0.08233766257762909,
          "2544": -0.12513864040374756,
          "2545": -0.033718228340148926,
          "2546": -0.034950293600559235,
          "2547": -0.07060065120458603,
          "2548": -0.15428635478019714,
          "2549": -0.1340785026550293,
          "2550": -0.11471086740493774,
          "2551": -0.1773807853460312,
          "2552": -0.10022594034671783,
          "2553": -0.09972774982452393,
          "2554": -0.1665809452533722,
          "2555": -0.08418209850788116,
          "2556": -0.08445120602846146,
          "2557": -0.16384541988372803,
          "2558": -0.16869939863681793,
          "2559": -0.024934662505984306,
          "2560": -0.10050106793642044,
          "2561": -0.10668777674436569,
